#ifndef __AP_MOTORS_POLICY_DEF_H__
#define __AP_MOTORS_POLICY_DEF_H__

const int STATE_SIZE = 9;
const int OB_SPACE_SIZE = 12;
const int AC_SPACE_SIZE = 4;
const int NUM_HIDDEN_LAYER = 2;
const int HIDDEN_LAYER_SIZE = 64;
const float FINAL_BIAS = 3.500000;

const float W0[OB_SPACE_SIZE][HIDDEN_LAYER_SIZE] = {
{0.771220, 0.276204, 0.471095, 0.226315, 0.153477, 0.184439, -0.073645, -0.480330, -0.522825, 1.369327, -0.048053, 0.518187, -0.007476, -0.227140, -0.084820, 0.019140, -0.227538, 0.132585, 0.057922, 0.056670, 0.560186, -0.185210, 0.177248, -0.331645, -0.267855, 0.527374, 0.071660, -0.157033, 0.049636, 0.523771, -0.189344, 0.274162, 0.318741, 0.351490, -0.573545, -0.060680, 0.194093, 0.090809, 0.318358, -0.205777, -0.768962, 0.041941, -0.034745, 0.374790, -0.330839, 0.661982, -0.397351, -0.582425, 0.096320, 0.559038, 0.080193, 0.145458, -1.014468, 0.151471, 0.105028, -0.428359, -0.008323, 0.068881, 0.240880, 0.031641, -0.402137, -0.009803, 0.044709, 0.030462, },
{-0.428904, 0.167116, -0.515819, 0.137615, -0.215569, 0.002208, -0.428856, -0.509358, 0.323565, -0.356573, 0.031997, -0.473148, -0.365840, -0.460213, 0.076714, -0.171700, 0.043050, 0.011509, 0.413600, 0.291739, 0.692458, 0.385482, -0.027897, -0.418185, -0.373204, -0.007283, -0.029147, 0.595454, 0.320888, -0.005366, 0.371731, 0.299637, -0.325557, 0.150684, 0.296879, -0.078919, -0.052591, -0.348720, -0.238984, -0.105560, -0.128278, -0.503111, 0.662777, 0.171515, 0.083077, 0.135269, -0.341434, -0.310774, 0.082492, -0.337039, 0.224347, -0.321609, 0.531865, 0.403179, -0.421465, -0.382671, 0.792201, 0.043102, 0.150085, 0.489117, 0.159724, -0.596795, 0.072549, -0.710935, },
{-0.163890, 0.194993, 0.196972, -0.210145, 0.106276, -0.585508, -0.086596, -0.068891, -0.457146, -0.085937, -0.189922, 0.184852, 0.253336, -0.142553, 0.014739, -0.299910, 0.141777, -0.045014, -0.556403, 0.510215, 0.171219, -0.495853, -0.103484, -0.030909, 0.427944, -0.537286, -0.429501, -0.187186, 0.097774, 0.523229, -0.256445, -0.068275, -0.553100, -0.508048, 0.182974, 0.367928, -0.207445, 0.386139, 0.349084, 0.611376, 0.080645, -0.389928, -0.293505, -0.698197, -0.171839, 0.164423, -0.238931, -0.046125, -0.286202, 0.308489, -0.025876, 0.259116, 0.398423, -0.829876, 0.278607, -0.180611, 0.082300, -0.237729, 0.312023, -0.082653, -0.508534, 0.088720, 0.588469, 0.283292, },
{0.495281, -0.530718, -0.172445, -0.354893, -0.482821, 0.110046, -0.107142, -0.138963, -0.163222, 0.408403, -0.371284, -0.090524, 0.175026, -0.321913, -0.138879, -0.019075, -0.559056, -0.452760, 0.047968, 0.498771, -0.287504, 0.134509, 0.272108, -0.537710, -0.458810, 0.147411, 0.244769, -0.562144, -0.056483, 0.126148, 0.101685, -0.425698, 0.566465, 0.406254, -0.063091, -0.292054, -0.653171, -0.444172, 0.594490, 0.130619, -0.119102, -0.068081, 0.564004, -0.220107, 0.296825, -0.155379, -0.262600, -0.259058, 0.503482, -0.585096, -0.489813, 0.354059, -0.167635, 0.113708, -0.306103, -0.177329, 0.002807, 0.110028, 0.140526, 0.093433, -0.483323, -0.709433, -0.092971, -0.153958, },
{0.606818, 0.214292, -0.122664, -0.227804, 0.235470, -0.541465, -0.302712, 0.126271, -0.498065, 0.544131, 0.326497, 0.031147, 0.012731, -0.013110, -0.044920, -0.093101, 0.255475, 0.450269, -0.331774, 0.080450, 0.569638, -0.159709, -0.337217, 0.264477, 0.115191, 0.380999, -0.119116, 0.544669, 0.672233, 0.315917, 0.058496, 0.458359, 0.380767, 0.010032, 0.371141, -0.764741, 0.015980, -0.193690, -0.419089, 0.108209, 0.031115, 0.374986, -0.200651, 0.267507, -0.274868, -0.060935, -0.629500, -0.019571, 0.213552, -0.350651, 0.187953, 0.241238, -0.211391, -0.171349, -0.000794, 0.143636, 0.494030, -0.464235, 0.677809, -0.463381, 0.078241, -0.166948, -0.385706, 0.093705, },
{0.185457, -0.319750, -0.037879, -0.166696, -0.449209, -0.141228, -0.027787, -0.173897, 0.489498, -0.093011, 0.026265, -0.197587, -0.294714, -0.532756, -0.393804, 0.114880, 0.227580, -0.132576, -0.085008, 0.079321, 0.233841, 0.039015, -0.032957, -0.233834, 0.329749, -0.048140, 0.586268, 0.041570, 0.116748, -0.431889, -0.549647, -0.034985, -0.155215, -0.141785, -0.457466, -0.289680, 0.269189, 0.261646, 0.455219, 0.567285, 0.036741, -0.166675, 0.100766, -0.099486, 0.070079, -0.618529, -0.199990, -0.259370, -0.186798, 0.258694, -0.278598, -0.084282, 0.006012, -0.168889, 0.404533, -0.183021, -0.096932, 0.067721, -0.299856, 0.030033, 0.227758, 0.401961, -0.226948, -0.542882, },
{-0.035580, -0.581877, 0.025113, 0.322668, -0.114595, -0.196306, -0.127271, 0.193794, -0.341265, 0.468416, 0.802736, 0.176338, -0.134776, 0.322679, 0.180095, -0.422250, -0.007997, 0.576110, -0.251727, -0.280469, 0.865416, -0.318986, 0.938267, 0.127027, -0.418807, -0.476722, -0.662093, 0.486434, -0.233375, 0.273041, -0.377016, 0.378757, -0.116850, -0.276131, -0.040395, 0.394999, 0.406138, -0.126942, 0.265468, -0.693698, 0.354105, 0.137367, 0.104079, 0.011968, -1.049454, 0.112923, 0.389287, 0.037642, -0.516636, 0.205027, -0.513667, 0.358721, -0.600995, 0.085434, -0.264336, 0.691278, 0.276743, -0.331901, -0.208493, -0.405785, 0.090802, -0.154349, -0.585804, 0.243208, },
{-0.174075, 0.220320, 0.332998, -0.144241, 0.445571, -0.609136, -0.318380, -0.431027, 0.296947, -0.016632, 0.289614, 0.371913, -0.655239, 0.107849, 0.605240, 0.052310, 0.294402, -0.240406, -0.191315, 0.307204, 0.325621, 0.529011, 0.194870, -0.343503, -0.096920, -0.412690, 0.332742, 0.307579, -0.573464, -0.192642, -0.309128, -0.364083, 0.027163, 0.400082, -0.607514, 0.221915, 0.227725, -0.076201, 0.411645, -0.359526, 0.483488, -0.034928, 0.084375, 0.242662, -0.269178, 0.379169, -0.165956, 0.448496, -0.055306, -0.173898, -0.133626, 0.705953, 0.405077, -0.221236, -0.521223, -0.202813, 0.299555, -0.013087, 0.287284, -0.042286, -0.063760, -0.190694, 0.411561, 0.105933, },
{0.270033, -0.424687, 0.503213, 0.129202, -0.156077, -0.154489, -0.905874, -0.157892, -0.053944, 0.001551, -0.120783, -0.117395, 0.313706, -0.478473, -0.315615, 0.736858, -0.089283, 0.636817, -0.162222, 0.297518, -0.112001, 0.252768, 0.154724, 0.139466, 0.179530, 0.095827, -0.378646, -0.075820, -0.129518, 0.167166, 0.094511, 0.346435, -0.412716, -0.501975, -0.223206, -0.130484, 0.355346, -0.691475, -0.199113, -0.011179, -0.139294, 0.079079, 0.404877, -0.366158, 0.429802, -0.213307, 0.139979, 0.230694, -0.796704, -0.070641, -0.199794, -0.113042, 0.146642, -0.635980, -0.010375, 0.496982, -0.193663, 0.115651, -0.580798, -0.250264, -0.157426, -0.132480, 0.011351, -0.349500, },
{-0.312290, 0.341187, -0.046920, 0.007683, -0.326245, -0.195829, 0.151101, -0.169058, -0.230788, -0.262439, 0.214062, 0.386990, -0.016882, 0.111474, 0.347708, -0.024184, 0.355371, 0.115782, 0.284255, -0.288207, 0.301260, -0.463742, -0.122074, 0.433595, 0.196187, -0.219991, -0.085517, 0.403994, 0.178389, -0.031243, -0.272606, 0.021655, -0.261454, -0.011853, -0.072503, 0.070387, -0.457359, 0.395088, 0.079699, -0.035641, 0.276383, 0.152472, -0.014484, -0.091958, 0.062884, 0.416345, -0.082723, -0.367071, -0.064120, 0.181332, 0.594757, -0.016694, 0.005002, -0.113980, -0.281947, 0.120532, -0.232489, 0.429856, 0.196900, 0.546042, -0.254877, -0.130144, 0.010440, -0.073997, },
{-0.295375, 0.337242, 0.148701, -0.727253, -0.244752, 0.085566, 0.435609, 0.156320, 0.307857, -0.055317, 0.225890, 0.457016, -0.073028, 0.208905, 0.300113, -0.438570, 0.223831, -0.054445, 0.435349, 0.118940, -0.174136, 0.018335, 0.451127, -0.157576, 0.019198, -0.097683, -0.137044, -0.479822, -0.247806, 0.122172, -0.276650, 0.582186, 0.345448, -0.429924, -0.163768, -0.143351, 0.205948, 0.068951, -0.043470, 0.109838, -0.163996, 0.152880, -0.151355, -0.063099, 0.119059, 0.296073, 0.025946, 0.069361, 0.171747, 0.036817, 0.238651, -0.029849, 0.187327, -0.232682, -0.304481, 0.140494, -0.615440, -0.331867, -0.228737, 0.424011, -0.562541, -0.041905, -0.386841, 0.164859, },
{0.125102, -0.103074, 0.533158, -0.275047, 0.065218, -0.274401, 0.029483, 0.455207, 0.175414, 0.129293, -0.555408, 0.219472, -0.339174, 0.237584, 0.057630, -0.085642, -0.430634, 0.319426, 0.061427, -0.301223, 0.086143, -0.123871, 0.196896, 0.138916, 0.070682, -0.155939, 0.064368, 0.285197, -0.356231, -0.425106, 0.768495, -0.169673, 0.163589, 0.108973, -0.341419, -0.072165, -0.006427, -0.191092, 0.071694, -0.100081, 0.091100, -0.807835, 0.255794, 0.296897, 0.272235, 0.220170, -0.231525, -0.226938, -0.070702, -0.244388, 0.363445, 0.311048, -0.032736, 0.119876, -0.178249, 0.140053, 0.235713, -0.294736, -0.181022, -0.215770, -0.384688, 0.081989, -0.036305, 0.259919, },
};

const float W_hidden[NUM_HIDDEN_LAYER - 1][HIDDEN_LAYER_SIZE][HIDDEN_LAYER_SIZE] = {
{
{0.148623, 0.259929, -0.105843, 0.211481, 0.012690, -0.485009, -0.137381, -0.319965, -0.018713, -0.044364, -0.299993, 0.211661, -0.089753, 0.078027, 0.074731, -0.000012, -0.198895, 0.048588, 0.308547, -0.051101, -0.061691, 0.179159, 0.242029, 0.198094, 0.098974, -0.188449, 0.020707, -0.197410, 0.051397, 0.273136, 0.294576, -0.550431, -0.162277, 0.028203, 0.023947, -0.153523, 0.012876, 0.099341, -0.167787, -0.043879, 0.173133, -0.066816, 0.088033, 0.314307, 0.129471, 0.098867, 0.121750, 0.319638, -0.162719, -0.171465, 0.267591, -0.206202, -0.102002, 0.186789, -0.223564, -0.114163, 0.235192, 0.101989, 0.182623, 0.189294, 0.165854, 0.185993, -0.211326, 0.213358, },
{0.039626, -0.047328, 0.120012, 0.100966, -0.111183, -0.016730, -0.046595, -0.050562, -0.138173, 0.155329, 0.123432, -0.111977, 0.091098, 0.215875, 0.053207, -0.122197, 0.050358, 0.008319, -0.135497, 0.260406, -0.044869, 0.122405, -0.100724, -0.029194, 0.226235, 0.007404, 0.378235, 0.213050, -0.049816, 0.341389, -0.213982, 0.060697, 0.438029, -0.235189, -0.213878, 0.014690, 0.294728, -0.069598, 0.038122, 0.405082, -0.150529, 0.031207, 0.128296, 0.097327, 0.023974, 0.013607, -0.099775, -0.043307, 0.063784, -0.059198, -0.097088, 0.317567, -0.320838, 0.105925, -0.127206, 0.003611, -0.256243, -0.119943, -0.041334, -0.223661, 0.116520, -0.111292, 0.114328, -0.190387, },
{0.150172, -0.047479, -0.084999, -0.216787, -0.325109, -0.056089, 0.188305, 0.140493, 0.131110, 0.059504, -0.161012, 0.036100, -0.052724, 0.117532, 0.077157, 0.121120, -0.180917, 0.027816, 0.053333, -0.008368, 0.057209, -0.167869, -0.028088, -0.155055, 0.338463, -0.140834, 0.130730, 0.109814, 0.296833, 0.203297, -0.036049, -0.370639, 0.016663, 0.027139, 0.143084, 0.154613, 0.157077, -0.490519, -0.127398, -0.167844, -0.076751, -0.211301, -0.145922, 0.225256, 0.178017, 0.072653, -0.073435, 0.005248, 0.073148, -0.053367, -0.080043, 0.030956, -0.166983, -0.288713, 0.027134, -0.142977, 0.048147, -0.018405, 0.147453, 0.506652, -0.002663, 0.001376, 0.037938, -0.327255, },
{0.066337, 0.202811, -0.135180, 0.198925, 0.176976, -0.127396, -0.108649, -0.360599, -0.193533, -0.013282, -0.056170, 0.056053, -0.064481, -0.237531, 0.016246, -0.089944, 0.109003, 0.161588, 0.143103, -0.106873, -0.168063, -0.202091, -0.080728, 0.096402, -0.025969, -0.056535, -0.054785, -0.088959, -0.125259, -0.037894, -0.104520, -0.032425, -0.056823, 0.037225, -0.111004, -0.053660, 0.245310, -0.020586, -0.256065, 0.123287, 0.176256, -0.129395, 0.135146, -0.120197, -0.082235, 0.154136, 0.070924, 0.117521, 0.101023, -0.064738, 0.182396, -0.007178, 0.178239, 0.006603, -0.217756, 0.007564, -0.070808, 0.181145, -0.109105, -0.135364, -0.052123, -0.067075, -0.121595, 0.197600, },
{0.160830, -0.130972, -0.104171, -0.100144, 0.060866, 0.131100, 0.143909, 0.084416, -0.109486, 0.315022, 0.139556, -0.052433, 0.320610, -0.008152, 0.055000, -0.152975, 0.131554, 0.070333, -0.019004, 0.136570, -0.025305, 0.104060, -0.190831, 0.034444, 0.116066, 0.009955, 0.010872, -0.062398, 0.212780, 0.093357, -0.082831, -0.139336, 0.296533, 0.115130, 0.152628, -0.087795, 0.135233, -0.037177, 0.183976, 0.101453, 0.064798, -0.326032, -0.036895, 0.057048, -0.242024, -0.031911, 0.096190, 0.267998, 0.178338, -0.023610, -0.062543, 0.263846, 0.042979, 0.008349, 0.187773, -0.080739, -0.035586, -0.263139, -0.273485, 0.085512, -0.169281, -0.130438, 0.279008, -0.005058, },
{0.257596, -0.120919, -0.097568, 0.220432, 0.306008, 0.121540, -0.192959, -0.205562, -0.055836, -0.441765, 0.001409, -0.071647, -0.211925, -0.076581, -0.134966, -0.093834, -0.180737, -0.052985, 0.099355, -0.003602, 0.310300, -0.383827, -0.009959, -0.075600, -0.276264, -0.001175, -0.197274, -0.074532, 0.042715, -0.042559, 0.207061, 0.155355, -0.005327, -0.069102, -0.162592, -0.078332, -0.011363, 0.250528, 0.077520, -0.041053, 0.363782, -0.012890, -0.022023, -0.052604, 0.134922, 0.224865, 0.223947, 0.023834, -0.082409, 0.155625, -0.197694, -0.229344, 0.107803, 0.167331, -0.245644, 0.295135, 0.157825, 0.268063, 0.033122, -0.244025, 0.106280, 0.059802, 0.014360, 0.158847, },
{-0.121827, -0.146965, -0.026438, -0.016623, -0.010538, -0.180867, -0.122488, 0.122026, -0.191124, -0.203036, -0.229946, 0.113275, -0.162941, 0.050474, -0.005456, -0.195167, -0.078195, 0.012714, 0.273642, 0.489820, 0.243689, -0.138187, 0.009667, 0.182484, -0.241133, 0.357967, -0.399111, -0.285538, 0.022410, 0.223467, 0.234465, -0.023482, 0.058891, 0.103375, -0.004661, 0.190612, -0.436908, 0.225330, -0.080071, -0.234948, 0.074646, 0.314251, 0.229946, -0.295107, 0.269347, 0.010169, -0.108756, -0.322468, 0.169603, -0.018589, -0.363058, -0.384523, 0.134256, 0.010951, 0.000756, 0.064352, 0.138836, -0.248419, 0.181709, -0.458433, 0.084859, 0.113856, -0.161320, 0.241953, },
{0.248134, 0.039235, 0.081373, -0.007733, -0.166369, 0.133596, 0.217948, -0.170672, -0.093895, -0.060541, 0.163063, 0.015388, -0.018113, 0.307252, 0.104064, 0.021313, 0.014221, 0.382788, -0.124587, 0.087000, 0.157187, -0.358089, 0.022740, 0.371780, 0.206856, -0.253408, -0.139092, 0.057830, 0.070311, 0.121646, 0.009429, 0.250225, -0.111988, 0.168824, 0.253985, -0.051157, -0.113714, -0.040468, -0.123824, -0.012147, -0.321842, -0.026319, 0.359184, 0.023828, 0.102815, 0.100007, 0.007166, -0.157425, 0.097846, 0.200815, -0.044866, -0.191948, 0.222913, 0.151820, 0.296578, -0.063619, 0.100942, -0.033519, 0.233268, 0.018812, -0.023012, -0.085200, -0.007171, -0.028784, },
{0.006879, -0.273354, -0.155205, 0.083437, -0.146742, 0.154700, 0.038960, -0.073729, -0.082939, 0.095951, 0.120529, 0.264813, -0.091461, -0.004924, -0.213362, 0.094723, 0.062358, -0.141403, 0.166666, 0.216507, 0.142683, -0.013710, 0.301486, -0.141514, -0.084220, 0.106365, 0.069442, -0.112956, -0.359901, -0.213498, -0.074026, -0.039323, 0.086956, -0.060463, -0.014876, 0.220657, -0.050146, -0.043971, 0.029409, -0.365805, 0.078366, 0.302201, -0.059708, -0.158455, -0.084119, 0.064910, 0.008628, -0.478190, -0.142098, -0.013938, 0.274656, 0.002285, -0.342361, 0.271262, 0.024437, -0.062649, -0.313861, -0.084305, -0.151113, -0.045256, 0.151642, -0.030684, 0.039899, 0.144254, },
{0.172311, 0.564706, 0.051718, -0.160957, 0.053545, -0.335340, 0.172474, -0.086823, 0.268858, -0.129699, -0.163822, 0.226835, -0.258744, 0.219623, 0.052316, -0.136092, 0.029827, 0.288054, -0.289231, -0.074294, -0.275210, -0.028601, 0.473807, 0.374567, 0.122431, 0.038609, -0.074870, 0.183041, 0.303752, -0.023623, 0.042834, -0.070480, -0.028301, -0.035021, 0.096633, -0.351352, -0.159281, -0.034274, -0.212050, -0.279533, 0.173213, -0.374538, 0.030347, 0.183365, 0.098985, 0.052536, -0.158321, 0.017363, 0.124457, 0.167707, 0.129754, -0.217966, 0.035809, 0.261507, 0.150716, -0.278021, 0.138446, 0.022803, 0.220507, 0.066129, -0.000155, 0.359761, -0.041361, -0.199156, },
{-0.222532, 0.349522, -0.016638, -0.175432, -0.190244, -0.204945, -0.248682, -0.326982, 0.355930, 0.076684, -0.171371, -0.016270, -0.049637, 0.063377, 0.065814, -0.233847, 0.185147, -0.008290, 0.073609, 0.091163, -0.121311, -0.254322, 0.013744, 0.097423, -0.103368, 0.163718, -0.144938, 0.010696, -0.251748, -0.075989, 0.178495, 0.316995, 0.156800, 0.191307, 0.104373, -0.123075, -0.278544, 0.338042, -0.070071, -0.000624, 0.205377, 0.151596, -0.108560, -0.079785, 0.186210, 0.072720, -0.022571, 0.451066, 0.259259, -0.120376, 0.075734, -0.003368, 0.025106, -0.128275, -0.150737, 0.159174, 0.151546, -0.315049, 0.147797, -0.148975, 0.183611, -0.060422, 0.077763, -0.090733, },
{-0.040898, 0.237524, 0.001886, -0.016722, -0.152540, 0.003570, 0.158092, 0.042490, 0.069343, 0.134412, -0.180573, 0.127335, -0.040704, 0.117602, 0.072759, -0.073919, -0.437242, -0.209229, 0.010505, -0.074196, 0.063675, -0.011793, 0.012629, -0.120298, 0.090052, -0.110978, -0.081889, 0.019535, 0.116798, 0.186662, -0.045833, -0.078596, -0.126804, -0.325424, 0.055913, -0.037257, 0.219174, -0.085770, 0.122643, 0.013099, 0.055075, 0.019337, 0.111831, 0.218834, 0.051400, -0.163685, 0.085428, -0.127981, 0.007913, 0.201671, 0.019097, 0.196417, 0.158935, -0.112012, 0.228359, 0.164267, 0.012609, 0.154015, 0.229276, 0.311404, -0.002506, 0.249435, 0.069975, 0.109358, },
{-0.106460, -0.059869, 0.303895, -0.324695, -0.020313, 0.364351, -0.288053, 0.100985, 0.093612, -0.208427, -0.025458, -0.084721, 0.312634, 0.066842, 0.164682, -0.227909, 0.122318, 0.096646, -0.150100, 0.057522, 0.445046, 0.152315, 0.011033, 0.096577, 0.070173, -0.368333, 0.134594, 0.163939, 0.119027, -0.145638, 0.231502, 0.092414, -0.090757, 0.099571, 0.414028, 0.062633, -0.103248, -0.218564, -0.011528, 0.163046, -0.155727, -0.110592, 0.083073, 0.200233, -0.356707, -0.107671, -0.195802, -0.129970, 0.162264, -0.086194, -0.257281, -0.065758, 0.151600, -0.129769, 0.167364, -0.514289, 0.031283, -0.026419, -0.052218, -0.124306, -0.106562, -0.013717, 0.140152, -0.385255, },
{0.371728, -0.023584, -0.214024, 0.011548, -0.169133, 0.145333, 0.020140, -0.059455, -0.063055, -0.087697, -0.028189, -0.013589, -0.074428, 0.049962, 0.028223, 0.166285, -0.186678, 0.279884, 0.225016, -0.019138, -0.068466, -0.141897, 0.072092, 0.042348, -0.118984, 0.105297, -0.281649, 0.039010, 0.100811, 0.193723, 0.003218, 0.038743, 0.383026, 0.126423, 0.147986, -0.096505, -0.112761, 0.149392, -0.035418, -0.010584, 0.258051, -0.044481, 0.039384, 0.029976, 0.189719, -0.132550, -0.256983, 0.059985, -0.155143, 0.162397, -0.080904, 0.066285, 0.280529, -0.090602, 0.155615, -0.046525, -0.107730, -0.036084, -0.042915, -0.045274, -0.096610, 0.157161, 0.074187, 0.157194, },
{0.155054, 0.092760, -0.209718, 0.171759, 0.021946, 0.159075, -0.010935, -0.096601, -0.014817, 0.239910, -0.115639, 0.088468, -0.045721, 0.039617, 0.048282, -0.123900, -0.486296, 0.104167, 0.059461, -0.168570, 0.042523, -0.029038, -0.151564, -0.153911, 0.232778, 0.196661, 0.028485, -0.137133, 0.047920, -0.056118, 0.004954, 0.083686, 0.119183, 0.080078, -0.230747, 0.020230, 0.075256, 0.199796, -0.015088, -0.042934, 0.137476, 0.041256, -0.116381, -0.020723, 0.184178, 0.208709, 0.090797, 0.067612, -0.020748, -0.073148, -0.062129, -0.059230, -0.123311, -0.029830, 0.050431, 0.260004, -0.179097, -0.237383, 0.076981, 0.050793, -0.050307, 0.162927, -0.056764, 0.249109, },
{-0.314783, -0.074783, -0.005154, 0.096142, 0.284140, 0.220949, -0.276162, -0.233775, 0.064303, 0.055433, -0.127671, 0.140135, 0.121313, -0.058132, -0.201054, -0.270177, 0.191197, 0.223015, 0.010271, 0.018161, 0.042825, -0.026194, -0.089278, 0.018993, 0.078079, -0.084491, 0.089202, 0.072420, 0.037964, -0.065363, 0.091507, 0.090338, 0.296557, -0.066644, -0.053704, 0.082551, -0.249119, 0.008731, -0.290038, -0.133007, -0.184536, -0.210204, -0.023898, -0.043247, -0.017990, 0.007361, 0.248509, -0.063562, -0.281530, -0.275673, -0.000696, 0.057336, -0.024671, 0.072610, -0.280894, 0.036221, -0.323105, -0.144054, -0.364743, 0.307964, 0.300732, -0.036734, -0.096686, -0.148262, },
{-0.204533, 0.187075, -0.266050, 0.275571, -0.199523, -0.013966, -0.207686, -0.215362, 0.197127, 0.089522, -0.026254, 0.197102, -0.108728, 0.074088, -0.213134, -0.070200, -0.162256, -0.247600, 0.169028, 0.064889, -0.148254, -0.019917, -0.039814, 0.213095, -0.131933, -0.003225, -0.069043, -0.306686, -0.270476, -0.065169, -0.107973, 0.107924, 0.018182, 0.175371, -0.086026, 0.473142, -0.200681, 0.126937, 0.156372, 0.067583, 0.143066, -0.049833, 0.115030, -0.346762, 0.357844, 0.203023, 0.105232, 0.039323, -0.017420, -0.195190, 0.030343, 0.061802, -0.136523, -0.098552, -0.183700, 0.146789, 0.026525, 0.189186, 0.067564, -0.012517, 0.130117, 0.068972, -0.147093, 0.104110, },
{0.148615, 0.200320, 0.059137, -0.209543, -0.092751, 0.233903, 0.182165, -0.239752, -0.083574, 0.057479, 0.204104, -0.204034, -0.020872, 0.293678, 0.098264, 0.133434, 0.065845, 0.077488, 0.179735, -0.114263, -0.149045, -0.162924, -0.053484, 0.282971, -0.213970, -0.085968, 0.041141, -0.376253, 0.050502, 0.036275, 0.266286, -0.055434, 0.201211, 0.213231, 0.224525, -0.309063, 0.019962, 0.256352, -0.069908, 0.260311, -0.139115, -0.021884, 0.040720, 0.129991, 0.017795, 0.119852, 0.037812, 0.398318, 0.216822, -0.104332, 0.088990, -0.140023, -0.103164, -0.256715, -0.181942, 0.128230, 0.252527, 0.066146, 0.079126, 0.042706, 0.037943, 0.108796, -0.169776, 0.020363, },
{0.246998, 0.028276, 0.112251, 0.070463, -0.388958, 0.096488, -0.572901, -0.073069, 0.067955, 0.158045, 0.127795, 0.075523, 0.035562, 0.101082, -0.166581, 0.191329, -0.253614, -0.018954, 0.060210, 0.171919, 0.153570, 0.052294, 0.060055, 0.003566, -0.126751, -0.129305, 0.011386, 0.009046, 0.044542, 0.212615, -0.070426, -0.142899, 0.009346, 0.004512, -0.037017, -0.091798, -0.233005, 0.001947, 0.206312, -0.109051, 0.207941, -0.028858, -0.168441, -0.217502, 0.097361, 0.039760, -0.030626, 0.140126, -0.159076, -0.169121, -0.051286, -0.126151, -0.053386, 0.292974, 0.056217, 0.158643, 0.029640, 0.123201, 0.020002, -0.351422, 0.098026, -0.015939, -0.112487, 0.120978, },
{0.078009, -0.158450, 0.058945, -0.110678, -0.078919, -0.274678, -0.035157, -0.068519, 0.028266, 0.067506, -0.220467, -0.018153, 0.065323, -0.141587, -0.047455, 0.041459, 0.018956, -0.053471, -0.194521, -0.334499, 0.120485, 0.226888, 0.236986, -0.479467, -0.039799, 0.178360, -0.084631, 0.331478, 0.356007, -0.010696, -0.282517, -0.121772, 0.091967, -0.245912, 0.097169, -0.094010, 0.164661, 0.263441, -0.236710, 0.004484, 0.106496, -0.064150, 0.156168, 0.099826, -0.060924, -0.155352, -0.087145, 0.033043, -0.286300, 0.226319, -0.132302, -0.146407, 0.154186, -0.085028, -0.072159, -0.028699, 0.160651, -0.036066, -0.001020, 0.149162, -0.043399, -0.104061, -0.088382, 0.016884, },
{0.049812, 0.323566, -0.069179, -0.148004, -0.235241, 0.353310, 0.050379, -0.093043, 0.027061, 0.391683, -0.104250, 0.194486, -0.218735, 0.296132, -0.084036, -0.030640, 0.198493, 0.050402, 0.276813, -0.241733, -0.445551, 0.242070, 0.124167, 0.048493, -0.283632, 0.205580, -0.300668, 0.085885, 0.190532, 0.094872, 0.062646, 0.172570, -0.009701, 0.204469, -0.050283, 0.120187, -0.192094, 0.021936, -0.178757, -0.285435, -0.062661, -0.137966, 0.166533, 0.020935, 0.437480, 0.020882, -0.191182, 0.350110, -0.060532, -0.028270, -0.075048, -0.139776, -0.289328, 0.153406, 0.214599, -0.061707, -0.085858, -0.099146, 0.215062, 0.018506, -0.074752, 0.091606, 0.121146, 0.073953, },
{0.041130, -0.024073, -0.021739, 0.053583, 0.032404, 0.126858, -0.145681, -0.076194, 0.017511, 0.048752, -0.093695, 0.206627, 0.174588, -0.206084, -0.089186, 0.178407, -0.202478, 0.329393, 0.249331, 0.066139, -0.078557, -0.030015, -0.056582, -0.133418, 0.151297, 0.179153, -0.094832, -0.019553, 0.114748, -0.169971, -0.172798, 0.120294, 0.058225, -0.035830, 0.114351, 0.109502, -0.086471, -0.122649, -0.269950, 0.089344, -0.054928, 0.120483, 0.023804, -0.197152, 0.139943, -0.004115, -0.252694, 0.157301, -0.063354, 0.011576, -0.315479, 0.158604, -0.267979, 0.240169, -0.147690, -0.105122, -0.135823, -0.183416, -0.415348, 0.050270, 0.010315, 0.136989, 0.292145, 0.153836, },
{-0.026022, 0.306321, -0.099363, -0.092753, -0.087773, 0.148745, 0.134360, -0.093415, -0.101263, -0.167535, 0.161533, 0.108608, 0.205121, 0.033135, 0.321131, -0.016717, -0.376528, -0.142536, -0.038809, 0.046724, 0.000240, -0.401202, -0.307236, -0.004441, -0.129115, -0.062120, 0.054199, -0.162711, -0.134944, 0.228765, 0.000328, 0.053087, -0.011254, -0.146588, -0.154994, 0.120766, 0.075460, -0.155481, 0.232436, 0.113696, 0.019562, 0.083811, -0.053622, -0.168217, 0.340064, -0.116805, -0.062367, 0.379296, 0.140786, -0.334009, 0.095302, 0.060902, 0.051529, -0.251612, 0.246058, 0.192419, 0.306577, 0.070601, 0.062614, -0.110168, -0.536026, -0.252607, 0.052783, 0.264311, },
{-0.026327, -0.047947, -0.008868, 0.124600, 0.004081, 0.072491, 0.053071, -0.027655, 0.127883, 0.011322, 0.101618, 0.059852, 0.002575, 0.143475, 0.050691, -0.073732, 0.163412, 0.075392, 0.206016, 0.277640, 0.086451, 0.027851, -0.128313, 0.171638, -0.018486, -0.247404, -0.109843, 0.028499, 0.227422, -0.020466, 0.269693, -0.043494, -0.144686, 0.219626, -0.223873, -0.152410, 0.155469, -0.145699, -0.302360, 0.075058, -0.002695, 0.088030, -0.059636, 0.110404, 0.088504, -0.190806, -0.084865, 0.208557, 0.303672, -0.036621, -0.043384, 0.017353, 0.061454, -0.068768, -0.039471, -0.085930, 0.104858, 0.097793, -0.133851, -0.063490, 0.001518, -0.079193, 0.217564, 0.103289, },
{-0.491244, -0.322877, -0.004413, -0.099587, -0.159036, -0.126794, 0.224966, -0.090618, -0.026580, -0.056090, -0.356521, 0.029878, 0.047977, 0.068213, 0.350133, 0.176438, -0.164160, -0.008846, 0.154118, 0.134752, 0.034935, 0.089449, 0.078303, 0.086706, 0.300872, 0.256949, 0.044782, -0.008141, -0.000700, -0.009676, 0.063193, -0.168159, -0.108419, 0.050400, 0.025100, 0.228618, 0.144112, -0.061636, -0.048299, -0.102324, -0.520822, 0.121373, -0.051725, -0.009977, -0.123517, 0.080378, -0.048585, -0.325163, -0.293466, 0.105530, 0.020458, 0.160314, -0.032797, -0.159685, -0.091968, -0.140813, -0.033717, -0.044670, 0.196523, 0.071544, 0.013316, -0.067100, -0.125935, -0.352194, },
{-0.057562, 0.033543, 0.456075, -0.168441, 0.008168, -0.059337, -0.231305, 0.066999, -0.095862, -0.176418, 0.133046, 0.142429, -0.214859, 0.140374, 0.194273, 0.059185, 0.155731, 0.096850, -0.013352, -0.095257, 0.081256, -0.044386, -0.320398, 0.322184, -0.336983, 0.019506, 0.079952, 0.190612, -0.001153, -0.263503, -0.011279, -0.243072, -0.045694, -0.060144, -0.151132, -0.011108, 0.138974, 0.068216, 0.103027, 0.250399, -0.161901, -0.056503, -0.054646, 0.133558, -0.005480, 0.090008, 0.278549, -0.128352, 0.046739, -0.235892, 0.181977, 0.148961, 0.109290, -0.155164, 0.022431, -0.270468, -0.150472, 0.297472, -0.133718, -0.110379, 0.239911, -0.192438, -0.130506, -0.393461, },
{-0.247760, -0.016567, 0.201311, 0.048611, 0.017713, 0.053582, -0.137108, 0.376670, -0.013702, 0.056308, 0.123274, 0.012470, -0.079301, -0.165325, -0.053028, 0.340154, -0.226640, 0.189604, -0.249634, -0.001391, -0.013446, 0.206755, -0.189642, 0.138124, 0.179057, -0.071973, 0.042109, 0.235787, 0.059145, -0.218924, 0.204442, -0.492523, -0.100975, 0.087810, 0.074091, -0.251818, -0.218593, 0.034037, 0.089248, -0.126041, 0.141905, -0.054321, -0.209773, 0.068595, -0.261951, -0.147810, -0.080733, -0.292817, 0.136829, -0.166298, -0.060075, 0.013418, 0.000221, 0.192360, 0.068429, 0.242541, -0.518766, -0.038924, 0.321935, 0.020706, 0.034734, 0.235608, -0.189321, -0.128264, },
{0.033177, 0.215738, 0.154211, -0.076085, -0.189168, 0.228203, 0.069575, 0.329469, 0.114770, 0.445161, -0.054363, 0.308642, -0.027993, 0.054009, 0.037263, 0.015163, 0.170435, -0.167967, 0.089511, -0.034413, -0.590651, -0.015687, 0.009633, -0.139634, -0.239212, 0.036596, 0.084025, -0.028955, 0.070739, 0.081988, 0.036646, 0.064436, -0.028039, -0.058520, 0.157809, 0.078028, 0.043088, -0.030280, -0.117703, -0.017895, 0.115977, -0.401233, 0.161610, -0.145335, 0.035897, -0.308534, -0.032254, 0.143903, -0.013411, -0.038400, 0.006016, 0.057839, -0.156339, 0.105532, -0.136010, 0.174022, -0.029161, 0.086868, -0.091823, -0.136600, 0.036864, 0.088278, -0.006221, 0.277362, },
{-0.232146, -0.040047, 0.480334, 0.007100, 0.001939, 0.035519, -0.126859, 0.032734, -0.052062, -0.025090, -0.030866, -0.028822, -0.123106, -0.500955, 0.044176, 0.033661, 0.233564, -0.222775, 0.269083, 0.102952, -0.350244, 0.074958, 0.063280, 0.143269, 0.058670, -0.078631, 0.068468, -0.112354, 0.069393, -0.068701, 0.148272, 0.035057, -0.115137, 0.171792, -0.039840, 0.024555, 0.258463, 0.142290, 0.327290, 0.406075, -0.246360, 0.009179, -0.061182, 0.154434, -0.155349, -0.055899, 0.299504, -0.022112, 0.330727, -0.082843, 0.105966, -0.088508, -0.040100, 0.026746, -0.065225, -0.342541, -0.259828, 0.314686, 0.140764, -0.060761, 0.082303, -0.033930, -0.145156, -0.162434, },
{0.409799, 0.081933, -0.057567, 0.012620, 0.227383, -0.383179, -0.126504, 0.132426, -0.014224, 0.170349, 0.163621, 0.032443, 0.068593, -0.091490, 0.155708, -0.316312, -0.005485, -0.130334, 0.067989, -0.172350, -0.038615, -0.111277, 0.085912, -0.096982, 0.242377, -0.047915, -0.105841, -0.011888, -0.158975, 0.268422, -0.239568, 0.200341, -0.121235, -0.113201, -0.384549, -0.192544, 0.030477, -0.082597, -0.074415, 0.014648, 0.193229, 0.105025, 0.128821, 0.000674, 0.288298, 0.258544, 0.054198, 0.264694, 0.029977, 0.030779, -0.019403, 0.206991, -0.137546, 0.129192, -0.000261, 0.154482, 0.184098, -0.007473, -0.110634, 0.013328, 0.056893, 0.036290, 0.177483, 0.100283, },
{0.191143, -0.191327, 0.478164, 0.126445, -0.107754, 0.154660, -0.274410, 0.074599, -0.018565, 0.190035, 0.362957, -0.052221, 0.498923, 0.189404, -0.040594, 0.049763, -0.051904, 0.122695, -0.174191, 0.029228, -0.265904, -0.043170, -0.186548, 0.043220, 0.151121, -0.197389, -0.023478, -0.124507, 0.210975, 0.200082, -0.044049, 0.008193, 0.354865, -0.151328, 0.161272, -0.137071, 0.271306, 0.030649, -0.279653, 0.326604, 0.192833, 0.064296, 0.030087, 0.045242, -0.313532, -0.008081, 0.047057, -0.076059, -0.187697, -0.043080, -0.145846, -0.131725, 0.117153, 0.230437, -0.046543, -0.093258, -0.133427, 0.114376, -0.088876, -0.109328, 0.197237, -0.105502, -0.373893, -0.086803, },
{-0.004149, 0.284561, 0.040709, 0.255826, -0.061813, 0.124954, -0.010197, -0.235510, 0.152779, 0.080003, -0.083937, -0.202328, -0.082677, 0.133234, 0.217649, -0.070898, 0.014606, -0.122069, 0.260372, -0.115160, -0.151290, -0.181203, 0.169882, -0.075025, -0.088829, 0.042179, 0.163344, -0.089881, -0.109709, -0.209740, 0.082560, -0.184008, -0.035633, 0.168945, -0.269440, -0.148209, -0.067034, 0.342883, 0.250400, 0.107255, -0.037352, -0.002175, 0.019111, -0.034940, 0.015582, 0.020593, 0.120191, 0.176397, 0.086581, 0.054080, -0.075019, -0.201195, 0.010394, -0.060996, 0.389263, 0.192229, 0.404152, -0.093939, -0.027263, -0.105651, -0.101549, -0.043375, -0.240978, 0.382237, },
{0.014534, 0.008242, -0.076895, 0.042797, -0.049710, -0.154811, 0.001791, 0.113324, 0.024599, -0.201092, 0.037176, -0.049167, -0.076850, 0.021241, -0.216657, -0.165988, -0.103257, 0.175001, -0.159119, 0.196022, -0.090943, 0.128513, 0.031768, -0.110097, 0.046734, -0.105359, -0.255196, 0.039947, -0.057561, 0.226813, -0.086263, -0.345787, -0.229605, -0.127033, 0.076107, -0.322303, -0.125569, -0.197296, 0.006803, 0.097844, 0.160828, -0.118780, -0.112909, 0.106447, 0.116475, 0.078320, -0.285145, 0.008151, -0.195774, 0.188608, 0.183725, 0.080518, -0.027019, 0.137131, -0.183297, 0.234679, -0.017762, -0.239520, 0.032721, 0.023473, 0.210237, 0.003164, -0.289757, -0.193081, },
{-0.082537, 0.045776, -0.036856, 0.063184, 0.515736, -0.027827, -0.064831, 0.254230, 0.041022, 0.033413, 0.145775, 0.001040, 0.043484, -0.144795, -0.095645, -0.214931, 0.072959, 0.072304, -0.061534, -0.076642, -0.171141, 0.052912, -0.053483, 0.154313, 0.171797, 0.176552, 0.297301, -0.226975, -0.256499, -0.059480, -0.339104, -0.212371, 0.102579, 0.002022, 0.086986, -0.208899, -0.195067, 0.196241, -0.030115, -0.144426, 0.113698, -0.220966, 0.111172, 0.046178, -0.165731, -0.063879, 0.240772, -0.020094, -0.396605, -0.021834, 0.034068, 0.086693, 0.018022, 0.150896, -0.007940, 0.216537, -0.237631, -0.135535, 0.012417, 0.116484, 0.215221, 0.034500, -0.096332, 0.271483, },
{-0.132567, -0.173988, 0.309807, -0.047702, -0.058415, -0.230807, -0.316288, -0.018104, 0.031662, -0.061773, 0.260885, -0.063431, 0.058742, -0.111011, -0.053640, -0.130856, 0.101149, -0.078427, 0.075303, -0.025163, 0.093916, -0.001191, 0.139842, 0.135148, -0.162297, 0.194733, 0.014813, -0.072092, -0.025309, -0.127698, 0.156943, 0.368358, 0.139906, -0.049835, 0.158943, 0.013513, -0.066738, 0.153286, 0.009862, 0.284542, -0.295324, 0.086636, -0.139172, -0.330140, 0.217070, 0.198663, -0.135789, -0.072226, 0.248779, 0.178086, -0.080327, -0.064380, 0.236949, 0.001793, -0.054039, -0.169506, 0.363658, 0.299296, 0.080725, -0.116591, -0.036563, 0.100748, 0.023548, -0.202802, },
{0.335495, 0.033628, -0.066164, -0.062870, -0.081429, 0.079344, -0.041448, 0.043713, 0.221695, -0.043848, -0.312635, 0.065561, 0.164817, 0.151204, 0.115757, -0.064953, -0.131795, -0.010200, -0.066285, -0.163130, 0.152456, -0.096187, 0.338185, -0.114964, 0.095948, -0.199332, -0.068641, -0.300885, 0.171213, -0.144177, -0.042654, 0.491890, 0.257385, 0.129325, -0.117132, -0.001804, -0.115963, 0.024149, -0.354099, -0.097662, 0.303794, -0.264077, 0.284815, -0.096507, 0.067380, -0.016286, -0.065064, 0.100566, 0.051214, 0.012763, -0.058607, 0.006840, 0.058242, -0.131219, -0.023662, 0.232169, 0.117072, -0.110908, 0.188398, -0.314420, -0.002017, 0.086571, 0.197549, 0.300885, },
{0.201601, 0.169663, 0.181979, -0.145825, 0.146055, 0.049091, -0.064232, -0.010802, 0.009671, 0.044716, -0.290431, -0.338437, 0.003576, 0.061180, 0.352301, 0.040032, -0.035966, 0.050739, 0.015921, 0.013339, -0.113936, -0.171351, 0.096350, 0.456290, 0.060806, -0.138869, -0.114877, -0.150187, -0.052400, -0.308243, -0.184233, -0.161375, 0.176032, -0.155920, -0.093229, 0.174105, 0.032968, 0.099254, -0.138869, -0.006933, 0.115532, -0.232948, -0.170605, -0.103221, 0.232970, 0.281556, 0.050587, 0.262184, 0.161448, 0.200666, 0.110339, -0.174865, -0.016934, -0.052839, -0.154186, 0.195143, -0.017456, -0.240993, -0.108105, 0.270870, -0.004165, -0.061839, -0.190020, 0.197064, },
{-0.159243, 0.023189, -0.089241, 0.114863, -0.334879, 0.157067, -0.208676, -0.153719, 0.122173, -0.047894, -0.140238, 0.326919, 0.045072, -0.113586, -0.245656, -0.226876, -0.023842, -0.056903, 0.113547, 0.228833, 0.084403, -0.047306, 0.162220, 0.197773, -0.013945, 0.232199, -0.073156, 0.066258, -0.233944, -0.086067, 0.016949, 0.132672, -0.023543, -0.074522, -0.212496, 0.107697, 0.078011, 0.351156, 0.074769, -0.093362, 0.041428, 0.180859, -0.193182, -0.113960, -0.258736, 0.093042, 0.085024, -0.148316, -0.006686, -0.056353, 0.011865, -0.158386, 0.163276, -0.026394, -0.020953, -0.072488, -0.278054, 0.004391, 0.208033, -0.009032, -0.010606, -0.117972, -0.123899, 0.215149, },
{0.018371, 0.404973, -0.451381, -0.095751, -0.022508, -0.107750, 0.139016, -0.039034, 0.016358, -0.196469, -0.205922, -0.020065, -0.070483, 0.133071, -0.291115, 0.011195, -0.345058, -0.213273, 0.175965, -0.219645, -0.097643, -0.065278, 0.251880, -0.087490, 0.030717, 0.284513, -0.294720, -0.053198, 0.006101, 0.034209, -0.107039, -0.108096, -0.206966, 0.126139, -0.225394, -0.004892, -0.170109, -0.029341, -0.000877, -0.403428, 0.110534, 0.001064, 0.249805, -0.098572, 0.096835, -0.136868, 0.003575, -0.150819, 0.055460, -0.047387, -0.011959, 0.068594, -0.185331, 0.088335, 0.162854, -0.214123, 0.004000, -0.177357, 0.001541, -0.056588, -0.020600, -0.096676, 0.029113, 0.152974, },
{-0.122519, -0.112442, 0.302130, -0.066149, 0.033154, -0.138511, -0.037564, 0.076225, 0.066433, 0.056174, -0.142350, 0.102702, 0.192945, -0.088833, -0.113958, -0.025901, 0.071998, -0.126334, -0.028974, 0.101451, 0.077340, 0.247925, -0.026541, -0.083579, -0.032274, -0.079315, 0.214951, 0.025406, -0.264682, -0.136730, 0.043978, 0.067283, -0.023052, 0.032949, -0.058765, 0.160220, -0.008052, 0.233565, 0.258694, 0.056460, -0.332653, 0.432511, 0.118608, -0.042658, 0.067230, 0.099004, -0.128681, -0.332061, -0.369976, -0.155048, -0.074107, 0.005576, -0.186349, -0.190655, 0.017338, -0.018066, -0.195041, -0.019763, 0.102056, -0.037025, -0.279188, -0.166834, 0.017845, -0.187713, },
{0.130224, -0.073037, -0.364230, -0.086572, -0.018627, 0.163041, -0.027864, -0.233616, -0.212159, -0.147020, -0.125810, -0.041938, -0.086381, 0.063317, -0.172949, 0.103563, -0.238991, 0.061186, 0.040727, -0.240447, -0.129973, 0.261575, 0.181383, 0.084817, -0.045634, 0.261296, -0.032727, -0.404855, 0.205038, -0.143302, 0.050602, -0.049855, -0.023830, 0.212570, 0.124877, 0.121168, -0.010333, -0.079598, -0.185065, -0.039060, -0.125877, 0.011892, 0.153424, -0.252889, 0.080130, 0.154232, -0.032093, 0.172622, -0.119020, 0.208797, 0.250024, 0.187315, -0.004031, 0.344282, -0.140179, 0.250210, 0.238151, -0.204681, -0.115551, -0.109989, 0.355646, 0.235337, 0.269132, 0.485417, },
{-0.043071, 0.022555, 0.052750, 0.085826, -0.012411, 0.028679, -0.127108, -0.047184, -0.195381, -0.136714, -0.267092, -0.017349, -0.261057, 0.027958, -0.320231, -0.360497, -0.168514, -0.120191, 0.094537, -0.032165, -0.054495, -0.070573, -0.035068, -0.110756, -0.296439, 0.119415, -0.163722, -0.109856, 0.227071, -0.298993, -0.285834, 0.059991, -0.070817, 0.016985, -0.153157, 0.155573, 0.183485, -0.034152, 0.103465, 0.060801, -0.130477, 0.105684, -0.009356, -0.205776, 0.141415, 0.052295, 0.236750, 0.220897, 0.274550, -0.298584, -0.019388, -0.076560, 0.050893, -0.071343, 0.025946, 0.247785, 0.222739, -0.125163, 0.000368, 0.011121, 0.113683, 0.019773, -0.118804, -0.052631, },
{0.235205, 0.007087, -0.075227, -0.260140, -0.019085, 0.086740, -0.079448, 0.059587, 0.036242, 0.235516, 0.214026, -0.313502, -0.283156, 0.148745, 0.193846, 0.308136, -0.039188, -0.131895, 0.018343, 0.119115, -0.151540, 0.027227, 0.112373, -0.006201, 0.033582, -0.095716, 0.198678, 0.150068, 0.052978, 0.269351, 0.043742, -0.015955, -0.034933, -0.167570, 0.248561, -0.124970, -0.143869, -0.107199, 0.202750, 0.041265, 0.056865, 0.070966, 0.031832, -0.120368, -0.110784, -0.068321, -0.076395, 0.105446, -0.030565, 0.027091, 0.023612, 0.147391, 0.059074, 0.297050, -0.004382, -0.329830, -0.199981, -0.010008, -0.244184, 0.024758, -0.009371, -0.182807, -0.037490, -0.009061, },
{-0.057770, 0.033499, 0.032295, -0.140149, -0.191921, 0.325325, 0.245251, -0.039532, -0.421532, 0.115698, 0.113436, -0.090161, -0.130114, -0.080304, 0.159578, 0.088938, -0.112757, -0.108882, -0.126857, -0.067778, -0.183216, 0.104867, 0.026540, 0.168916, -0.265564, 0.095244, -0.001110, 0.029592, -0.075971, -0.119640, -0.124306, -0.177492, -0.230965, -0.140364, 0.035646, 0.155361, 0.043782, -0.120767, -0.075637, 0.053382, 0.183052, -0.230371, 0.118719, 0.442204, -0.088275, 0.069776, -0.241079, -0.196708, 0.206494, -0.071160, -0.095242, -0.000475, -0.128201, -0.020050, -0.035257, 0.039565, -0.124047, 0.104627, -0.063193, 0.112188, 0.142563, 0.089705, -0.183607, -0.011649, },
{-0.072199, -0.691857, 0.285402, 0.206444, 0.186815, -0.021267, -0.143132, 0.040246, -0.096787, 0.097946, -0.099209, 0.091764, -0.063716, 0.266436, 0.120754, 0.098943, -0.042725, 0.105830, 0.050007, 0.127244, 0.239880, 0.237435, -0.026259, -0.011360, 0.174353, -0.215422, 0.573562, 0.018934, 0.039383, 0.226938, 0.166595, -0.189046, -0.139406, -0.051103, 0.000554, -0.105770, 0.178690, 0.098294, -0.062049, 0.182433, -0.206291, -0.035372, 0.013719, 0.239766, -0.359884, -0.046877, 0.130034, -0.269044, -0.091471, -0.055790, 0.101229, -0.061905, 0.091758, 0.075946, 0.047820, -0.147444, -0.125147, 0.057762, -0.057133, 0.211786, 0.058183, -0.133485, 0.001700, -0.349423, },
{0.244770, 0.343283, -0.136353, -0.147888, -0.076771, 0.071714, -0.008831, 0.170058, 0.008454, 0.015290, 0.150175, 0.082362, 0.135974, 0.102090, 0.151783, -0.097873, 0.058496, 0.029074, -0.071354, -0.153283, 0.190954, -0.025567, 0.097339, 0.069749, -0.161103, -0.311110, -0.089977, 0.274052, -0.126802, 0.405761, -0.170402, -0.000751, 0.348384, -0.343997, 0.021674, -0.015704, 0.223606, 0.189282, -0.054922, -0.155625, -0.141877, -0.263227, 0.225393, 0.154818, 0.301001, 0.052471, -0.027348, -0.125249, -0.160652, 0.138466, -0.454396, 0.163016, -0.185549, -0.084696, 0.062264, 0.005418, -0.006156, -0.064111, 0.338587, -0.004215, -0.058114, -0.121557, -0.052569, 0.102363, },
{0.027014, -0.009135, 0.083402, -0.347767, -0.278977, 0.037355, 0.158739, -0.246224, 0.111535, -0.155280, 0.031330, -0.367788, -0.091861, 0.239856, 0.177923, -0.154613, 0.309629, 0.119394, 0.062040, -0.317121, 0.103810, 0.030906, 0.025554, 0.209477, 0.105496, -0.057426, -0.260130, 0.292303, 0.167551, -0.451284, -0.045856, 0.302053, -0.096393, -0.075369, 0.451714, -0.093471, -0.213563, -0.160474, -0.151302, 0.025877, -0.122543, -0.232979, 0.071641, 0.049613, -0.077777, 0.207111, -0.357637, 0.224241, 0.094344, 0.186484, -0.060957, 0.055388, 0.135952, -0.189360, -0.187324, -0.474522, 0.323022, -0.115652, 0.151497, 0.032225, -0.363517, 0.463265, -0.220826, -0.237602, },
{0.081522, -0.055729, -0.073388, -0.143084, 0.161543, 0.005845, -0.096527, -0.037370, 0.069055, 0.053401, -0.014774, -0.150718, -0.070204, -0.049502, -0.037260, -0.159253, -0.093139, 0.155338, -0.019000, -0.164487, -0.029828, 0.078939, -0.111568, -0.020820, 0.056906, -0.058889, -0.025496, -0.043655, 0.134256, -0.108918, -0.190199, 0.087772, 0.206772, 0.179384, 0.269542, 0.101882, -0.244999, -0.133709, -0.208548, 0.074543, 0.012541, 0.062441, -0.075231, -0.180566, 0.008581, -0.015178, -0.013614, 0.112536, 0.022926, -0.140845, 0.080038, -0.005902, 0.226996, -0.006252, -0.123623, 0.019450, 0.029884, -0.096612, 0.051718, 0.038426, -0.249362, 0.230422, 0.219966, 0.160283, },
{-0.010093, -0.115622, 0.041611, 0.322764, 0.134462, -0.137841, 0.000585, -0.013329, 0.263427, -0.050812, 0.227121, 0.242384, 0.090032, -0.066646, -0.405928, -0.206447, -0.156084, -0.021600, -0.037054, 0.254879, -0.054265, 0.282059, -0.191580, 0.007662, -0.286906, 0.481076, -0.015362, -0.382128, -0.020281, 0.176329, 0.036273, -0.150456, 0.043775, -0.008023, -0.271071, -0.306415, -0.126111, 0.185576, -0.081527, 0.004885, 0.177165, 0.043202, 0.087412, -0.151917, -0.044668, 0.226962, 0.148805, -0.155016, -0.088574, -0.039785, -0.117110, -0.118639, -0.066308, 0.285809, 0.133841, 0.064441, -0.258018, -0.049009, 0.020187, -0.134382, 0.053567, -0.050724, -0.231899, 0.233197, },
{0.060953, 0.366875, -0.120836, 0.202076, 0.005630, 0.027029, 0.174339, -0.185304, 0.299119, -0.146847, -0.173213, 0.337255, -0.086089, 0.039841, 0.249724, -0.317704, -0.008465, 0.011533, 0.149971, 0.212881, 0.224900, -0.589018, -0.118486, -0.097907, 0.108801, -0.116325, -0.084705, 0.155080, -0.116834, -0.217152, 0.069089, -0.209466, -0.110445, -0.163532, -0.215965, 0.170359, 0.116573, 0.245468, -0.047986, 0.009613, 0.162846, 0.102005, 0.086130, 0.113313, 0.346929, 0.271605, 0.092905, 0.054576, 0.142342, -0.067529, -0.094051, -0.200812, -0.192544, -0.188544, -0.298111, 0.100403, 0.033778, -0.190205, -0.051056, 0.059079, 0.229953, -0.207510, -0.103751, -0.026002, },
{-0.026237, -0.145883, 0.125258, 0.134621, 0.177064, 0.098983, -0.163111, 0.103856, -0.071420, 0.491792, 0.305297, 0.129331, 0.060600, 0.113903, -0.107825, -0.226814, 0.007620, -0.046043, -0.053842, 0.459280, 0.237694, -0.014099, -0.107616, 0.150640, 0.090400, -0.298530, 0.184814, -0.069388, -0.127734, 0.017869, 0.118674, -0.256509, 0.165687, 0.007258, -0.057599, 0.025790, -0.049110, -0.099395, 0.150404, 0.305593, 0.045634, 0.170611, 0.024596, 0.049588, 0.128874, -0.221220, -0.071588, -0.092200, 0.270852, 0.207288, -0.054435, 0.046327, -0.114846, 0.001678, 0.224218, -0.049356, -0.207225, 0.103729, 0.023993, -0.030125, 0.160936, -0.049530, -0.116839, -0.152383, },
{0.113895, 0.251090, -0.285511, -0.193810, -0.090313, 0.033594, 0.031554, 0.212492, -0.195576, -0.054000, -0.034166, -0.114568, 0.033267, 0.199512, -0.030129, 0.074571, -0.560778, -0.238769, 0.245401, -0.263136, -0.076710, 0.193660, -0.217364, -0.209590, -0.178433, -0.029367, 0.032528, -0.002246, 0.004738, 0.246736, -0.227859, -0.371341, -0.292514, 0.044972, 0.057603, 0.000228, 0.061127, -0.056397, 0.093956, -0.423009, 0.213306, 0.121201, -0.206582, 0.034210, -0.123524, -0.160260, 0.014899, 0.065152, -0.261804, -0.015510, -0.114652, 0.198872, 0.158123, 0.138232, 0.056183, 0.150359, -0.201059, -0.235450, 0.017248, 0.231801, 0.066160, -0.026701, -0.069349, 0.054019, },
{-0.315158, -0.393752, 0.068289, -0.274838, -0.052297, 0.370107, 0.091532, -0.027431, -0.074466, 0.427031, 0.090528, -0.280197, 0.170038, -0.056193, -0.117417, 0.271656, 0.191212, -0.059166, -0.164104, -0.175190, 0.127712, 0.231195, 0.036081, -0.584916, 0.221118, 0.061935, 0.418366, 0.032775, -0.024383, -0.049677, -0.194392, -0.047167, 0.362896, -0.181194, -0.065319, 0.102149, 0.061680, -0.268021, 0.311968, 0.016849, -0.110314, 0.328123, 0.279752, 0.065712, -0.242103, 0.009159, -0.040999, -0.099272, -0.212161, -0.152932, -0.371429, 0.628187, -0.403006, 0.104723, 0.066179, -0.145789, -0.021256, 0.068802, -0.185165, -0.178470, -0.402547, -0.263311, 0.261484, 0.118743, },
{0.003248, -0.103891, 0.055836, -0.079732, -0.125166, -0.071146, 0.209495, 0.014042, 0.045740, -0.161167, 0.288929, 0.221083, -0.129526, -0.183920, -0.073493, -0.043616, 0.161102, -0.034196, -0.126713, 0.147625, 0.020335, -0.092901, 0.034168, 0.039342, -0.314369, 0.075936, 0.099973, 0.006006, 0.065130, -0.246940, 0.140983, -0.030886, 0.183827, 0.118176, -0.030661, -0.187783, -0.287967, 0.015154, -0.267492, 0.189175, -0.051676, -0.066859, -0.115887, 0.191210, -0.083485, 0.024919, -0.255299, 0.116767, 0.006872, -0.090683, -0.135988, 0.205700, 0.153056, 0.063507, -0.004225, -0.067899, -0.150305, -0.156006, -0.195700, -0.368833, -0.098757, 0.114164, -0.352131, -0.107933, },
{0.065316, -0.149755, 0.214419, -0.175143, 0.248839, -0.109754, 0.228316, -0.151423, -0.062972, -0.099582, -0.014988, -0.027493, -0.119177, 0.075149, 0.138078, 0.192339, 0.293774, -0.062647, 0.177575, -0.078877, 0.342688, -0.028728, -0.033885, 0.094087, -0.078096, -0.065336, 0.003572, 0.116964, -0.114403, -0.081286, 0.012979, -0.209875, 0.000685, -0.066613, -0.052042, 0.071575, 0.083152, 0.063556, -0.099110, 0.202293, -0.091123, 0.134666, -0.096149, -0.186021, -0.230266, 0.128074, -0.014035, 0.047810, 0.147716, -0.015969, -0.020020, 0.131331, 0.073445, 0.065811, 0.010785, -0.109664, -0.051039, -0.009131, 0.005642, 0.005564, -0.102015, -0.351077, -0.035671, -0.349930, },
{-0.222136, 0.144434, -0.162944, -0.470229, -0.246365, 0.221359, 0.263179, 0.119357, -0.032978, -0.388327, 0.037402, -0.056647, -0.181148, 0.212994, 0.447287, -0.231290, 0.151044, -0.016020, 0.332569, -0.151224, 0.263546, 0.098743, -0.020993, 0.121450, -0.134132, -0.241322, 0.075733, -0.021249, 0.167526, -0.181439, -0.010842, 0.257119, 0.031995, -0.063205, -0.043531, 0.020680, -0.076704, -0.263934, -0.030197, 0.210025, -0.001258, -0.017682, -0.151838, -0.127567, 0.274714, -0.149182, 0.210225, 0.038737, 0.348090, -0.135705, -0.121723, -0.175215, 0.045260, -0.142061, -0.004899, -0.239431, 0.159457, -0.077233, -0.123030, -0.125455, -0.021189, 0.177953, 0.290877, 0.138838, },
{0.079889, 0.181530, 0.228532, 0.052461, 0.196909, 0.119596, -0.001828, 0.313386, -0.234592, 0.209752, -0.079935, -0.004777, -0.232541, -0.073349, -0.014773, 0.459062, 0.003053, -0.251364, -0.095949, -0.200378, -0.519353, -0.012706, -0.100615, 0.144326, -0.138789, 0.044010, 0.058889, 0.068900, 0.072351, 0.043128, -0.347662, 0.067676, -0.125095, -0.298668, 0.309502, -0.012747, -0.210270, -0.160867, -0.010541, 0.040232, -0.045240, -0.246024, 0.006021, 0.243496, -0.130087, -0.037925, -0.297335, 0.057176, -0.120096, 0.218235, 0.051435, -0.000712, -0.287771, 0.092966, 0.131384, -0.032497, -0.276942, -0.032093, 0.041784, -0.095376, -0.233753, 0.143935, 0.261646, 0.143902, },
{-0.206337, -0.247855, 0.028151, -0.073375, 0.268626, 0.098822, -0.064821, 0.065127, 0.183798, -0.057467, -0.034428, 0.121977, -0.338369, 0.113834, 0.194767, -0.064083, 0.219802, -0.178831, 0.221393, 0.281196, -0.202715, 0.016815, 0.139357, -0.196740, 0.032811, -0.072079, -0.044181, 0.374266, 0.111023, -0.299076, -0.173814, -0.010089, -0.197106, -0.054289, 0.017297, -0.018742, 0.238085, -0.196230, -0.108238, -0.223256, 0.031683, 0.045960, -0.113662, -0.139633, -0.224262, 0.033080, 0.102415, -0.135479, -0.095550, 0.030388, -0.013718, -0.034038, 0.128793, 0.191847, -0.275450, -0.258017, -0.355555, 0.030526, -0.110924, -0.217024, 0.123132, 0.150905, -0.020343, -0.037775, },
{-0.011079, 0.167565, 0.160677, -0.018160, 0.275027, 0.081764, -0.208450, 0.117260, -0.169043, 0.316230, 0.168837, 0.088822, 0.177360, -0.185772, -0.018006, 0.242784, 0.005959, -0.055730, -0.199444, 0.046082, -0.462187, 0.258514, 0.131208, -0.037067, -0.095583, -0.168185, 0.045496, 0.331486, 0.066918, 0.029158, -0.179997, -0.030172, -0.042201, -0.249613, 0.001424, 0.038871, 0.053779, -0.181610, 0.148069, 0.069077, -0.327949, -0.259552, 0.076167, 0.236185, -0.270629, -0.165738, 0.189838, -0.335423, 0.030263, -0.078521, -0.080268, 0.152713, -0.222856, -0.248720, 0.007595, -0.050628, -0.367075, 0.020860, 0.038361, 0.095662, -0.246116, -0.076511, -0.044996, -0.000959, },
{-0.002226, 0.004703, 0.165313, -0.104311, -0.077982, -0.035996, -0.280743, 0.115047, 0.183734, 0.010801, 0.096434, 0.058073, 0.051966, 0.231512, -0.111288, -0.009170, -0.059956, -0.204464, -0.067638, -0.021011, 0.098503, 0.304324, 0.306687, 0.046204, -0.034505, -0.193898, -0.273888, 0.093395, 0.252834, -0.117388, 0.074406, -0.003189, 0.191859, -0.188337, -0.039112, -0.029747, -0.109339, 0.098990, -0.082005, 0.151890, 0.099517, 0.079496, 0.037668, 0.032298, -0.272821, -0.095761, -0.015933, -0.387211, -0.193087, 0.056547, -0.038660, -0.086247, -0.227081, 0.123685, -0.190626, -0.145280, -0.226663, -0.214922, 0.095599, -0.353968, 0.100114, -0.039878, -0.115196, -0.277915, },
{0.188755, -0.016684, -0.352109, 0.053764, 0.057595, 0.110994, -0.186472, -0.218217, 0.238269, 0.016239, 0.027858, 0.139727, -0.174681, -0.192641, -0.001573, 0.222715, 0.069539, 0.048777, 0.143802, -0.032893, -0.191205, 0.077016, -0.224280, -0.000755, -0.046468, -0.069554, -0.121715, -0.151921, -0.068491, -0.262037, -0.143622, -0.052148, 0.057080, 0.090842, -0.058004, 0.195024, -0.093835, 0.175648, -0.119425, 0.149148, 0.127445, 0.108363, 0.052088, -0.074268, 0.077343, -0.069886, -0.097555, -0.002538, -0.023857, 0.098974, -0.128960, -0.066762, -0.236047, -0.021624, -0.081427, 0.221735, -0.278220, -0.171392, -0.063547, -0.414978, -0.088504, -0.138174, -0.036072, 0.206598, },
{0.074835, -0.104198, -0.207824, 0.024658, -0.154609, -0.125036, 0.178658, -0.046310, 0.236805, -0.151003, -0.097267, 0.082245, -0.046812, -0.110680, 0.016657, -0.044799, 0.397599, -0.037754, 0.169270, 0.170801, 0.117950, 0.185728, 0.073590, 0.184873, 0.204920, -0.026622, 0.105378, 0.005036, -0.057642, -0.092813, 0.353293, -0.141982, -0.041939, 0.082941, -0.030538, 0.035963, 0.109306, 0.064669, -0.167563, 0.172966, 0.030827, 0.235415, 0.193754, -0.187141, 0.262498, -0.039651, 0.196216, -0.189625, 0.099762, -0.052971, 0.163362, -0.143493, 0.032281, 0.207761, -0.155584, -0.045479, -0.215067, -0.011750, 0.275838, -0.200371, -0.108401, -0.000380, 0.098139, -0.119585, },
{-0.013206, -0.320618, -0.052544, 0.022453, 0.194863, -0.145423, 0.337939, -0.027822, 0.010776, 0.243115, -0.006056, -0.113274, 0.189918, 0.091712, -0.034467, -0.126511, -0.202631, 0.119185, 0.038122, 0.014317, 0.084102, 0.107579, 0.110371, -0.117831, 0.303155, -0.246025, 0.076356, -0.233744, 0.060955, -0.141068, -0.037698, -0.212603, 0.226012, -0.100930, -0.083809, 0.133626, 0.024576, 0.055565, -0.028277, -0.007438, 0.021356, -0.306203, 0.223969, -0.093903, -0.281060, 0.284943, -0.093955, 0.062166, -0.150124, 0.263941, -0.074839, -0.089918, -0.044278, 0.448397, -0.240584, -0.081606, -0.064283, -0.075039, 0.065004, 0.386919, 0.024155, -0.028950, 0.157549, -0.130150, },
{0.071436, -0.063009, 0.007518, -0.436904, -0.122736, 0.003502, 0.249523, -0.152619, 0.040477, 0.100966, -0.075417, 0.036821, 0.378509, 0.199948, 0.034069, -0.349369, -0.112650, 0.242513, -0.270361, 0.176727, -0.075571, -0.267194, 0.010080, -0.041693, -0.100781, -0.133544, -0.005679, 0.271254, 0.328532, 0.071199, -0.139392, -0.003197, -0.088807, -0.125241, 0.013012, -0.269874, 0.039899, -0.181626, -0.177249, 0.089723, -0.037991, -0.191019, -0.011045, 0.110571, -0.096690, 0.357070, -0.081681, -0.034824, 0.160481, -0.078725, -0.143615, 0.250892, 0.294628, -0.094573, 0.386577, 0.032113, 0.121140, -0.390874, 0.002962, 0.194169, -0.101387, 0.418195, 0.054057, -0.153060, },
},
};

const float W1[HIDDEN_LAYER_SIZE][AC_SPACE_SIZE] = {
{0.019476, -0.023696, -0.057718, -0.077394, },
{0.152102, 0.022203, -0.171230, 0.119350, },
{-0.105751, -0.082881, -0.057883, -0.184299, },
{0.152053, 0.135652, 0.060711, 0.091801, },
{-0.030234, 0.070222, 0.136544, 0.042838, },
{-0.028739, 0.076865, -0.110066, -0.151181, },
{-0.114693, 0.074456, -0.058738, -0.032439, },
{-0.015113, 0.023535, -0.056870, -0.050438, },
{0.000322, -0.016644, 0.027816, 0.019332, },
{-0.068157, 0.148091, -0.124838, 0.107844, },
{0.031550, -0.017091, -0.077154, -0.121225, },
{0.041717, 0.048633, 0.000087, 0.081813, },
{-0.137180, 0.031915, -0.044046, -0.082868, },
{-0.042912, -0.057725, -0.079403, 0.021611, },
{0.009337, -0.088465, 0.055148, -0.071268, },
{-0.026000, -0.057925, -0.008865, -0.087415, },
{0.049666, -0.026076, -0.081852, 0.084705, },
{0.001077, -0.002737, -0.035574, 0.003697, },
{0.078591, 0.006442, 0.082498, 0.104166, },
{0.101472, 0.029052, -0.015480, -0.015638, },
{0.006312, 0.028083, 0.304182, -0.163573, },
{-0.009405, -0.098193, -0.066636, 0.001622, },
{-0.072522, -0.058165, 0.061055, 0.036328, },
{0.131348, -0.088807, 0.011989, 0.030723, },
{-0.169483, 0.014568, 0.019860, 0.006767, },
{0.176748, 0.125163, 0.025471, 0.110213, },
{-0.121386, 0.014754, 0.029003, -0.018797, },
{-0.090493, -0.017318, -0.125787, -0.056718, },
{-0.095461, -0.115393, -0.139735, -0.033237, },
{-0.063037, -0.013752, -0.047332, 0.044149, },
{0.011779, -0.065995, 0.035732, 0.048777, },
{-0.019330, -0.009694, -0.104588, 0.062332, },
{-0.096881, 0.049176, -0.043010, -0.051020, },
{0.038927, 0.004585, 0.015901, 0.036204, },
{-0.008890, -0.108422, -0.112760, -0.055526, },
{-0.006499, 0.119595, 0.067160, 0.100472, },
{-0.157725, 0.013247, 0.043431, -0.037356, },
{0.138904, 0.029360, 0.149199, 0.044894, },
{0.006491, 0.084953, 0.073605, -0.066831, },
{0.033604, -0.071113, 0.003424, -0.183776, },
{0.143363, 0.003779, 0.049595, 0.000980, },
{0.056569, 0.137299, 0.205697, -0.010903, },
{-0.038050, -0.009511, 0.001193, 0.000367, },
{-0.106311, -0.126760, -0.044941, -0.117926, },
{0.090528, 0.206648, 0.012647, 0.055993, },
{-0.016472, -0.031843, 0.016218, 0.011917, },
{0.032434, 0.062000, 0.051440, 0.039594, },
{-0.022235, -0.085138, 0.043825, 0.093995, },
{0.106779, -0.026932, 0.028218, -0.012396, },
{-0.021241, -0.053166, -0.008851, 0.002611, },
{0.031847, 0.000397, 0.019804, 0.027415, },
{-0.012257, 0.083832, -0.008545, -0.072882, },
{0.019041, -0.163315, -0.029441, -0.064515, },
{0.004515, 0.008185, -0.053332, 0.110095, },
{-0.046585, -0.012145, -0.018328, -0.022789, },
{0.063779, 0.107924, 0.102015, -0.049436, },
{-0.073332, -0.025197, 0.120317, 0.083207, },
{0.009946, 0.009277, -0.037084, -0.031749, },
{-0.032432, -0.039430, 0.027577, 0.016964, },
{-0.079018, -0.197730, -0.016937, -0.042119, },
{0.120613, 0.037579, -0.011050, 0.075783, },
{0.029837, -0.087708, -0.010475, 0.012711, },
{-0.077999, 0.048595, 0.011191, 0.012330, },
{0.132566, 0.093488, 0.184518, 0.023896, },
};

const float b0[HIDDEN_LAYER_SIZE] = {-0.254161, 0.125843, 0.138791, -0.200322, 0.325896, -0.290433, -0.192214, 0.146802, -0.318124, -0.050776, -0.124974, 0.001220, 0.525122, 0.013875, -0.424875, 0.026816, -0.319874, 0.197558, -0.352718, 0.052541, -0.164652, -0.027914, -0.037472, 0.128639, 0.451023, 0.217339, 0.135553, -0.117174, 0.250923, -0.457683, -0.150954, -0.073383, -0.119053, -0.262083, 0.119044, -0.274199, -0.109850, -0.083777, -0.240665, 0.117627, -0.300962, -0.022821, 0.148733, 0.139761, 0.288077, 0.034497, 0.383061, 0.232524, -0.435209, -0.149472, -0.000486, -0.282626, 0.326646, 0.071465, 0.290923, 0.252420, 0.061648, 0.249984, 0.302327, 0.211406, -0.184531, 0.107689, -0.099970, 0.226371, };

const float b_hidden[NUM_HIDDEN_LAYER - 1][HIDDEN_LAYER_SIZE] = {
{-0.124207, -0.085459, 0.244122, -0.417949, -0.259202, 0.282550, 0.263158, 0.090024, -0.168600, 0.163914, 0.162781, -0.288954, 0.150699, 0.230949, 0.244442, 0.171862, 0.229629, 0.100627, -0.271654, -0.151472, -0.028185, 0.080934, 0.019150, 0.045824, 0.039729, -0.252275, 0.125392, 0.520936, 0.250477, -0.173943, -0.001688, 0.010138, 0.105249, -0.077401, 0.288437, -0.257944, 0.164407, -0.314195, 0.053361, 0.193056, -0.335042, -0.147682, 0.010145, 0.287198, -0.296396, -0.060616, -0.178529, -0.008083, 0.160641, -0.007116, -0.042397, 0.195309, 0.211468, -0.244392, 0.053968, -0.415038, -0.140717, -0.071004, 0.171458, 0.197081, -0.227995, 0.003684, -0.110004, -0.399085, },
};

const float b1[AC_SPACE_SIZE] = {-0.149467, -0.195712, -0.153783, -0.167104, };

const float ob_mean[OB_SPACE_SIZE] = {-0.000739, -0.001822, 0.043781, -0.031084, 0.030213, -0.011668, -0.016089, -0.001808, 0.012069, 0.003263, 0.033762, -0.016024, };

const float ob_std[OB_SPACE_SIZE] = {0.148591, 0.126588, 0.178712, 0.499744, 0.464778, 0.643448, 0.727413, 0.677186, 0.100000, 0.574712, 0.566814, 0.573406, };

#endif
