#ifndef __AP_MOTORS_POLICY_DEF_H__
#define __AP_MOTORS_POLICY_DEF_H__

const int STATE_SIZE = 9;
const int OB_SPACE_SIZE = 13;
const int AC_SPACE_SIZE = 4;
const int NUM_HIDDEN_LAYER = 2;
const int HIDDEN_LAYER_SIZE = 64;
const float FINAL_BIAS = 3.500000;

const float W0[OB_SPACE_SIZE][HIDDEN_LAYER_SIZE] = {
{-0.097828, -0.077659, -0.743151, -0.045821, -0.044333, -0.787215, -0.232998, 0.181920, 0.469733, -0.273660, 0.105730, 0.051833, 0.012026, -0.066204, -0.233695, -0.133994, -0.359417, 0.292080, 0.588825, 0.257284, 0.198507, 0.349503, -0.026622, -0.532579, 0.538262, 0.076598, 0.420243, 0.195973, -0.367407, -0.822382, -0.793872, -0.839317, -0.247504, 0.259449, 0.088168, -0.033628, 0.233104, -0.304884, 0.075403, -0.147841, -0.291838, 0.475414, 0.177181, -0.349643, 0.211040, -0.220572, -0.451872, -0.342878, 0.113350, 0.173038, -0.028593, -0.406052, -0.022954, -0.205997, -0.316421, 0.084444, -0.230403, -0.076013, -0.158689, -0.219700, 0.615722, 0.304648, 0.206419, 0.520286, },
{0.093749, -0.308927, 0.459268, 0.187052, -0.282603, 0.106546, -0.471741, -0.584678, -0.638946, 0.339535, 0.019102, -0.321376, 0.209200, -0.175590, 0.008417, 0.174714, 0.251039, 0.057478, 0.127373, -0.355477, 0.242222, 0.324244, 0.489344, -0.258249, -0.032598, 0.427617, 0.237761, 0.320958, 0.160313, 0.155635, -0.168280, -0.595332, 0.276655, 0.176585, -0.681758, 0.185545, -0.262655, -0.018618, -0.310609, 0.570800, 0.097235, -0.702108, -0.429658, 0.198008, 0.431105, 0.000112, -0.012342, 0.338425, -0.072603, 0.352097, 0.091046, 0.234966, 0.028800, -0.585700, 0.311439, -0.146011, 0.038338, 0.011204, 0.160316, 0.170027, -0.187227, 0.230177, 0.139410, 0.008203, },
{0.442653, -0.659815, -0.049782, -0.720218, -0.276436, 0.084489, -0.041460, -0.197356, -0.487221, 0.648205, 0.465510, 0.028321, 0.331913, 0.461372, -0.014149, -0.281179, 0.307573, -0.037536, 0.461833, -0.464101, 0.256005, 0.268700, 0.315498, 0.146921, -0.231410, -0.094362, 0.238647, -0.057862, -0.101045, -0.670796, -0.273773, 0.180737, -0.325039, -0.261647, -0.469253, 0.533004, -0.024298, 0.255784, 0.020284, -0.216234, 0.337545, -0.007344, 0.011273, 0.208032, 0.667415, 0.481017, -0.092806, -0.713433, -0.256514, 0.356317, -0.060060, 0.598707, -0.290028, -0.265382, 0.250676, -0.188118, 0.045919, 0.619987, -0.000462, 0.172519, 0.209241, -0.728291, -0.117873, 0.216072, },
{0.587542, 0.266316, -0.331909, -0.125907, 0.011929, -0.386963, 0.626979, -0.185498, 0.068357, -0.222260, -0.181853, -0.689922, 0.013836, -0.050356, -0.139372, 0.599484, 0.832367, 0.299818, 0.277400, -0.151580, -0.744583, 0.550025, -0.590975, -0.481907, -0.226896, -0.284524, 0.198595, -0.791851, -0.438390, 0.428679, -0.218369, 0.286230, -0.106774, -0.345453, 0.603258, -0.202019, -0.438894, -0.211055, 0.011537, 0.020056, -0.482881, 0.187904, -0.470068, -0.344172, 0.050547, -0.247421, -0.549553, 0.154284, -0.677656, -0.066342, 0.307894, -0.403113, -0.200423, -1.313725, -0.004978, 0.670438, 0.357201, -0.197308, -0.227086, -0.096858, 0.880687, -0.287446, 0.203611, -0.011371, },
{-0.169365, 0.493125, -0.326224, 0.516952, -0.559264, -0.262258, -0.007600, 0.627719, 0.111868, 0.376852, 0.369350, 0.549002, 0.301071, 0.230366, -0.035171, -0.340125, -0.389705, 0.110428, 0.241134, -0.066472, -0.169702, 0.244555, -0.493208, 0.044398, 0.234495, 0.245630, -0.434267, -0.098401, -0.027473, -0.065082, 0.059083, -0.387877, -0.558320, 0.142521, 0.157428, -0.011418, -0.553073, -0.007266, 0.332085, -0.184223, 0.463308, -0.730548, 0.302006, -0.083637, 0.154546, -0.083709, -0.054043, 0.063149, -0.502092, 1.079644, -0.815535, -0.492752, 0.673714, -0.219032, -0.134559, 0.367862, -0.135632, -0.496699, -0.251303, -0.208170, 0.018034, 0.485583, 0.347489, -0.325847, },
{0.326304, -0.040549, -0.263552, -0.494666, 0.418457, 0.167369, 0.293794, 0.152869, -0.363968, 0.431283, 0.217087, 0.097448, 0.043454, 0.103124, 0.375186, 0.111095, -0.358528, 0.391931, 0.240415, -0.268946, 0.285109, 0.001598, 0.267284, -0.291911, 0.618836, 0.027194, 0.044961, 0.630708, -0.416294, -0.083559, -0.026833, -0.038398, 0.093991, 0.505617, 0.490664, 0.107898, -0.202474, -1.109208, 0.812250, -0.019873, -1.179012, 0.145618, -0.495123, -0.012239, -0.028885, -0.169310, -0.066242, -0.326291, 0.197235, 0.114836, -0.288781, 0.193711, -0.306011, -0.020605, 0.160425, -0.128070, 0.413209, -0.214010, -0.503339, 0.249976, 0.146563, -0.769468, 0.784829, 0.213512, },
{0.498840, -0.714364, 0.319790, -0.236401, -0.240232, 0.089742, 0.289657, 0.144476, 0.054391, 0.128303, 0.659626, 0.189320, -0.502915, -0.048549, 0.509986, 0.034188, -0.309728, -0.051182, -0.124367, 0.177175, 0.190996, -0.134734, -0.251754, 0.353738, -0.160046, 0.329205, 0.317331, 0.515427, -0.319169, -0.206989, -0.167547, 0.230212, -0.197247, 0.014268, -0.682724, -0.299850, 0.129331, 0.045406, -0.025197, 0.432836, -0.189218, -0.548798, -0.475750, -0.318384, 0.026261, 0.333106, -0.464846, 0.156538, -0.041986, 0.490332, 0.062486, 0.083147, 0.854490, 0.305991, 0.213682, 0.120838, -0.204058, -0.437653, 0.185683, 0.246365, 0.004059, -0.200540, 0.136486, 0.435987, },
{0.206678, 0.034810, 0.475578, 0.313369, 0.460443, -0.366943, 0.167411, 0.193016, -0.032500, 0.141056, 0.345078, 0.125839, -0.164578, 0.235350, 0.485386, 0.116407, -0.263893, -0.381756, -0.076047, -0.407331, 0.345258, -0.675159, 0.017516, 0.124815, 0.100508, -0.182600, 0.155898, 0.118523, 0.029657, 0.205536, 0.346863, 0.496331, 0.121376, 0.497284, 0.301409, -0.433662, 0.196286, -0.492741, -0.273981, -0.217643, 0.199545, -0.153659, -0.500912, -0.044218, -0.194916, 0.215191, -0.131737, 0.149282, -0.669443, -0.002841, -0.327974, 0.153036, 0.010610, -0.292170, -0.227744, -0.623923, 0.305244, 0.974385, 0.059498, 0.232550, -1.136800, -0.144000, -0.001849, 0.060459, },
{-0.161561, 0.461709, -0.250709, 0.023503, -0.185089, 0.222296, -0.354195, -0.167603, -0.382243, 0.157026, 1.026195, 0.317143, 0.849324, 0.670443, -0.473802, 0.375831, 0.474606, 0.584055, -0.108219, -0.386233, -0.458290, 0.128165, -0.266545, 0.130760, 0.209708, -0.235437, -0.216210, 0.373058, -0.350069, -0.258136, 0.739531, 0.364713, -0.947904, -0.231566, -0.116443, -0.423746, -0.238061, 0.156716, 0.131369, -0.188160, -0.138935, -0.142425, 0.124007, 0.641233, -0.934659, -0.069325, -0.000360, 0.022591, 0.192859, -0.201144, 0.815191, 0.163888, 0.624328, -0.549780, 0.100819, -0.054958, -0.722626, 0.054447, 0.977657, -0.826145, 0.170900, 0.206907, 0.215441, -0.345365, },
{-0.275382, 0.167297, -0.129044, 0.166140, 0.063395, 0.267039, -0.472404, 0.057243, -0.043613, 0.784600, 0.249091, 0.045916, -0.522086, -0.234360, -0.403111, -0.140304, 0.030121, -0.064221, 0.109848, -0.341803, -0.629479, 0.416147, 0.144903, -0.195299, 0.327574, -0.314126, -0.121956, -0.207640, -0.105028, -0.442618, 0.309499, -0.110593, -0.211782, 0.248821, -0.151166, -0.532646, -0.828552, 0.100203, 0.222525, 0.278411, -0.403429, -0.002047, -0.407262, -0.024854, -0.235643, -0.446140, 0.586547, -0.208540, 0.465245, -0.226496, 0.042573, -0.014064, 0.133381, 0.259842, -0.588525, 0.307127, -0.279955, 0.236264, 0.180945, 0.065443, -0.208025, -0.243709, 0.446592, 0.555067, },
{-0.448813, -0.138065, -0.153621, -0.016801, 0.091151, -0.272109, 0.088224, 0.297682, 0.258078, -0.511288, -0.150573, 0.366169, 0.181929, 0.576248, 0.200734, 0.724607, 0.323299, 0.624689, 0.525681, 0.409968, 0.173032, 0.023824, 0.174726, 0.103268, 0.004446, -0.885930, -0.386106, -0.198960, 0.066556, -0.223425, -0.411367, 0.305418, 0.103269, -0.226626, 0.397842, -0.255425, -0.137116, 0.389950, 0.130800, 0.170659, 0.134454, -0.114769, -0.436408, 0.192320, 0.131381, -0.364004, 0.272819, -0.190291, -0.665280, 0.168335, -0.424696, -0.740595, -0.100304, -0.040673, -0.964887, -0.276772, -0.204182, 0.076751, -0.571608, 0.242986, -0.150683, 0.141246, -0.539531, -0.428715, },
{0.149490, 0.241599, 0.510201, -0.439472, -0.126785, -0.390918, 0.192898, -0.055372, -0.234437, 0.030389, -0.099745, 0.367887, 0.018643, 0.430239, -0.558890, -0.189279, -0.261316, 0.563251, 0.629040, -0.170496, -0.564247, 0.121954, 0.698633, 0.153079, -0.580991, -0.005594, 0.261428, 0.111645, 1.121291, 0.207667, -0.284290, -0.064118, -0.122050, 0.814785, -0.457262, -0.082489, -0.672935, 0.462591, 0.678340, -0.464942, 0.057315, 0.322304, -0.480913, 0.350305, -0.174118, -0.070843, -0.052593, -0.123480, 0.619963, 0.202925, 0.005239, -0.193334, -0.082701, 0.096510, 0.301356, 0.142683, -0.754102, 0.220181, -0.434632, -0.243699, 0.019405, -0.047412, 0.643291, 0.513008, },
{-0.169053, 0.109117, 0.160094, 0.218853, -0.156110, 0.034293, -0.182934, 0.606445, 0.013080, -0.000728, -0.070353, -0.144612, -0.119830, -0.257338, 0.095230, -0.586713, 0.403367, 0.090798, 0.451160, -0.249867, -0.014590, 0.025959, 0.023566, -0.831250, -0.310780, 0.415370, 0.208992, -0.278355, 0.509235, -0.308406, -0.117741, -0.120465, -0.149314, -0.237443, 0.131705, -0.683475, 0.271552, -0.250964, 0.010511, 0.525523, -0.056516, 0.195324, 0.019099, 0.544941, 0.075411, 0.365026, -0.523954, 0.263136, 0.033798, -0.245363, 0.003763, -0.044904, 0.384432, -0.036289, 0.003448, 0.103268, 0.354400, 0.086700, -0.405762, -0.661170, 0.071119, 0.047604, -0.012870, 0.338595, },
};

const float W_hidden[NUM_HIDDEN_LAYER - 1][HIDDEN_LAYER_SIZE][HIDDEN_LAYER_SIZE] = {
{
{0.028403, 0.118450, 0.148682, 0.222343, 0.079446, -0.023232, 0.290169, 0.129869, 0.009615, 0.190173, 0.194702, -0.072929, 0.203279, 0.152767, 0.314131, -0.190774, -0.244411, 0.232971, 0.132629, 0.262690, -0.191662, 0.006118, -0.243865, -0.025256, 0.028788, -0.002720, -0.102266, -0.404931, 0.111317, 0.280062, -0.280058, 0.069893, 0.025634, 0.093567, -0.276494, -0.397441, 0.115897, -0.345161, 0.148863, -0.096280, 0.004250, -0.340908, 0.058449, 0.092015, 0.380624, 0.184601, 0.298715, 0.126325, 0.106366, 0.150376, 0.101938, 0.394252, -0.254515, -0.081916, -0.140456, 0.053055, 0.020169, 0.051293, -0.282945, -0.270301, 0.154324, 0.397186, -0.332503, -0.159336, },
{0.222189, -0.088203, 0.206378, 0.077343, -0.041736, 0.172783, 0.169587, 0.379242, -0.144347, -0.518942, -0.524769, -0.001599, -0.282076, -0.105236, -0.224048, 0.143069, 0.053222, -0.182449, -0.134571, 0.069399, -0.128452, -0.180347, -0.449245, 0.312607, 0.283217, 0.395243, -0.080908, 0.319678, 0.110542, -0.144178, 0.338282, 0.061908, -0.194470, 0.161937, -0.002782, -0.234338, 0.316318, 0.251539, 0.321050, 0.000594, 0.047026, -0.172512, 0.161123, 0.032383, -0.258173, -0.197873, -0.174428, 0.295968, -0.282966, -0.385412, -0.121072, 0.076109, -0.131817, -0.491359, 0.193453, 0.004659, 0.036352, -0.300546, 0.423841, 0.349495, -0.358031, 0.109156, 0.126953, -0.185307, },
{0.032855, -0.043280, 0.273353, -0.054823, -0.039917, 0.071677, 0.430166, -0.184972, 0.289428, -0.034927, -0.209193, -0.245572, 0.789572, -0.174991, -0.110365, 0.294317, 0.313527, -0.350601, -0.312745, -0.220171, -0.046527, -0.165593, -0.351857, 0.214846, 0.149576, -0.064749, 0.055442, -0.385228, 0.023132, 0.004041, -0.058829, -0.296342, 0.065173, 0.204972, 0.199714, -0.228940, -0.279897, -0.125139, 0.125686, 0.197022, -0.134637, -0.146320, 0.200395, 0.495469, -0.044004, 0.167417, 0.185129, 0.174366, -0.357887, 0.074734, -0.042043, 0.066759, -0.293502, -0.064751, -0.314342, -0.203114, -0.139148, -0.085591, 0.237449, -0.302939, 0.271887, -0.530297, 0.028885, 0.049606, },
{0.355882, -0.035445, -0.047679, -0.138748, 0.135638, 0.202437, -0.022240, -0.111894, -0.019702, -0.139606, -0.093218, -0.118516, -0.793287, 0.162691, -0.280639, -0.073690, 0.320195, -0.039469, -0.086008, 0.114144, -0.194176, -0.023436, 0.126086, 0.200118, 0.032222, 0.505668, 0.233222, 0.092797, -0.323134, 0.130625, 0.144144, 0.271427, -0.084486, 0.349601, 0.036860, -0.446541, -0.137970, 0.166331, 0.017906, -0.053280, -0.052277, 0.157056, 0.050139, 0.243574, -0.122398, -0.014680, -0.139843, -0.197682, 0.034318, -0.176356, 0.089650, 0.017405, 0.136022, 0.087716, 0.225752, -0.265230, -0.069183, 0.006567, -0.150780, 0.156362, -0.441248, -0.271209, 0.132170, -0.317979, },
{0.130469, -0.068325, -0.148514, -0.221609, 0.043629, -0.069465, -0.138820, -0.359731, 0.059998, 0.089610, 0.107074, -0.209028, -0.274284, 0.169104, -0.017532, -0.237075, 0.012582, -0.065249, 0.231969, 0.108713, -0.146796, 0.626842, 0.078343, -0.384620, 0.322997, -0.192637, 0.163900, 0.164437, 0.060210, 0.062502, -0.155705, -0.437998, -0.015237, -0.250874, 0.030803, 0.332548, -0.008595, -0.018044, 0.257786, 0.028721, -0.003378, 0.180580, 0.080681, 0.024230, 0.334122, 0.310330, 0.039082, 0.032011, 0.124763, 0.177281, -0.121137, 0.090045, -0.223920, 0.072151, 0.177902, -0.142758, -0.038765, 0.039398, -0.155092, 0.028935, 0.176767, 0.187274, -0.028659, 0.189772, },
{0.332272, -0.255394, -0.069642, -0.169789, -0.265212, 0.214628, 0.083713, -0.260774, 0.173799, 0.059275, 0.216515, 0.154508, 0.033237, -0.207162, 0.357513, -0.070441, 0.147655, 0.065562, -0.370043, 0.042446, -0.186951, 0.055877, 0.207230, -0.378065, 0.254326, -0.173180, 0.218056, -0.071499, 0.340824, -0.163466, 0.170346, 0.366826, 0.420477, 0.352888, -0.156225, 0.224561, -0.182723, -0.127773, -0.034420, -0.425463, 0.013951, 0.134711, 0.163925, 0.098756, 0.396851, 0.035457, 0.004297, -0.724459, -0.088576, 0.070893, 0.109636, 0.102067, 0.343423, 0.477932, -0.277431, 0.157979, 0.339614, -0.259828, 0.206331, -0.200549, -0.013720, -0.328133, -0.351344, -0.140402, },
{-0.018861, 0.482502, 0.091129, 0.134164, 0.386596, -0.035141, 0.152325, 0.280294, 0.052035, 0.059875, 0.126430, -0.132405, 0.042765, -0.283687, 0.049963, 0.071165, -0.625127, 0.166680, 0.147172, -0.314806, 0.255996, 0.054921, -0.184169, -0.140759, 0.200063, 0.089041, 0.080877, -0.185151, 0.225723, 0.186752, -0.304573, -0.308656, 0.423188, -0.280109, 0.189789, -0.000403, -0.026888, -0.196580, -0.172248, 0.258408, -0.204120, -0.084691, 0.113302, 0.054398, -0.252160, 0.260518, 0.138169, -0.077105, 0.422882, -0.118753, -0.373262, 0.011904, -0.251185, 0.012273, 0.023367, -0.128716, 0.125756, -0.093045, 0.145026, -0.012555, -0.148883, 0.363037, 0.059855, 0.013564, },
{-0.210325, 0.245720, -0.347492, -0.295917, -0.315584, 0.131437, 0.002883, 0.004267, -0.168505, 0.040797, -0.441088, -0.051444, -0.244951, 0.168803, -0.358763, 0.128725, 0.058111, 0.028174, 0.040499, 0.112002, 0.314534, -0.243226, -0.291663, -0.189581, 0.321189, 0.240614, 0.150528, 0.207694, 0.009028, 0.073526, -0.127589, 0.246228, -0.365329, 0.066226, 0.112874, -0.032274, 0.260750, 0.159116, -0.016910, 0.066657, -0.172658, -0.156872, -0.285638, -0.055571, -0.149025, -0.021183, -0.266617, 0.093737, 0.267003, -0.213880, 0.100982, -0.277276, 0.000477, -0.030144, -0.022722, 0.325922, 0.135115, 0.066376, 0.309333, 0.072582, -0.266726, -0.070523, 0.112544, -0.023039, },
{0.131069, 0.044412, -0.414851, -0.086001, -0.027532, -0.520091, 0.092492, 0.215588, -0.208297, -0.322178, 0.003276, -0.093043, -0.080615, 0.393311, -0.104328, 0.241152, -0.014313, 0.265198, 0.004034, -0.184748, -0.131899, -0.177060, -0.191542, -0.328790, 0.176562, 0.176778, -0.491171, -0.158389, -0.353556, -0.151033, -0.215734, -0.037430, -0.443222, -0.086363, 0.096619, 0.118035, 0.009394, 0.216990, -0.092479, 0.219429, -0.002785, 0.051483, -0.484552, -0.101256, -0.277620, 0.328640, 0.124599, -0.020564, -0.078923, -0.191768, -0.193032, -0.077676, -0.067281, 0.150744, 0.083767, 0.109524, -0.150124, -0.066569, -0.241863, 0.159746, 0.060708, 0.308062, 0.181821, 0.146375, },
{0.257791, 0.108413, -0.079456, 0.251071, -0.092029, 0.363442, 0.009343, -0.133258, -0.202471, 0.168938, 0.163040, 0.033549, 0.077108, -0.185783, 0.311321, -0.089287, 0.320495, 0.074187, -0.121808, -0.035663, 0.296087, -0.213582, 0.174368, 0.312099, 0.261909, -0.151342, 0.055867, -0.211801, 0.028342, -0.078318, 0.244463, 0.102623, 0.126887, 0.124991, -0.402052, -0.020332, -0.172729, 0.403091, -0.289129, 0.030047, 0.355088, -0.249010, -0.069356, -0.247816, 0.336662, 0.067094, 0.060701, 0.209900, -0.501517, -0.009843, 0.344417, 0.031389, 0.316660, -0.055886, -0.181197, 0.071249, 0.290439, 0.051112, 0.074827, -0.012505, -0.054436, -0.255633, -0.156058, -0.183739, },
{-0.130134, -0.066871, -0.240883, 0.155623, -0.105150, 0.377224, 0.014476, 0.002802, 0.050850, -0.136180, 0.044283, -0.118849, -0.014860, -0.183743, -0.310913, -0.184260, -0.128204, 0.647530, -0.439326, -0.119768, -0.023529, -0.374466, 0.629748, -0.107113, -0.260063, -0.241577, -0.175796, 0.014083, -0.003003, 0.098805, 0.598382, 0.057011, 0.305408, -0.386010, 0.143375, -0.209912, -0.339548, 0.039123, -0.226145, 0.152638, -0.119901, -0.451909, -0.114643, -0.091235, 0.088027, -0.466424, -0.177395, 0.206318, -0.106759, -0.133259, 0.419576, -0.222636, 0.004461, 0.242686, 0.260050, 0.007371, -0.234280, 0.039424, 0.032932, 0.011862, -0.402015, -0.052436, -0.575899, -0.099398, },
{-0.113792, -0.002397, -0.061238, 0.095162, -0.016035, 0.147162, -0.276908, -0.159915, 0.402733, 0.002863, -0.162436, -0.398122, -0.079371, -0.013948, -0.304950, 0.100866, -0.222688, 0.313311, -0.346634, -0.139577, 0.380182, -0.046834, 0.250956, -0.062314, -0.210370, -0.047168, 0.276607, 0.067347, 0.025766, 0.188444, 0.395221, -0.242447, 0.131551, 0.069833, 0.239753, 0.184230, 0.037496, -0.158480, -0.084991, 0.158504, 0.057500, 0.103953, -0.254665, -0.044694, 0.195559, -0.004064, -0.180026, 0.026088, -0.008636, -0.196191, -0.138272, -0.448491, -0.280249, -0.082162, -0.018126, 0.028103, 0.237112, 0.285316, 0.052034, 0.301320, -0.481873, -0.039913, -0.145500, 0.277738, },
{0.084840, -0.100696, 0.164090, -0.490672, -0.228596, 0.163985, 0.123173, 0.403070, 0.355746, 0.296601, 0.218918, 0.530751, -0.063286, -0.200924, -0.194969, -0.032463, -0.298865, 0.562900, 0.217980, 0.109157, 0.162359, -0.087299, 0.063903, 0.039725, -0.113347, 0.258337, 0.001149, 0.063683, 0.277706, -0.164960, -0.116414, 0.361423, 0.092330, 0.050861, 0.344650, -0.176471, 0.067774, -0.211773, -0.203277, -0.234090, 0.403576, 0.113738, -0.018853, -0.254722, -0.268217, -0.891702, 0.244504, 0.221345, -0.200199, 0.050576, -0.197472, -0.010221, 0.249788, -0.181092, 0.227305, -0.073970, -0.259855, -0.209851, 0.161512, 0.110660, 0.114960, -0.055272, 0.049022, -0.129501, },
{-0.027469, -0.082740, 0.148971, 0.232759, -0.113367, 0.102849, -0.124181, 0.044713, 0.415936, -0.160678, 0.245105, 0.001827, -0.090364, -0.040319, -0.289099, -0.137135, -0.254486, 0.145619, -0.037572, -0.171235, 0.529898, -0.240884, 0.300199, -0.135540, -0.487462, 0.067670, 0.117670, 0.177377, 0.136908, 0.015743, -0.005079, -0.035428, 0.299428, 0.019652, 0.331119, -0.066081, 0.132394, -0.559735, -0.069831, 0.051372, -0.283119, -0.077695, -0.320460, -0.185832, -0.359200, -0.289764, -0.009605, 0.492726, -0.089591, -0.029082, -0.335338, -0.139005, 0.069094, 0.029335, 0.020642, -0.287882, -0.240953, 0.032121, 0.412831, 0.307160, -0.178310, 0.134265, -0.153065, 0.236908, },
{0.488239, 0.363984, -0.201445, -0.482159, 0.053687, 0.250657, 0.100649, 0.151581, 0.119885, 0.108999, 0.024453, -0.004191, 0.054624, -0.211638, 0.369440, 0.037545, 0.214124, -0.128223, -0.131649, 0.473331, -0.154330, 0.173252, -0.122596, -0.303522, 0.106313, -0.298087, 0.046497, 0.373750, -0.138079, 0.012182, -0.545955, 0.296209, 0.071255, -0.341205, -0.039864, 0.227930, -0.032605, 0.027703, -0.226177, 0.148431, -0.492984, -0.091505, 0.172478, 0.314945, 0.059666, 0.014644, 0.092774, -0.245978, 0.514492, 0.458135, 0.249214, -0.039262, 0.216970, 0.382704, 0.111961, 0.202737, 0.272097, -0.091728, -0.170247, -0.463830, -0.010154, -0.080552, -0.169808, 0.481242, },
{-0.069774, -0.004652, 0.266597, -0.107515, -0.079828, -0.027190, -0.256905, 0.102681, 0.366011, -0.239930, -0.005449, 0.085258, -0.212090, -0.082069, 0.009113, -0.190097, -0.232847, 0.097910, -0.205745, 0.065430, -0.050251, -0.330914, 0.100227, -0.088845, 0.185369, 0.082254, -0.141112, 0.182920, -0.076203, -0.008418, -0.282872, 0.191308, 0.197220, -0.448805, 0.293008, 0.132135, -0.240461, -0.442191, 0.169124, -0.095799, -0.448563, 0.143875, 0.167003, -0.294295, 0.095150, 0.300590, -0.045500, -0.508121, 0.290355, 0.255416, -0.331827, 0.035049, -0.232945, -0.279102, 0.009887, -0.317755, -0.152039, -0.209616, -0.107427, 0.253705, 0.024733, 0.245682, -0.037768, -0.133118, },
{-0.232252, -0.029024, 0.159272, -0.068590, -0.388933, -0.015396, 0.022485, 0.269855, 0.383768, -0.254907, 0.095314, 0.187871, 0.212006, 0.063249, 0.158759, -0.132913, 0.081465, -0.324080, 0.171646, -0.010439, -0.119995, -0.250415, -0.197887, 0.014397, 0.130666, 0.479763, -0.255135, 0.176098, 0.229820, 0.176173, 0.145068, 0.131257, 0.146680, 0.174508, 0.048880, -0.173343, -0.015361, -0.308681, 0.225230, -0.080176, -0.327944, 0.144752, -0.036205, 0.024597, 0.043890, 0.114031, -0.000697, -0.104582, 0.405050, -0.290988, -0.298728, 0.517648, -0.005970, -0.134255, -0.029497, -0.200830, -0.393941, -0.330703, 0.024510, -0.015946, -0.024860, 0.321901, -0.048902, -0.065472, },
{-0.275957, -0.407359, 0.027398, 0.194436, -0.191979, -0.240649, 0.167181, 0.131623, 0.074494, -0.303253, -0.175418, 0.065527, 0.022658, -0.280638, -0.402127, 0.076671, -0.214653, 0.202093, 0.023340, -0.080100, 0.123042, -0.162404, 0.033439, 0.249965, 0.184340, 0.272499, 0.286676, 0.178981, 0.107259, -0.061436, 0.217533, 0.006755, -0.102960, -0.231420, -0.029316, -0.115857, 0.261709, -0.248416, 0.124303, -0.143152, -0.166124, -0.111123, 0.067737, -0.469233, -0.405064, -0.266389, 0.262962, 0.230320, 0.194623, 0.192726, 0.070246, 0.277904, 0.041785, -0.235685, -0.010186, 0.129863, 0.099779, -0.204921, 0.338770, 0.228253, 0.240271, 0.100144, -0.189119, 0.084977, },
{-0.153892, -0.068528, -0.231714, 0.151897, -0.197471, -0.143373, 0.363984, 0.313557, 0.428678, -0.089512, 0.015824, 0.098218, 0.087358, 0.474178, -0.034543, -0.034065, 0.227070, -0.208008, 0.146851, 0.028306, 0.252903, -0.303699, -0.019640, -0.008710, -0.019065, 0.195048, -0.042562, 0.189971, 0.131027, 0.036761, -0.065255, -0.028200, -0.085075, -0.232069, -0.161243, -0.395133, 0.110227, 0.020238, 0.170242, -0.307255, 0.147802, -0.075383, -0.168000, -0.441796, -0.654211, -0.030382, -0.102957, 0.257973, 0.362211, 0.007254, -0.261004, -0.140311, -0.064755, -0.353791, -0.058915, 0.260512, -0.134829, 0.295947, -0.067538, 0.271238, 0.000413, 0.093754, -0.040654, 0.107458, },
{0.427144, -0.204180, 0.262828, -0.289451, -0.292388, -0.249647, -0.041319, 0.090014, -0.549564, 0.127993, -0.411147, 0.230900, 0.053360, 0.084361, -0.365337, 0.437200, 0.117254, 0.271658, 0.198965, 0.017592, -0.272422, -0.115320, -0.096145, -0.217426, -0.165026, 0.047740, -0.082153, 0.084493, -0.365711, 0.297700, -0.198828, -0.142625, -0.267592, -0.008098, 0.192545, 0.331495, 0.129075, 0.248130, -0.052991, 0.118856, 0.203709, 0.202145, -0.130498, 0.048700, -0.023361, 0.317509, -0.303645, 0.145800, 0.235779, 0.022384, -0.379970, -0.051023, -0.095845, 0.292612, -0.470896, 0.085977, 0.155278, -0.158740, -0.024920, -0.182288, 0.070327, -0.065255, 0.512631, -0.064846, },
{-0.105261, -0.204967, -0.054084, -0.325887, -0.080899, 0.229327, -0.036194, 0.080632, 0.289540, 0.307159, 0.496720, -0.116716, 0.216719, -0.022147, 0.131428, 0.126813, -0.154175, 0.221028, 0.189038, -0.075734, 0.102442, -0.122458, 0.101632, 0.059463, -0.412724, -0.216852, -0.094837, 0.009636, -0.313288, -0.107998, -0.276879, -0.099548, 0.062914, 0.025661, -0.002675, -0.049606, -0.298698, -0.140985, -0.119523, 0.352088, -0.255027, 0.102504, 0.195236, 0.052008, -0.021288, -0.191246, 0.166381, 0.058658, 0.395748, 0.477553, -0.046332, -0.279374, -0.303650, 0.215990, 0.036500, 0.162295, -0.109389, 0.353395, -0.049353, -0.238833, 0.169075, -0.064810, 0.009841, 0.211235, },
{0.126043, -0.199687, 0.118519, 0.263402, 0.174715, -0.014763, 0.353112, 0.225573, -0.386541, -0.093464, 0.117188, 0.297163, 0.168799, -0.051155, -0.199003, 0.051557, -0.066658, -0.186206, 0.106819, 0.256725, -0.033279, -0.321262, 0.354118, -0.016789, -0.034508, 0.223238, -0.296189, 0.194787, 0.194660, -0.015822, 0.219396, 0.131588, -0.049980, -0.312354, -0.556800, -0.064386, -0.177604, 0.273001, 0.359706, -0.721752, -0.218125, -0.196765, -0.292871, -0.341125, -0.161253, 0.081125, -0.142731, -0.028641, 0.057133, -0.240180, 0.031910, 0.182558, 0.219550, -0.060660, -0.240060, 0.254769, -0.127125, -0.047245, -0.069745, -0.151929, -0.186383, 0.280907, 0.074120, 0.175526, },
{-0.290735, 0.222749, 0.087857, 0.483767, 0.234327, -0.158078, -0.110323, -0.455771, 0.172680, 0.133963, 0.029644, -0.498487, 0.429168, -0.036508, 0.258842, -0.320066, -0.040399, -0.317236, 0.044978, 0.023013, 0.416541, -0.288970, 0.055802, 0.110397, -0.189331, -0.054817, 0.046370, -0.155730, -0.028209, -0.065346, 0.068821, -0.305369, 0.070448, 0.191600, 0.037207, 0.004957, -0.109505, -0.115736, 0.016095, -0.171706, 0.174724, 0.064766, 0.348488, -0.181984, 0.019037, 0.089315, -0.001386, 0.145648, -0.421217, 0.383447, -0.025238, -0.255941, 0.018394, -0.630204, -0.000643, 0.109087, 0.076886, 0.298535, -0.119326, -0.388889, 0.099180, -0.518181, -0.041414, 0.277119, },
{0.042939, 0.212709, 0.194459, -0.071625, 0.066613, 0.013205, 0.207017, 0.131117, 0.107772, -0.005941, 0.244386, -0.182435, -0.083115, 0.000717, 0.124720, 0.262830, -0.064073, 0.087354, -0.139780, -0.152538, 0.039186, 0.185063, 0.328746, -0.130295, -0.313680, -0.204790, -0.000812, -0.045889, -0.156425, -0.075197, 0.174569, -0.105862, 0.114522, 0.191212, 0.397553, 0.338086, -0.427116, -0.050701, -0.196156, 0.283192, -0.051518, 0.069713, -0.043707, -0.211912, 0.233121, 0.028291, 0.003644, -0.032536, -0.182802, -0.060384, 0.381633, 0.143236, -0.134314, 0.222449, -0.438304, -0.192947, 0.145039, -0.151986, 0.125537, -0.032407, 0.175310, -0.233548, -0.384564, -0.049786, },
{0.503156, -0.214743, -0.569953, 0.227512, 0.093872, 0.131335, -0.276737, -0.125952, 0.009633, 0.257357, 0.111350, -0.065134, -0.177077, 0.355524, -0.067641, -0.237229, -0.120515, 0.208368, -0.045477, -0.077423, 0.023832, 0.026981, 0.111837, 0.162447, 0.345348, 0.211701, 0.068437, 0.381700, -0.179512, 0.011651, 0.206866, -0.041804, -0.216860, -0.053177, -0.213437, 0.039505, 0.413229, 0.534195, -0.359564, 0.072870, 0.027599, 0.276805, -0.227877, -0.477557, 0.081437, -0.100349, -0.008335, -0.023824, -0.110705, 0.536718, 0.110692, -0.139488, 0.048631, 0.261505, -0.137264, 0.108973, 0.323187, -0.176366, 0.015309, 0.437767, -0.037009, 0.248386, -0.021488, -0.232453, },
{0.032415, -0.202784, 0.053560, -0.339471, 0.052775, 0.267965, 0.291331, -0.101313, -0.164270, 0.239067, 0.143983, -0.062238, 0.169882, -0.274713, 0.363783, 0.109548, -0.065521, 0.221366, 0.058534, -0.237209, 0.608380, -0.196834, 0.055664, 0.316328, -0.330631, -0.240501, -0.167215, -0.289875, -0.167113, 0.308415, -0.052721, 0.163174, 0.017432, 0.295398, -0.119141, -0.212005, 0.283239, 0.174706, 0.089987, 0.484402, 0.078100, -0.028707, 0.076518, 0.645658, 0.196264, -0.221539, 0.378263, -0.023268, -0.144219, 0.139022, 0.278866, -0.240501, 0.092339, 0.131723, 0.126361, 0.025103, 0.185036, -0.011163, -0.288916, 0.081701, 0.151228, -0.172666, 0.226323, -0.297660, },
{0.150847, -0.082037, 0.135774, -0.012841, -0.069647, 0.034905, -0.019855, -0.368028, -0.016845, 0.092657, -0.127972, -0.347099, 0.387007, -0.081506, 0.085995, -0.129589, 0.106738, -0.333808, -0.091545, -0.161983, 0.061310, -0.111272, -0.011413, -0.223249, -0.132004, -0.127866, -0.327168, -0.424162, 0.000911, -0.040485, 0.015090, -0.278549, -0.290485, -0.237511, -0.396815, -0.170430, -0.089050, -0.098719, 0.207879, 0.125183, -0.319340, -0.209018, -0.143087, 0.293612, -0.177652, -0.029760, 0.015072, 0.106458, 0.181588, 0.124713, 0.008241, 0.050736, -0.471182, -0.273620, 0.006203, 0.104690, -0.101622, -0.025571, 0.025050, -0.135440, 0.306818, 0.019886, -0.107194, 0.028970, },
{0.314209, -0.368026, -0.077921, -0.137785, 0.161412, 0.204526, -0.087494, -0.289487, 0.318273, 0.318282, -0.129930, -0.113153, 0.266974, -0.266587, 0.018065, 0.069948, -0.417378, 0.062241, -0.122849, 0.321605, 0.162424, -0.384308, 0.378699, 0.253503, -0.129303, -0.446538, 0.405306, 0.390216, 0.130501, -0.072062, -0.218576, -0.126551, -0.320634, -0.063900, -0.102081, 0.038403, -0.100206, -0.347095, -0.117006, 0.015399, 0.147860, 0.121752, 0.050012, 0.008744, 0.009864, 0.011533, -0.258902, 0.187483, -0.340512, 0.374894, 0.461412, 0.018973, 0.076865, 0.186803, -0.195168, 0.360750, 0.323757, -0.257459, 0.203355, 0.237034, -0.093554, -0.217253, -0.140661, 0.027625, },
{0.109235, 0.036581, 0.380255, -0.011211, -0.012184, -0.326440, 0.173254, 0.081610, 0.017391, 0.258561, -0.323110, -0.327068, 0.151387, -0.012402, -0.144369, 0.153202, 0.399287, -0.446421, 0.043526, 0.373825, 0.155657, -0.020533, -0.258090, 0.010673, -0.005249, 0.326501, 0.438357, -0.292702, -0.046882, 0.342651, 0.163563, -0.360687, 0.148933, 0.349150, 0.344812, -0.194081, -0.002319, -0.004901, -0.094875, -0.066973, 0.361897, -0.236343, 0.145074, 0.225303, -0.065066, -0.025194, 0.152531, 0.037049, -0.141885, -0.127003, -0.363238, 0.108476, 0.158762, -0.239141, 0.153945, 0.009088, 0.072121, 0.348558, 0.281415, -0.214621, -0.091492, -0.495521, 0.325458, 0.034242, },
{0.135486, 0.043426, 0.423393, -0.255556, 0.329475, 0.006894, 0.173815, 0.013890, 0.047579, -0.177252, -0.016226, -0.018592, -0.437141, -0.536920, 0.141749, -0.044829, -0.116195, -0.259635, -0.392834, 0.392386, -0.119456, 0.264607, -0.188825, -0.056750, -0.045664, -0.185349, 0.203061, 0.211591, 0.013393, -0.168715, -0.313292, 0.276303, -0.091505, 0.238262, 0.208273, -0.045633, 0.277867, 0.097719, 0.193825, -0.239416, -0.374306, -0.094096, 0.502974, 0.099481, -0.212519, -0.047108, -0.271591, -0.454862, -0.303195, -0.011786, -0.054143, 0.008440, 0.009276, 0.059655, 0.174591, -0.059011, 0.362615, -0.067361, 0.144473, -0.108368, -0.341065, -0.099848, 0.196389, -0.042695, },
{0.132116, 0.082839, -0.146880, 0.046396, -0.007999, 0.264659, -0.257072, 0.019791, 0.122614, 0.128141, -0.013483, -0.316595, 0.092424, 0.000552, 0.151390, -0.257690, -0.197264, 0.172588, -0.282322, -0.527695, 0.026254, -0.052934, -0.043475, 0.096340, 0.513718, -0.117992, 0.009564, -0.109986, -0.149282, 0.076474, 0.414242, 0.109786, 0.457912, 0.317701, 0.319945, -0.196270, -0.007695, -0.112564, -0.241672, 0.069121, 0.070309, -0.283893, 0.196446, 0.093355, 0.416718, 0.179514, 0.231491, -0.041649, -0.146378, -0.129532, 0.255005, 0.029760, -0.012256, 0.218290, 0.081044, -0.167176, -0.433032, -0.019477, 0.093044, 0.214855, -0.046724, -0.122384, -0.277674, -0.359309, },
{0.134626, 0.059621, 0.568004, -0.086698, -0.106748, -0.250185, 0.153149, -0.054595, 0.199446, -0.202025, 0.212149, 0.033213, -0.154096, -0.108318, -0.123586, 0.195747, 0.008647, 0.054044, 0.004880, 0.410737, -0.367268, 0.432958, -0.063051, -0.544796, 0.265152, -0.053439, 0.136049, -0.043469, 0.212572, 0.120105, -0.173030, -0.110087, 0.449677, -0.492655, 0.491211, 0.307064, -0.271483, -0.079961, -0.177812, -0.172434, 0.014609, -0.011650, -0.066021, -0.039539, 0.101093, 0.000234, -0.029248, -0.160743, 0.027991, -0.005189, -0.074811, 0.336529, 0.207129, 0.232608, 0.223139, -0.437884, 0.030732, -0.227929, 0.308159, -0.133556, 0.129014, 0.268639, -0.286642, 0.030480, },
{0.126770, 0.322255, 0.027401, -0.440204, 0.290628, -0.173124, 0.237371, -0.088910, -0.066258, -0.314465, -0.255090, -0.185866, 0.057895, -0.090111, 0.122079, 0.151586, 0.182087, -0.549291, 0.225527, 0.375179, -0.309392, 0.441002, -0.293964, -0.299010, 0.108739, -0.589758, 0.205966, -0.086361, -0.099662, -0.231144, -0.210636, -0.067143, -0.240169, 0.151134, 0.079091, 0.318908, -0.280292, 0.250696, 0.316140, 0.012367, -0.063466, 0.276797, 0.497061, 0.174477, 0.157536, 0.090272, -0.340797, -0.501423, 0.064759, 0.263667, -0.196485, 0.067861, 0.088658, 0.153056, -0.325247, 0.233762, 0.328355, -0.060722, -0.081797, -0.479542, 0.136703, -0.344886, 0.034969, 0.312227, },
{-0.072246, 0.110306, -0.036714, 0.397858, 0.034466, 0.098856, 0.105210, -0.405380, 0.035672, 0.280491, -0.181694, -0.177534, 0.029472, -0.091806, -0.083338, 0.105738, -0.074492, 0.034281, -0.337097, 0.320518, 0.289665, -0.020693, -0.145068, 0.367263, -0.068651, -0.312957, 0.211078, -0.004912, 0.145812, 0.146772, -0.084540, -0.544379, -0.085307, 0.288834, -0.043451, -0.062874, 0.428048, 0.286300, -0.104391, -0.097818, 0.267508, -0.184573, -0.073775, -0.134527, -0.117096, 0.210625, -0.093390, 0.247930, -0.420554, 0.168994, -0.064196, -0.080938, 0.097725, -0.337320, 0.185182, -0.100763, 0.385616, 0.245180, 0.236704, 0.012151, 0.183154, -0.173623, -0.250554, 0.430081, },
{-0.132431, 0.526157, -0.352050, -0.423770, 0.194291, -0.098787, -0.212383, 0.371184, 0.209838, -0.368064, 0.297950, -0.086384, -0.428676, -0.099361, 0.008861, -0.104316, -0.198645, 0.328224, 0.171285, -0.169416, -0.034833, -0.219618, -0.152031, -0.425598, 0.330122, 0.147884, -0.204489, -0.026050, -0.194998, 0.136505, 0.070280, 0.482010, -0.077557, -0.300615, 0.027983, 0.090183, 0.179303, 0.209763, -0.025321, 0.250971, -0.133490, 0.026935, -0.000171, 0.028892, 0.247274, 0.096767, -0.046898, -0.050142, 0.187260, -0.102200, 0.083596, -0.018946, -0.192138, -0.001065, 0.447843, -0.054212, -0.019437, 0.215154, 0.010621, -0.018940, -0.474010, 0.384311, -0.388867, 0.297958, },
{0.164169, -0.294466, 0.041498, -0.170232, 0.103445, -0.022554, -0.014308, 0.006778, -0.219427, 0.531793, 0.195936, -0.073891, 0.158192, -0.097617, 0.383023, 0.190330, -0.349543, -0.069651, 0.272179, 0.317635, 0.339918, 0.055652, 0.195752, 0.161041, -0.423627, -0.291626, 0.127570, 0.052078, -0.016275, 0.110870, -0.247907, -0.085166, -0.219927, -0.072439, -0.201936, 0.173426, 0.007166, 0.126943, -0.241840, 0.059638, 0.056596, 0.370085, 0.271022, -0.043454, 0.019557, -0.018554, 0.239129, -0.169874, -0.092659, 0.481750, -0.047197, -0.293655, 0.176300, 0.228521, -0.289174, 0.091142, 0.005497, -0.070657, 0.075436, 0.101610, 0.385585, 0.401209, -0.004450, -0.211130, },
{0.130268, -0.032408, -0.423841, -0.391209, -0.258416, 0.006132, -0.379207, 0.049183, 0.271244, 0.099299, -0.253927, 0.275415, 0.205266, -0.103965, 0.042983, -0.156915, -0.071680, 0.254225, -0.109668, -0.016051, -0.506930, 0.056643, -0.260875, -0.025576, -0.219823, -0.299460, -0.478723, 0.114352, -0.533440, -0.000510, -0.014397, -0.006209, -0.295354, 0.159932, 0.224217, -0.301063, -0.143368, -0.188934, 0.118227, 0.578228, -0.013239, 0.147667, 0.243479, 0.636212, -0.252586, 0.230994, 0.103233, -0.122876, 0.400649, 0.167822, -0.188120, -0.416806, -0.248937, 0.342065, 0.243761, 0.130278, -0.198848, -0.118503, -0.171738, -0.395832, 0.581114, 0.152652, 0.067467, 0.096617, },
{-0.358256, -0.300207, 0.017432, 0.372574, -0.178061, -0.255051, 0.159527, -0.066546, 0.118110, -0.275023, 0.094131, 0.353501, 0.077316, 0.130852, -0.414762, 0.489194, 0.498846, -0.208229, -0.038612, 0.045633, -0.138293, 0.095978, 0.435981, 0.153675, -0.461108, -0.231940, 0.141757, -0.206090, -0.056926, -0.140765, 0.190862, 0.028089, 0.068255, -0.013752, 0.211090, -0.003373, -0.290957, -0.015764, 0.211104, -0.334105, -0.008564, -0.028550, -0.106794, -0.329890, 0.089398, -0.102804, -0.133108, -0.173270, -0.208044, -0.624461, -0.226090, 0.006251, 0.143339, 0.145483, -0.225837, -0.057615, 0.022844, -0.314557, 0.152899, 0.081494, 0.122448, -0.205104, 0.187080, 0.186619, },
{0.030616, -0.104452, -0.273218, 0.010238, 0.251705, -0.149388, 0.447487, 0.098352, -0.056834, 0.370883, -0.219935, 0.156756, 0.261293, -0.349208, -0.086380, 0.458289, -0.169119, 0.024412, 0.218799, 0.230891, 0.282897, -0.075124, 0.228726, 0.190507, 0.153189, 0.125481, 0.462521, 0.215469, 0.434790, 0.144641, -0.094660, -0.246431, 0.150613, -0.012471, -0.054220, 0.052586, 0.339738, 0.385636, -0.029914, 0.066108, 0.257108, -0.103173, -0.393432, -0.276006, -0.060659, 0.145719, 0.073923, 0.219649, -0.111022, 0.167602, -0.025336, -0.269835, -0.033972, -0.129937, -0.336228, -0.051545, 0.306079, -0.014564, 0.478164, 0.230199, -0.275611, -0.074066, 0.065054, 0.289960, },
{-0.100917, 0.385320, -0.347777, 0.136157, 0.152730, 0.030549, 0.065416, -0.093978, 0.068087, -0.086217, 0.142910, -0.210860, 0.022607, 0.027610, -0.377390, -0.178622, -0.100933, -0.053711, -0.076289, -0.373151, 0.075699, 0.077023, -0.225913, 0.230211, -0.006991, -0.031437, -0.214701, 0.189785, -0.163578, 0.012321, -0.017236, 0.044729, 0.015118, -0.217689, -0.079649, 0.080109, -0.299470, -0.166139, 0.129042, -0.044600, -0.187494, -0.131379, 0.135558, 0.252152, 0.399010, 0.199974, 0.165828, -0.171255, 0.374221, -0.058290, 0.139194, 0.303692, -0.131557, 0.403836, -0.124963, -0.006313, -0.207469, 0.047494, -0.063314, 0.302791, 0.050093, -0.270128, 0.145060, 0.169477, },
{0.101758, -0.019440, 0.337074, 0.058412, -0.060849, 0.004340, -0.020310, -0.043471, -0.087896, -0.063565, 0.221679, 0.176966, -0.143508, 0.288713, -0.118299, 0.431463, 0.505282, 0.134998, 0.134512, 0.209779, 0.001434, -0.025822, 0.050797, -0.155774, -0.758718, -0.038896, 0.074561, -0.407632, -0.279556, 0.179317, -0.055545, 0.299527, -0.284453, 0.026196, 0.387672, -0.318563, -0.139184, 0.020639, 0.103902, 0.044825, 0.199734, -0.037065, -0.099571, 0.157041, 0.037421, -0.230338, -0.191088, 0.001038, -0.106722, -0.171134, -0.130307, -0.082718, 0.439453, 0.115771, -0.295803, -0.299103, -0.131702, -0.063847, -0.151821, -0.058629, 0.316727, 0.196493, 0.326668, 0.096969, },
{-0.349540, -0.160560, -0.013819, 0.044126, -0.130392, -0.354156, -0.264569, -0.283571, -0.534959, -0.066294, -0.134855, -0.213281, -0.246247, 0.061926, -0.256704, -0.020944, 0.181264, -0.627405, 0.706286, 0.204985, -0.223306, 0.335315, -0.364437, -0.470814, 0.435683, -0.167932, 0.333759, -0.188661, 0.234379, 0.109466, 0.328404, -0.195037, -0.096950, 0.166761, -0.130359, 0.211378, 0.246113, 0.261809, -0.303484, -0.258786, -0.019779, 0.250948, -0.056977, -0.092269, 0.177986, 0.303358, 0.105070, -0.070106, -0.160601, -0.224877, -0.042454, 0.264662, 0.150732, 0.058435, 0.131599, 0.147957, 0.343741, 0.211074, 0.428493, -0.045798, 0.157659, 0.445717, -0.131198, 0.354389, },
{0.119493, -0.409357, 0.039575, -0.048638, 0.173318, 0.395993, -0.308191, 0.339254, -0.340414, 0.417140, 0.018600, 0.327172, 0.129591, 0.235242, -0.144268, 0.584352, 0.424702, 0.391853, 0.074423, 0.067458, -0.161676, -0.078394, -0.082747, 0.077055, -0.091213, 0.127147, -0.048823, 0.065543, 0.000824, -0.140845, 0.062904, 0.487724, -0.136878, -0.051528, -0.045638, 0.175244, 0.114024, 0.211968, -0.157899, 0.207250, 0.346395, 0.096904, 0.093639, 0.151680, 0.378091, -0.169379, -0.216435, -0.063653, -0.401081, -0.064988, -0.007874, -0.393313, 0.195492, 0.083148, -0.002726, 0.084724, -0.161293, -0.341423, -0.090568, 0.055302, 0.078652, 0.119716, 0.254682, -0.124830, },
{-0.032766, -0.061612, 0.206970, -0.325088, -0.018227, 0.087979, -0.205118, -0.248011, 0.339028, 0.317771, -0.020709, -0.042697, 0.190733, -0.365341, -0.105927, -0.045601, 0.121199, -0.120949, 0.131175, -0.027760, 0.153660, 0.157006, 0.028404, 0.260702, 0.112343, 0.144441, 0.324187, -0.020139, 0.088969, 0.139803, 0.140969, 0.127444, 0.280746, 0.451546, 0.034927, -0.122864, -0.028605, -0.191057, -0.055243, -0.176956, 0.159005, -0.224571, -0.092165, 0.367787, 0.118346, -0.617190, 0.291332, -0.134920, 0.008985, 0.300275, 0.220118, 0.294131, 0.269641, 0.001523, 0.443586, 0.081631, -0.115605, 0.261414, 0.342545, -0.179665, -0.147985, -0.362580, -0.107900, 0.152162, },
{0.146017, 0.403031, 0.020184, -0.025437, 0.021002, 0.107235, 0.189090, 0.100189, 0.018185, -0.085557, -0.033967, 0.011444, 0.162471, 0.157333, 0.191500, 0.464100, -0.232835, 0.194762, 0.218453, 0.065471, 0.291033, -0.120568, 0.304608, 0.028101, -0.149792, 0.053209, 0.142235, 0.021790, -0.284690, 0.208937, -0.141500, 0.173000, -0.337647, 0.069607, -0.399317, 0.206568, -0.184205, -0.033069, -0.156617, 0.205410, -0.176084, 0.105642, 0.172013, -0.193966, 0.168532, 0.224540, 0.221852, -0.107121, 0.090724, 0.106989, -0.123662, -0.237474, -0.171835, -0.078034, -0.058976, -0.014601, 0.386022, 0.145985, -0.607602, -0.367768, 0.047265, 0.003853, 0.431734, 0.277542, },
{-0.004812, -0.187831, 0.173804, -0.260051, -0.089845, 0.174398, -0.033186, -0.251004, 0.014371, 0.116296, 0.073867, -0.043947, 0.071501, -0.236528, 0.230560, -0.038912, 0.357679, 0.044619, 0.025501, 0.038738, 0.009921, 0.052052, 0.011542, -0.110178, -0.287035, -0.264655, 0.217837, -0.155040, -0.019541, 0.237684, -0.112863, 0.192135, 0.121968, 0.194587, 0.029194, -0.015409, -0.097599, -0.043969, -0.043932, 0.147930, -0.093746, -0.093942, 0.194995, 0.451780, 0.353886, -0.383932, -0.140372, 0.102269, -0.045114, -0.200102, 0.075743, -0.136667, 0.203111, -0.053510, -0.036601, -0.015587, 0.188066, -0.057973, -0.075882, -0.486495, 0.150284, -0.208555, -0.135587, -0.036669, },
{0.319028, -0.103860, 0.204249, 0.113826, -0.204680, -0.097476, 0.021249, -0.058789, -0.122779, 0.155443, -0.117135, 0.293771, 0.025695, 0.053073, 0.106638, 0.371845, 0.118440, -0.141835, -0.134372, 0.150481, -0.545471, 0.470524, 0.175663, -0.094576, -0.011167, -0.228295, 0.202551, 0.315480, 0.061750, -0.043050, 0.189785, 0.286776, 0.203783, -0.124385, 0.016035, 0.356029, -0.069697, 0.284676, -0.221824, -0.046452, 0.130751, 0.312125, 0.020019, -0.417334, 0.137823, 0.021433, -0.342755, -0.340535, -0.547163, 0.075175, 0.100099, 0.192027, -0.009992, 0.112152, -0.173259, -0.340894, 0.216344, 0.225947, 0.307903, -0.084003, -0.305261, -0.157081, -0.110731, 0.290665, },
{-0.242626, 0.179815, -0.076144, -0.070778, 0.479258, 0.008020, -0.253960, 0.007549, -0.026083, -0.149855, 0.030181, -0.438149, -0.308211, -0.120815, -0.153176, -0.269133, 0.060085, -0.395912, -0.462560, -0.067804, 0.296421, -0.269286, -0.496925, 0.120260, -0.239319, 0.053673, -0.311279, -0.411134, -0.248051, -0.102639, 0.047077, 0.347324, -0.161939, 0.094059, 0.219056, -0.026180, 0.064414, -0.031734, 0.172799, 0.041943, -0.034343, -0.210805, 0.344293, 0.548256, 0.153643, -0.143861, 0.197323, -0.423567, 0.299386, -0.421320, -0.110517, -0.039935, -0.002099, 0.080904, 0.355335, -0.240549, -0.060644, 0.149307, -0.100852, 0.047089, -0.249323, -0.215075, 0.039063, -0.207158, },
{0.390215, -0.660819, 0.262225, -0.486457, 0.082801, 0.038665, 0.100393, -0.501476, -0.348262, 0.109894, -0.308982, 0.098298, 0.370232, 0.303848, 0.092785, -0.242519, 0.250053, -0.200568, 0.387414, -0.076092, -0.280457, 0.065822, -0.224313, 0.232633, 0.160543, -0.210818, 0.279585, 0.196545, 0.116575, 0.030672, 0.465050, 0.001401, 0.089931, -0.010051, 0.027469, 0.325340, 0.411494, 0.190865, 0.134988, -0.259176, 0.265576, -0.148733, -0.166664, -0.213481, 0.251536, -0.022133, -0.275662, 0.099811, -0.311929, -0.181642, 0.207804, -0.131601, 0.221801, -0.197352, -0.373541, 0.028495, 0.475166, -0.384136, 0.083433, 0.162050, -0.075719, -0.496345, -0.195844, -0.161635, },
{0.197913, 0.059176, -0.018817, 0.291849, 0.067300, 0.511288, 0.272330, 0.076555, 0.194393, -0.106061, 0.010988, 0.249521, -0.088435, 0.172786, 0.135059, 0.449439, -0.183913, 0.120363, -0.239094, 0.579248, 0.483063, -0.289966, 0.352979, -0.140475, -0.435399, -0.018778, 0.088198, 0.010427, -0.326006, -0.081263, -0.376242, 0.457288, -0.013053, 0.105389, -0.138201, -0.131810, 0.065169, 0.314875, 0.183358, -0.183811, 0.014633, 0.077988, 0.043766, -0.308824, -0.044812, -0.022290, -0.408565, 0.363564, -0.180126, 0.293810, 0.283386, -0.168031, 0.251119, -0.182984, -0.221486, -0.219371, -0.024076, -0.124280, 0.201107, 0.087874, -0.202662, -0.166576, 0.265377, 0.354003, },
{-0.084218, -0.643131, 0.514103, -0.174127, -0.263989, 0.002334, -0.217272, -0.122656, -0.022234, -0.049917, 0.369576, 0.107249, 0.016640, 0.115562, 0.164569, -0.209414, -0.161882, -0.317848, -0.010531, -0.096714, -0.261008, 0.339704, -0.078863, 0.183054, 0.180954, 0.070984, 0.025656, -0.203452, 0.182001, 0.119014, 0.189676, -0.114257, -0.070153, -0.213616, -0.098950, 0.030087, -0.025415, -0.029617, 0.078833, -0.420831, 0.121149, 0.063267, -0.163250, 0.217133, 0.281607, 0.144362, 0.014725, -0.337251, -0.019725, -0.070935, 0.192959, 0.540908, 0.294894, 0.460983, -0.171380, 0.165706, -0.107145, -0.431658, 0.445992, -0.025153, 0.190294, 0.161726, -0.054967, -0.019971, },
{0.097391, -0.166975, 0.082484, -0.219365, -0.163349, 0.422926, -0.037414, -0.083687, 0.009584, 0.502934, 0.203961, -0.129763, 0.340407, -0.144284, 0.615202, -0.392324, 0.008677, 0.128062, -0.176834, 0.193812, -0.275263, 0.189400, 0.233745, 0.109945, 0.090717, -0.504444, 0.085049, -0.155618, 0.346108, 0.043718, 0.322589, 0.057504, 0.204516, -0.178318, -0.226957, 0.217852, -0.156355, -0.248991, 0.033716, 0.110075, 0.078513, -0.213983, 0.289055, 0.486082, 0.579672, -0.143866, 0.300064, -0.225151, -0.200304, 0.184088, 0.012050, 0.172512, 0.017804, 0.150097, -0.223293, 0.187208, 0.123622, -0.070761, 0.023299, -0.280335, -0.031283, -0.037492, -0.459260, 0.098095, },
{-0.089254, -0.101702, -0.139301, -0.094731, 0.013735, 0.012163, -0.202027, -0.193095, 0.009849, -0.105379, -0.107658, -0.053450, -0.577107, -0.191787, -0.299538, -0.223642, -0.068686, 0.313302, -0.597636, -0.184540, 0.065287, -0.398609, 0.347655, 0.182112, -0.246138, -0.128966, -0.245766, -0.292741, -0.083547, -0.010249, 0.144215, 0.129758, -0.094859, -0.017402, 0.319358, -0.245153, 0.152273, 0.013989, -0.004870, 0.027947, -0.021787, 0.151656, -0.606383, 0.035635, 0.149534, 0.318902, -0.231235, 0.266397, 0.472349, -0.396479, 0.296853, -0.161470, -0.007490, 0.324846, 0.412633, 0.184259, -0.001743, -0.092266, -0.133833, 0.272757, -0.152396, -0.069501, 0.104475, -0.245104, },
{-0.078483, 0.043238, -0.118391, 0.035959, 0.275962, 0.200768, 0.356302, -0.277973, -0.007813, 0.075484, -0.340112, -0.428603, 0.144592, 0.257856, 0.109089, 0.076642, 0.301678, 0.068290, -0.201911, -0.240553, -0.170220, 0.367374, -0.038592, -0.413919, -0.085424, -0.133661, 0.430664, -0.221345, -0.167464, 0.185392, -0.001546, -0.006724, -0.236607, -0.145944, -0.043154, 0.500722, -0.055766, 0.037970, -0.176840, 0.172362, 0.077172, -0.171108, 0.308285, 0.173175, 0.134605, 0.435252, -0.035382, -0.159263, -0.097243, -0.008157, 0.081981, -0.530116, -0.346250, -0.024875, -0.564008, 0.136054, 0.125963, -0.004167, -0.064997, -0.126023, -0.303510, -0.423878, -0.149029, 0.266365, },
{0.124793, -0.353782, 0.639098, -0.226212, -0.050278, 0.109398, 0.019643, -0.222949, -0.202591, 0.182226, 0.239026, 0.127896, 0.326599, -0.522840, 0.455454, 0.102993, -0.074928, -0.144688, -0.271109, 0.043056, 0.022494, 0.059641, 0.239027, 0.064947, 0.011434, -0.182747, -0.000778, -0.070862, 0.486368, 0.174914, -0.016047, 0.262380, -0.069107, 0.334833, -0.099796, -0.066121, -0.206089, -0.099332, 0.039679, 0.026116, 0.133561, -0.253470, 0.242954, 0.267003, 0.094695, -0.297515, -0.016120, -0.025557, -0.159311, -0.062369, 0.088108, 0.015810, 0.245995, 0.151682, -0.266630, 0.194963, 0.091827, -0.209242, 0.243061, 0.000855, 0.057895, -0.276842, -0.148853, -0.118835, },
{0.219570, 0.085499, -0.082091, 0.232241, 0.132103, 0.198870, 0.579911, 0.448659, -0.752468, -0.295652, -0.296247, 0.664669, -0.027238, 0.086789, -0.075913, 0.254713, 0.248757, 0.188442, 0.080385, 0.093951, 0.048770, -0.198868, 0.176269, 0.207040, 0.042028, 0.128109, -0.127524, 0.214458, 0.237347, 0.066807, 0.067263, 0.323731, -0.107887, -0.088285, -0.482937, -0.196972, 0.167890, 0.058106, 0.328093, -0.385720, 0.132261, 0.240699, -0.081230, 0.064296, 0.013417, 0.412047, 0.012149, 0.063517, -0.195631, -0.410795, 0.332658, 0.166243, 0.136641, -0.081020, -0.379544, -0.188553, 0.017507, -0.538121, -0.041357, 0.245034, -0.203158, 0.334528, 0.182982, 0.081507, },
{0.174466, 0.442635, -0.281209, -0.236134, 0.098593, 0.010109, -0.152591, 0.262687, -0.000416, -0.006810, 0.052590, -0.224838, -0.036231, 0.006608, 0.355347, -0.223328, 0.044332, 0.110779, -0.035213, -0.512634, 0.063129, 0.244237, -0.464852, 0.055683, 0.160883, 0.113963, -0.012905, 0.003716, -0.109525, -0.007346, -0.216274, -0.193348, 0.178304, 0.105937, -0.110737, 0.019138, 0.310867, 0.067679, -0.047594, 0.551939, -0.186559, 0.002878, 0.243956, 0.314367, 0.077084, 0.019161, 0.254369, -0.102714, 0.465967, 0.193738, -0.106641, 0.237441, -0.116893, -0.140442, 0.229954, -0.053487, -0.073883, 0.122177, -0.102475, -0.416879, 0.088337, 0.379648, -0.063875, -0.237585, },
{-0.270105, 0.103343, 0.014008, 0.263003, -0.084243, -0.058686, -0.105304, -0.435602, 0.394631, 0.072380, 0.280128, -0.284941, 0.161634, 0.220625, 0.211578, -0.298063, 0.056747, -0.132728, -0.033539, -0.232620, -0.156137, 0.234001, 0.036197, 0.246348, 0.427787, 0.119611, -0.400510, -0.341833, -0.221571, -0.139078, 0.202878, -0.269939, 0.113058, 0.216931, 0.366400, -0.366108, -0.185044, -0.024348, -0.030547, 0.048942, -0.003885, 0.000785, -0.260941, -0.110725, -0.133087, -0.080764, 0.239405, 0.256422, -0.155494, 0.056871, -0.084431, -0.269262, -0.210540, -0.217184, 0.196340, -0.660458, -0.139978, 0.028617, 0.291351, -0.501907, 0.250003, 0.068673, -0.288346, 0.343974, },
{-0.033147, -0.537318, 0.230940, 0.013871, -0.369656, 0.494848, -0.330030, -0.220032, -0.184663, 0.300259, 0.369661, -0.054873, -0.146967, 0.022201, 0.314946, -0.109676, -0.112607, 0.082076, -0.182514, 0.309168, -0.671758, 0.411415, 0.318423, -0.060933, -0.066274, -0.142427, 0.001977, -0.026030, -0.037950, 0.111622, 0.374758, 0.176205, 0.054920, -0.020939, 0.219300, 0.219667, -0.400385, -0.331602, 0.228296, -0.151361, 0.340210, -0.343783, -0.225722, 0.129040, 0.429550, -0.121618, 0.076127, -0.170782, -0.287664, -0.234168, 0.160977, -0.012289, 0.308859, 0.363928, -0.168073, -0.004409, 0.134754, -0.449658, 0.203120, 0.262318, -0.156059, -0.000240, -0.300605, -0.327818, },
{0.340203, 0.110355, 0.022191, 0.080857, 0.070082, -0.252966, 0.132662, -0.181412, -0.097572, 0.020374, 0.119147, -0.067890, 0.173741, 0.111323, 0.187586, 0.116974, -0.080281, -0.059524, -0.024765, 0.411633, -0.227557, 0.124678, 0.159340, -0.132696, -0.115510, -0.336675, 0.006881, 0.045640, -0.072216, -0.133228, -0.448175, -0.104111, -0.159077, -0.178000, -0.205354, 0.565609, -0.319844, 0.147889, 0.017294, 0.054517, -0.247753, 0.127910, 0.212124, -0.105915, 0.321403, 0.321103, -0.033491, -0.276487, -0.425688, 0.209053, 0.001870, -0.048499, 0.084180, 0.147026, -0.313222, 0.280411, 0.326625, -0.117086, -0.400461, -0.381077, -0.089198, 0.134008, -0.333697, 0.227197, },
{-0.651585, -0.014799, 0.297123, 0.061055, -0.152037, 0.408098, -0.355609, 0.416641, -0.251237, -0.184787, -0.021486, -0.057265, 0.027560, -0.196247, 0.149823, -0.591072, -0.338001, -0.158024, 0.015395, 0.312346, 0.351979, -0.327592, 0.139225, -0.158479, -0.171422, 0.049738, 0.071837, 0.120316, 0.215614, 0.201264, 0.103293, 0.418080, 0.115943, -0.148799, -0.345284, 0.064175, 0.527719, -0.731318, 0.676125, -0.445853, -0.339960, 0.192443, 0.466675, 0.048251, 0.061159, -0.031127, -0.231727, -0.014504, 0.380934, -0.117914, 0.323761, -0.156223, 0.178688, -0.027344, 0.476356, 0.393624, 0.008964, -0.061303, 0.093200, -0.018129, -0.116558, 0.226273, -0.141725, 0.206204, },
{0.047261, -0.261884, -0.226494, -0.109687, -0.004925, -0.150208, 0.174908, -0.028706, -0.073353, -0.230608, -0.243114, 0.017576, -0.452287, 0.033561, -0.604645, 0.161851, 0.006028, 0.065007, -0.051429, -0.059055, -0.127167, -0.081761, 0.230007, 0.286503, -0.535299, 0.243714, -0.003831, 0.161389, -0.203261, 0.190761, -0.114057, 0.188001, -0.194351, 0.308333, 0.309613, -0.128567, -0.092314, -0.004562, -0.329472, -0.039306, 0.111143, 0.095176, -0.062450, 0.158408, -0.134574, -0.167702, -0.201867, -0.117539, 0.079382, -0.165921, -0.058050, -0.089216, -0.259596, 0.185102, 0.125554, -0.023514, -0.321115, 0.056439, 0.048911, 0.690700, 0.093537, -0.100179, 0.472820, -0.404148, },
{0.085911, -0.351270, 0.076251, 0.270351, 0.083191, 0.195084, 0.314197, -0.101626, -0.179244, 0.012067, -0.199791, 0.109632, 0.175983, -0.006940, 0.101408, -0.046914, 0.007203, 0.089991, -0.054867, -0.265703, 0.417150, -0.076468, 0.066767, 0.451776, 0.127529, -0.082801, -0.136460, 0.123544, 0.485368, -0.244423, -0.021072, -0.249868, 0.201401, -0.096494, -0.580330, -0.110761, 0.452135, 0.226228, 0.206034, -0.095530, 0.258646, -0.200664, -0.191884, -0.081076, 0.010668, 0.214170, 0.082954, 0.095625, -0.356018, 0.269522, 0.418005, 0.019727, -0.036842, -0.397912, -0.146884, 0.250134, 0.459753, 0.172355, 0.036500, 0.136533, -0.094380, 0.147040, -0.131451, -0.074080, },
{0.093034, -0.318918, -0.266531, 0.106213, 0.066427, 0.124589, 0.277780, -0.291921, -0.278660, 0.180132, -0.412080, -0.024680, 0.139425, 0.200634, 0.206306, 0.201670, 0.425975, -0.176629, -0.204214, -0.084528, -0.011507, -0.054952, -0.198413, -0.183605, 0.312108, -0.325114, -0.087096, -0.118446, 0.401173, -0.096115, 0.168061, -0.441391, 0.090790, -0.216901, -0.370645, 0.201712, 0.062362, 0.174374, 0.130740, -0.095428, 0.157351, -0.155671, -0.274912, -0.159574, -0.076499, 0.339920, -0.304952, 0.281274, -0.029430, 0.024968, 0.152505, -0.096249, -0.288466, -0.035357, -0.295753, 0.091896, 0.198276, 0.178501, -0.096771, -0.060304, -0.060424, -0.025866, 0.031558, -0.040137, },
},
};

const float W1[HIDDEN_LAYER_SIZE][AC_SPACE_SIZE] = {
{-0.100276, 0.101210, 0.023732, -0.014638, },
{0.146570, 0.146574, 0.177796, 0.331173, },
{-0.054683, -0.087459, -0.223171, -0.172921, },
{0.122965, -0.036388, -0.054361, -0.067464, },
{-0.032574, 0.022311, -0.024368, 0.060726, },
{0.002558, 0.013970, -0.046103, 0.085968, },
{-0.083215, 0.054264, 0.008376, 0.009122, },
{-0.067559, 0.014454, -0.055807, 0.196983, },
{-0.178827, -0.107680, 0.203390, 0.037509, },
{-0.032564, -0.091771, 0.046564, -0.070951, },
{0.049982, 0.008661, -0.038274, -0.044031, },
{-0.091915, 0.081438, -0.109674, -0.100216, },
{-0.239883, -0.079959, 0.071247, 0.166912, },
{0.012275, 0.064057, 0.115862, 0.071454, },
{-0.100050, -0.022754, 0.138462, 0.122874, },
{-0.199718, -0.086709, 0.143947, -0.038014, },
{-0.008776, 0.072286, 0.135242, 0.008668, },
{-0.189741, -0.000753, 0.080541, -0.027961, },
{0.228049, -0.079214, 0.012507, -0.074338, },
{0.120440, -0.029438, -0.144270, 0.105408, },
{-0.094823, -0.189750, -0.079263, 0.052550, },
{0.141307, 0.030391, 0.121822, -0.118968, },
{-0.053423, -0.024929, -0.137310, -0.034478, },
{0.036786, 0.086479, -0.116841, -0.140783, },
{-0.100121, 0.056691, 0.206857, 0.025513, },
{0.031545, 0.073625, 0.044491, -0.141879, },
{0.052487, 0.054201, 0.010399, -0.010260, },
{-0.032646, 0.058908, -0.018794, 0.112969, },
{-0.238795, -0.248373, -0.103911, -0.088531, },
{0.007014, 0.012458, 0.010188, 0.005361, },
{-0.103053, -0.098364, -0.102666, 0.013785, },
{-0.067738, -0.144393, 0.022023, 0.123054, },
{-0.118277, -0.060930, -0.022339, -0.047335, },
{0.070752, 0.066631, -0.013194, -0.048903, },
{-0.103031, -0.101112, -0.095356, -0.120622, },
{0.036145, -0.094293, 0.055629, 0.112342, },
{0.150513, -0.020152, 0.008173, 0.094463, },
{-0.003623, 0.088706, 0.114208, -0.056858, },
{0.015878, 0.071151, -0.141394, -0.031695, },
{-0.040934, 0.190056, 0.052524, -0.050032, },
{-0.067790, -0.062579, -0.014902, -0.138973, },
{0.023005, 0.001178, 0.000812, 0.005673, },
{0.189911, 0.096097, -0.045904, 0.132724, },
{0.209300, 0.201970, 0.090377, 0.081096, },
{-0.010816, -0.131886, 0.044266, -0.016671, },
{0.087985, 0.131862, -0.047296, 0.108236, },
{0.011422, 0.012423, 0.023127, -0.063745, },
{-0.036255, -0.018459, 0.093871, 0.023172, },
{0.194278, 0.102713, -0.095234, -0.066454, },
{-0.030048, 0.050923, 0.145923, -0.005052, },
{0.011616, 0.023685, -0.119773, 0.043602, },
{-0.002890, -0.035404, 0.020765, -0.150620, },
{-0.029063, 0.016730, -0.064855, -0.045359, },
{0.055097, -0.066579, 0.051557, 0.053525, },
{0.006359, -0.107694, -0.002992, 0.032330, },
{0.106123, 0.008957, -0.009788, 0.014698, },
{0.072773, -0.011659, -0.064650, -0.092050, },
{0.032098, 0.172971, 0.143231, 0.061508, },
{-0.114966, -0.195921, -0.016514, -0.105837, },
{0.039920, -0.016063, -0.133782, -0.191704, },
{-0.009570, 0.022162, -0.013704, -0.102593, },
{0.023228, -0.198187, 0.116799, 0.086324, },
{0.108337, 0.173558, -0.084081, 0.030723, },
{0.034100, 0.021262, 0.048173, 0.036213, },
};

const float b0[HIDDEN_LAYER_SIZE] = {-0.130478, 0.062529, -0.077097, 0.079110, -0.074602, 0.297730, -0.316716, 0.140165, -0.009196, -0.064251, -0.149639, -0.432401, 0.192177, -0.203588, 0.423364, -0.191979, -0.063699, 0.002273, 0.090000, 0.248241, -0.286673, 0.344511, -0.293722, 0.013962, 0.067055, -0.375562, -0.344014, 0.083074, -0.047483, 0.434306, -0.443569, 0.348225, 0.454346, -0.260826, -0.342823, 0.036744, -0.146969, 0.274694, 0.180674, -0.245308, 0.293209, 0.217257, 0.399018, -0.070843, -0.083645, 0.060126, 0.605374, -0.512014, 0.299786, 0.366027, 0.366875, 0.041941, -0.364476, 0.049843, 0.357882, 0.414322, -0.327991, -0.245412, 0.391030, 0.368307, -0.099213, -0.022448, -0.091439, -0.023517, };

const float b_hidden[NUM_HIDDEN_LAYER - 1][HIDDEN_LAYER_SIZE] = {
{0.241621, -0.393150, 0.221860, -0.194573, -0.380125, -0.132950, 0.196464, 0.038399, 0.010294, 0.053108, 0.007964, 0.494764, -0.116954, -0.210147, -0.140628, 0.533489, 0.004965, -0.040800, -0.193808, 0.426172, -0.223913, 0.004072, 0.270349, -0.197056, -0.136927, -0.031006, 0.157785, 0.268082, 0.372865, 0.120300, 0.047008, 0.132507, 0.088178, 0.061590, 0.060314, -0.114219, -0.071053, 0.052970, 0.028246, -0.127738, 0.158157, -0.014319, -0.174365, -0.422816, -0.192670, -0.357411, -0.168992, 0.041751, -0.194455, 0.081851, 0.032115, 0.231499, 0.214760, 0.038883, -0.057701, 0.045107, 0.132804, -0.474807, 0.414573, -0.004193, 0.084584, 0.015746, 0.004373, -0.001052, },
};

const float b1[AC_SPACE_SIZE] = {-0.287816, -0.211619, -0.193323, -0.264488, };

const float ob_mean[OB_SPACE_SIZE] = {-0.001644, 0.003442, -0.010876, 0.004516, 0.005309, 0.002555, 0.020371, -0.024202, 0.071779, 0.035042, -0.047865, 0.166492, 0.014172, };

const float ob_std[OB_SPACE_SIZE] = {0.114865, 0.120020, 0.111846, 0.564930, 0.600179, 0.100000, 0.507065, 0.511112, 0.494721, 0.369143, 0.372903, 0.401858, 0.331257, };

#endif
