#ifndef __AP_MOTORS_POLICY_DEF_H__
#define __AP_MOTORS_POLICY_DEF_H__

const int STATE_SIZE = 9;
const int OB_SPACE_SIZE = 11;
const int AC_SPACE_SIZE = 4;
const int NUM_HIDDEN_LAYER = 2;
const int HIDDEN_LAYER_SIZE = 64;
const float FINAL_BIAS = 3.500000;

const float W0[OB_SPACE_SIZE][HIDDEN_LAYER_SIZE] = {
{-0.304604, 0.619896, -0.166475, -0.396459, 0.166529, 0.628116, 0.512011, -0.678597, -0.588030, -0.122122, -0.298242, 0.727427, 0.767263, -0.399003, 0.114993, -0.914047, -0.302516, -0.101652, 0.064348, -0.158441, 0.239048, 1.439751, 0.390833, 0.280028, -0.550108, 0.056409, 0.204900, -0.277246, 0.789500, -0.381728, 0.620121, -0.193346, -0.180915, -0.545410, 0.857242, -0.275327, -0.057446, 0.140304, -0.324522, 0.492536, -0.805641, -0.563888, -0.155878, -0.898121, 0.678686, 0.147250, -0.328143, 0.350257, 0.509595, 0.921940, -0.689371, -0.596481, 0.186005, 0.110070, 0.776845, 0.390348, 0.335471, -0.069619, -0.342566, 0.706559, 0.278305, -0.814504, -1.167398, 0.206706, },
{-0.350290, 0.041497, -0.168024, 0.108541, 0.591097, -0.164819, -0.220532, 0.218824, -0.737291, -0.036097, -0.492921, 0.094423, 0.217125, -0.030743, 0.038416, 0.143136, 0.302232, 0.179614, -0.169023, 0.561902, 0.425635, -0.324475, 0.232037, 0.653333, -0.079253, 0.329339, 0.812432, 0.034148, 0.325265, 0.144563, -0.480481, 0.308293, -0.185735, -0.690209, 0.294238, 0.088491, -0.088573, 0.187034, 0.692308, -0.032084, -0.455944, -0.107169, 0.523895, 0.327747, -0.464645, 0.248355, -0.163043, 0.058086, -0.113416, -0.205528, -0.451598, -0.277776, -0.476762, 0.279497, 0.119132, 0.543542, -0.361508, 0.380989, 0.364244, 0.099583, -0.745152, 0.294882, -0.214824, 0.520019, },
{-0.298610, 0.316621, 0.049477, 1.079251, 0.264152, 0.524857, 0.279382, -0.874482, -0.187431, -0.712950, -0.226775, 0.038083, 0.894784, 0.162496, 0.842315, -0.455557, 0.291937, -0.316877, 0.102263, -1.124046, -0.883106, 0.214098, -0.949113, 0.061616, -0.581904, 0.771647, 0.123408, -0.601340, -0.365275, -0.125790, 0.092666, -0.530735, -0.863207, -0.028212, 0.017916, 0.853292, 0.710326, -0.261874, 0.584733, -0.210662, -0.363919, -0.175845, 0.304560, 0.187936, 0.089072, -0.608724, -0.539379, 0.728818, 0.712151, 0.705657, 0.419664, 0.008565, 0.650562, -0.077155, 0.247366, -0.612241, -0.486353, 0.688474, 0.267980, -0.824351, -0.532053, 0.066372, -0.123040, 0.918463, },
{0.115431, 0.518271, 0.546765, -0.423460, 0.090598, 0.406429, 0.284913, -0.361217, 0.081603, 0.040936, -0.479301, 0.003872, 0.191070, 0.178133, 0.046066, -0.058684, 0.008101, 0.176465, -0.914112, -0.321310, 0.470113, -0.178998, 0.375620, 0.391871, 0.323145, -0.160681, 0.308549, 0.073009, 0.371064, -0.582739, -0.466942, -0.706524, -0.513287, 0.010457, -0.567895, 0.360956, 0.045354, -0.108585, 0.288410, 0.310883, -0.181534, -0.315013, -0.165939, 0.329940, -0.497495, -0.482308, -0.446554, 0.325970, 0.203704, -0.082341, -0.283857, 0.374058, 0.185839, -0.134113, 0.020046, 0.266734, 0.495295, -0.162327, 0.389617, -0.154255, -0.331982, -0.051109, 0.192168, 0.152874, },
{0.101640, 0.415907, -0.109803, -0.260409, 0.097921, -0.499073, -0.241947, -0.045344, 0.121273, -0.211964, -0.056775, 1.209593, -0.176021, -0.104869, 0.872911, -0.745649, 0.239572, -0.322123, 0.413621, 0.427849, 0.389019, 0.872131, -0.144610, -0.702994, -0.086661, -0.526473, -0.001875, -0.113939, -0.371570, -0.086787, 0.355274, -0.193922, -0.791465, 0.318380, 0.665211, 0.610826, -0.195167, -0.106746, -0.658244, 0.213398, -0.511122, -0.507845, 0.128286, 0.054864, 0.254329, 0.468882, 0.209297, -0.032230, 1.267829, 0.396362, -0.282761, 0.126701, -0.220267, -0.267130, 0.048255, 0.471181, -0.026631, 0.513206, 0.629593, 0.818323, -0.102481, -0.199721, 0.025206, 0.111557, },
{0.182787, 0.393096, 0.558184, -0.221088, -0.241853, 0.352913, -0.916021, 0.139296, -0.575423, -0.017484, -0.654064, 0.266270, -0.414876, -1.269529, -0.089193, 0.452608, -0.194395, -0.682840, 0.279795, 0.208008, -0.822434, -0.141449, 0.535212, 0.569139, 0.884627, 0.096545, -0.279448, -0.122486, -0.122173, 0.248851, 0.453333, 0.474972, 0.305328, -0.323557, -0.718837, 0.286035, 0.794694, -0.253955, -0.180655, -0.308670, -0.277534, -0.081894, 0.484292, -0.192676, 0.463515, -0.462600, 0.571264, -0.436082, 0.258092, 0.480764, 0.945619, -0.496704, 0.116707, 0.635253, -0.763795, -1.025614, 0.003755, -0.099972, -0.050937, -0.623572, -0.459997, -0.007007, 0.353030, -0.105317, },
{0.392347, 0.843732, 0.408010, -0.649646, -0.353942, 1.341057, -0.019195, 0.107121, -0.828264, -0.183290, -0.581223, -0.144588, 0.407096, -0.100737, -0.120135, -0.453018, 0.321282, -0.122743, -0.009385, 0.113644, 0.460034, 0.908373, 0.832871, 0.044658, -0.847307, 0.374212, 0.278707, -0.746589, 0.311000, 0.154328, 0.951526, 0.037084, 0.333394, -0.890780, 0.674587, -0.262998, -0.395659, 0.270783, -0.793120, 0.418019, -0.672348, -1.149832, -0.522364, 0.511805, 0.161927, 0.215191, 0.048981, 0.279203, 0.032117, 0.006670, -0.028084, -0.248660, -0.174095, -0.169758, -0.105324, 0.068838, 0.853263, 0.597505, -0.291949, 0.639614, 0.608869, 0.155210, -1.570835, -0.765706, },
{0.569247, 0.583274, 0.350477, -0.006871, -0.081299, -0.569120, -0.584925, 0.404330, 0.379898, -0.603234, -0.978751, -0.118232, 1.038705, 0.240138, -0.649815, -0.129244, 0.398680, -0.531717, 0.470551, 0.466147, -0.210691, -0.278852, -0.164116, 0.515079, -0.150570, 0.333516, 1.080520, 1.015377, 0.207951, 1.289817, -0.537126, 0.591715, 0.546866, 0.726160, 0.080158, -0.130016, -0.229614, 1.089300, -0.002398, 0.078161, -0.464003, -1.128121, 0.631515, 0.072207, -0.520745, 0.262329, 0.311403, 0.458090, -0.006976, 0.246360, 0.022857, 0.575575, -0.170002, 0.956172, -0.240807, -0.087694, 0.746073, 0.334679, -0.955199, 0.095463, -0.329394, -0.733956, -0.782823, 0.019228, },
{-0.063233, 1.089966, 0.802027, 0.472939, -0.982512, 0.297383, -0.125521, 0.701136, -0.728566, 0.956396, 0.126113, -0.320478, 0.503316, 0.066026, -0.241188, -0.685546, -1.087856, -0.302070, 0.268727, -0.045661, -0.392363, 0.249274, -0.449555, 0.170530, -0.952082, -0.883020, 0.523865, -0.948318, 0.639413, -0.248073, -0.047960, -0.460087, -0.245245, -0.982489, -0.468368, 1.040124, 0.432650, -1.069185, 0.629047, -1.034153, 0.918511, -0.488013, 1.228043, 0.478252, -0.320755, -0.768370, 0.387111, -0.594850, -0.418129, -0.301761, 0.272305, -0.782023, 0.227281, 0.076421, 1.006482, 0.106991, 1.184162, 0.430010, 1.087547, -0.932714, 0.557736, -0.429337, -0.607431, 1.046349, },
{0.044918, 0.512555, -0.192734, 0.087616, -0.326157, 0.008856, 0.046600, 0.415862, -0.287556, -0.177651, 0.152625, 0.262697, -0.272099, 0.074766, -0.421467, -0.125591, -0.258252, 0.569668, 0.607668, 0.158149, -0.122578, -0.397090, -0.070350, -0.199355, -0.072469, -0.385330, 0.576017, 0.006530, 0.183075, -0.064081, -0.076409, 0.201607, 0.271371, -0.219508, 0.004378, -0.014354, -0.280878, -0.145183, 0.312901, 0.084969, 0.259787, -0.367711, 0.017977, -0.023306, 0.216102, 0.778442, -0.307296, -0.264195, 0.153181, 0.327092, -0.159851, -0.571039, -0.310954, -0.334943, 0.019948, 0.108489, -0.134519, -0.009483, -0.039761, 0.105214, -0.238825, 0.133207, -0.081629, -0.053379, },
{0.350602, -0.091141, -0.232705, 0.255726, 0.109994, -0.161923, 0.620261, -0.061639, 0.125470, 0.524000, 0.006802, 0.142060, 0.277317, 0.749154, -0.056884, 0.220043, 0.295159, 0.597074, -0.343942, -0.088756, 0.554125, -0.024246, -0.361457, -0.347213, -0.242749, 0.115469, 0.339476, 0.086778, 0.153255, -0.181035, -0.092795, 0.049573, 0.045121, 0.076395, 0.423535, -0.277863, -0.598818, 0.189765, 0.079218, 0.359578, 0.052978, -0.257521, -0.039656, 0.363219, -0.548433, 0.201220, -0.264981, 0.415520, -0.126059, 0.100804, -0.138501, 0.231840, -0.424078, -0.432429, 0.562990, 0.579851, -0.309136, 0.183243, 0.097909, 0.038754, 0.455150, 0.421179, -0.268408, -0.122139, },
};

const float W_hidden[NUM_HIDDEN_LAYER - 1][HIDDEN_LAYER_SIZE][HIDDEN_LAYER_SIZE] = {
{
{-0.172540, 0.001917, -0.111330, -0.153905, 0.238507, -0.213696, 0.001015, 0.039088, -0.119660, 0.330798, 0.301687, -0.031364, 0.196679, 0.116595, 0.182471, -0.347107, 0.162539, -0.012637, -0.078885, -0.010436, -0.218758, 0.158848, -0.213583, -0.060791, 0.155919, -0.629823, -0.105081, -0.157933, 0.069276, 0.079488, 0.059280, 0.096367, -0.053017, -0.071364, 0.400153, -0.284203, 0.014100, -0.242471, 0.095981, -0.021831, -0.123241, -0.006402, 0.265053, -0.097798, -0.018380, -0.123183, 0.387186, -0.044396, -0.282934, 0.336380, 0.075641, -0.044347, -0.134522, 0.214056, 0.104124, -0.185302, 0.316510, -0.250785, 0.107161, 0.008606, 0.197636, -0.032021, -0.246040, 0.061769, },
{0.021352, -0.344408, -0.341239, -0.366142, 0.067308, 0.243263, -0.093160, -0.306897, 0.319368, 0.225947, 0.261497, -0.135198, 0.221426, 0.135965, 0.092929, -0.974058, 0.417440, 0.306194, -0.068381, -0.354050, -0.248590, 0.246104, -0.321964, 0.133792, 0.289641, -0.907982, -0.139272, 0.425937, 0.116320, -0.020921, -0.707447, 0.198440, 0.288924, 0.192948, -0.069014, -0.041459, -0.244297, 0.151173, 0.133319, -0.608211, 0.074150, 0.006549, 0.090434, -0.337744, 0.078573, -0.173405, 0.099653, -0.031364, -0.290591, -0.154654, 0.439665, -0.362543, -0.293733, -0.012700, -0.267077, -0.005878, 0.180608, 0.175054, -0.121598, -0.122338, 0.369974, 0.373014, -0.403763, -0.084261, },
{0.206328, -0.187770, -0.143145, -0.621641, 0.286605, 0.357689, 0.012752, 0.124556, 0.001704, 0.389335, 0.166650, -0.210115, -0.032054, 0.085661, 0.519157, -0.384318, 0.194003, -0.089645, -0.003228, 0.095192, -0.196753, 0.363564, -0.545041, 0.100814, 0.133867, -0.547549, 0.083119, 0.345406, -0.134850, -0.116612, -0.267205, 0.251986, 0.122695, -0.132784, -0.187469, -0.031678, 0.001739, -0.082189, -0.004682, -0.146155, -0.122361, 0.105377, 0.251946, -0.634787, 0.067105, 0.138647, 0.192655, -0.251138, -0.206000, -0.263841, 0.141105, -0.061300, -0.016694, 0.539120, -0.131616, 0.110690, 0.476571, 0.302732, -0.280388, -0.392806, 0.596521, 0.431783, -0.271927, -0.076669, },
{-0.030458, 0.349547, 0.080600, -0.495378, 0.838312, 0.245417, -0.131464, -0.237695, 0.348858, -0.016282, 0.604162, -0.235738, -0.252160, -0.200203, 0.276841, -0.355990, -0.039504, -0.120899, 0.171279, -0.314083, -0.302924, 0.045317, -0.564966, -0.311911, -0.104693, 0.145261, 0.123626, 0.147742, -0.998329, -0.245356, -0.592299, -0.033889, -0.060881, -0.128646, -0.258300, 0.396898, 0.517832, 0.057650, 0.349570, -0.298588, 0.137153, -0.394984, -0.054897, 0.014113, 0.047844, 0.031576, -0.091440, -0.156606, -0.006584, -0.083524, 0.242841, 0.073684, -0.454024, 0.313937, 0.368868, 0.277319, -0.094750, 0.131412, -0.161494, 0.278818, 0.350090, 0.185698, -0.223624, 0.017012, },
{-0.195362, -0.070008, 0.466664, 0.489924, -0.010890, -0.341277, -0.307341, 0.200690, -0.101148, -0.365954, -0.154957, -0.022915, -0.070045, 0.152875, -0.169889, 0.166102, -0.040110, -0.200325, -0.158770, 0.416370, 0.449850, -0.111973, 0.394625, -0.088728, -0.131241, 0.937814, 0.345162, -0.202926, -0.386893, 0.518057, 0.354622, -0.212201, -0.192011, -0.143348, -0.002917, 0.046299, 0.280581, -0.352559, -0.068627, 0.473912, -0.070663, 0.071743, 0.122685, -0.002602, -0.139203, -0.251766, -0.156973, -0.096332, 0.276548, 0.057225, -0.057911, -0.074008, 0.392130, -0.191262, 0.033938, 0.383425, -0.037239, 0.021213, 0.082150, 0.459402, -0.300139, -0.334013, 0.374113, 0.059591, },
{0.171197, -0.021579, -0.603433, 0.219440, -0.164916, 0.392825, 0.469357, 0.265618, -0.503061, 0.337993, -0.184459, -0.020609, 0.229881, 0.056480, -0.010396, 0.130362, 0.494071, 0.251923, 0.049006, -0.195207, -0.377302, -0.684770, -0.088957, 0.351094, -0.422394, 0.069273, 0.019222, 0.111281, 0.189814, 0.210772, -0.133191, 0.603643, -0.282446, -0.055224, 0.347473, -0.624651, -0.608889, 0.429459, -0.152838, -0.583028, -0.382987, -0.162495, -0.389038, -0.380145, 0.396825, -0.200566, 0.429269, -0.046608, 0.074939, -0.353977, 0.390908, -0.198341, 0.137745, 0.257884, 0.339834, 0.063412, 0.694207, 0.278294, -0.422928, -0.410218, -0.015965, 0.126500, -0.470538, -0.429291, },
{-0.300915, -0.056687, -0.080659, 0.124224, 0.181033, -0.480201, 0.222912, 0.357354, -0.635323, -0.121143, -0.155869, -0.415006, -0.100000, -0.148431, -0.298709, -0.223115, 0.126812, -0.482373, 0.392725, -0.178795, -0.267123, -0.161860, -0.114326, 0.262628, -0.390386, 0.500721, 0.414569, 0.182889, -0.166880, 0.376337, 0.022344, -0.049013, -0.518046, -0.172097, 0.148781, -0.712246, -0.135927, -0.033060, 0.123311, 0.178357, 0.188034, -0.299390, -0.858499, -0.148054, 0.377476, -0.271885, -0.032627, -0.641922, 0.428690, 0.399804, 0.349960, 0.125582, 0.327923, 0.364720, 0.451306, -0.403729, 0.264304, 0.000959, 0.309132, 0.067300, 0.036405, -0.147670, -0.595705, 0.078507, },
{0.339975, -0.249612, -0.082218, -0.112748, -0.168256, 0.115435, -0.095398, -0.384915, -0.034991, -0.089876, 0.277896, 0.770643, -0.041201, 0.588851, 0.186382, -0.024885, 0.481672, -0.125156, 0.347275, -0.212646, 0.292998, 0.211552, -0.091995, -0.187339, 0.714986, -0.690781, -0.044271, -0.078980, 0.265529, -0.413172, -0.321818, 0.149687, -0.134622, 0.022215, -0.489715, -0.050746, 0.045024, 0.326326, -0.292372, -0.392212, -0.327847, -0.424814, 0.055727, 0.123602, -0.315461, 0.283617, -0.025800, 0.661095, -0.684254, -0.001762, 0.247179, -0.331499, -0.614619, -0.268128, -0.656329, -0.276858, -0.233429, -0.208961, -0.196079, -0.065835, 0.545101, 0.183527, 0.012808, 0.302728, },
{0.132942, -0.226706, 0.242369, -0.072619, 0.229449, -0.408119, 0.059435, 0.172039, 0.083160, 0.172505, -0.082576, -0.127084, 0.267876, -0.289610, 0.200759, -0.025376, -0.159113, -0.317917, 0.218250, -0.441934, -0.159624, 0.417756, -0.081045, 0.050231, 0.065237, -0.496902, 0.488044, -0.180136, -0.044449, 0.435486, 0.466518, -0.361398, -0.066882, -0.098963, 0.029521, 0.152825, 0.274773, -0.349118, -0.285771, 0.349415, 0.203825, -0.081872, 0.062541, 0.017002, -0.294105, -0.172753, -0.340040, -0.261758, -0.179635, 0.151484, 0.102599, 0.451114, 0.453234, 0.000760, 0.193944, -0.037614, 0.137545, -0.187681, 0.281273, -0.174260, 0.235890, 0.118312, -0.131739, -0.289704, },
{0.125760, 0.035052, -0.131510, -0.231766, -0.134056, -0.039057, -0.373549, 0.530054, -0.133481, 0.228578, 0.072508, -0.209505, -0.290795, 0.414864, -0.004423, 0.162840, 0.156700, -0.261706, 0.664718, 0.264861, -0.397609, -0.007383, -0.257511, 0.105575, 0.396033, -0.009588, 0.152833, -0.298711, 0.179915, 0.001889, -0.173116, 0.245613, -0.344109, -0.409116, 0.108402, -0.156718, -0.082122, 0.073950, 0.128075, 0.041646, 0.096386, 0.166794, 0.189563, -0.082964, 0.180228, 0.202001, 0.142211, -0.306897, -0.075798, 0.548895, -0.108841, -0.528683, -0.038476, 0.237847, 0.292653, -0.065231, -0.128660, -0.036079, -0.220448, -0.131180, 0.106107, -0.127766, -0.234557, 0.114708, },
{0.339596, 0.309045, -0.172825, 0.346822, 0.029868, -0.403517, -0.167433, -0.360142, -0.354321, -0.251689, -0.374068, -0.088986, 0.221073, 0.092870, -0.620743, 0.247969, 0.003190, -0.011487, 0.115957, -0.388959, -0.124759, -0.009689, 0.096820, 0.361158, 0.103718, 0.146175, -0.261249, -0.143685, 0.528103, -0.041340, 0.118165, 0.083205, 0.197457, 0.445185, -0.235690, 0.143419, 0.237307, 0.035176, 0.260273, 0.047646, 0.597595, -0.213572, -0.374104, 0.427861, 0.072894, 0.144813, -0.188852, 0.100547, 0.157302, -0.065591, -0.173488, 0.121612, 0.350979, -0.335549, 0.141835, 0.412900, -0.151959, -0.469776, 0.166954, -0.147440, 0.243474, -0.554389, -0.137149, -0.378880, },
{0.116508, 0.190998, 0.200175, 0.243678, 0.510220, -0.133089, -0.947258, 0.066914, 0.211428, -0.509141, 0.105242, -0.132366, 0.454229, 0.044064, -0.440486, -0.640039, -0.432790, 0.297044, -0.512378, -0.052536, -0.485869, -0.411095, 0.275940, 0.174063, 0.435860, -0.157495, 0.115513, 0.728172, -0.089489, 0.179967, -0.512686, -0.237214, -0.281619, -0.348161, -0.031267, -0.135322, 0.304408, -0.011935, 0.283709, 0.136604, 0.081839, -0.055042, -0.464303, -0.130846, 0.177303, -0.309618, 0.075787, -0.327979, 0.312463, 0.003536, 0.255415, -0.039764, -0.016351, -0.470226, 0.104196, -0.283934, -0.047840, 0.494237, -0.059058, 0.358539, 0.003486, -0.292655, 0.082752, 0.594143, },
{-0.468936, -0.378088, 0.222477, -0.178930, 0.219655, 0.201535, 0.276673, 0.189087, 0.460749, 0.351315, 0.284165, -0.102433, -0.025713, -0.747421, -0.179094, 0.081552, 0.345648, 0.387907, 0.218824, 0.032624, -0.014746, -0.009204, -0.225161, 0.102119, -0.104350, 0.334900, 0.322013, 0.067498, -0.582553, 0.651063, -0.301162, -0.217019, -0.430211, -0.249790, -0.419089, -0.241933, -0.284636, 0.059902, -0.584005, -0.474052, -0.138743, -0.337300, 0.475518, -0.128719, 0.223621, -0.275976, 0.368571, -0.160523, -0.234909, 0.129032, 0.025509, -0.518130, -0.855031, -0.182547, 0.074518, 0.106313, -0.170636, 0.652312, 0.460708, 0.168872, -0.023250, 0.203412, -0.045895, 0.321781, },
{-0.128855, -0.104621, 0.330984, -0.317346, -0.104555, -0.369142, 0.294662, -0.124689, -0.207053, 0.477577, 0.291201, -0.039165, 0.054041, -0.397019, -0.344302, -0.672144, 0.428102, -0.013478, 0.325277, -0.099995, -0.287607, 0.518213, 0.062872, -0.446552, -0.160049, -0.057203, 0.555128, -0.353577, -0.536315, 0.563676, 0.072215, -0.196185, -0.505816, -0.700140, -0.373532, -0.137347, -0.065253, 0.042211, -0.318416, 0.598366, 0.072819, -0.292356, 0.095818, 0.077718, 0.342354, -0.005765, 0.182451, -0.651478, -0.298743, 0.354362, 0.282468, 0.404509, -0.327925, 0.135897, 0.135273, -0.015387, -0.172378, -0.486066, 0.723137, -0.004710, 0.420022, -0.025926, -0.151942, 0.182512, },
{-0.323964, 0.370470, 0.022864, 0.921300, -0.804829, -0.064500, 0.026971, 0.150900, 0.159871, -0.577440, -0.316127, -0.264056, 0.138681, -0.018755, -0.388750, 0.241296, -0.603207, 0.142278, -0.084443, 0.442615, 0.197710, -0.630994, 0.788760, 0.172417, 0.241178, 0.755730, -0.089409, -0.306216, 0.064326, 0.227178, 0.495471, -0.303593, 0.139255, -0.006134, -0.037035, -0.012919, 0.223475, -0.329536, 0.240255, 0.458051, 0.221423, -0.179875, -0.250811, 0.466984, -0.250998, -0.183941, 0.482829, 0.080042, 0.484967, 0.072477, -0.565323, 0.043065, 0.357731, -0.106289, 0.277859, 0.193934, -0.188366, 0.044256, 0.421212, 0.541598, -0.641049, -0.854832, 0.424414, 0.530406, },
{0.023317, 0.429946, 0.159983, 0.093094, 0.165469, 0.349981, 0.077492, 0.322199, 0.028771, -0.005616, -0.397405, 0.013792, -0.688181, -0.092370, 0.388791, 0.343180, -0.016629, -0.517141, 0.127361, 0.165342, 0.497105, -0.184742, 0.103916, -0.414561, 0.028301, 0.421745, 0.433281, -0.457423, -0.151109, -0.141919, 0.561693, 0.004900, -0.032450, -0.139163, 0.315726, -0.147445, 0.033566, -0.296926, -0.078165, -0.093876, -0.452994, 0.031587, 0.261121, 0.416239, 0.050359, 0.540049, -0.404893, 0.210171, -0.040930, 0.542970, -0.091150, 0.201174, 0.015568, 0.187676, 0.284987, -0.116114, 0.269807, 0.160413, 0.168413, 0.363207, -0.256201, 0.126154, 0.165575, -0.145543, },
{-0.407320, 0.026114, 0.506240, -0.269697, 0.628822, -0.019796, -0.105063, -0.162826, 0.324677, 0.249989, -0.078741, -0.378912, -0.163179, -0.275491, 0.175403, -0.363020, 0.143383, -0.221712, -0.175319, -0.310297, 0.017866, -0.132627, 0.041542, -0.488726, -0.196712, 0.208484, 0.286858, 0.089871, -0.330485, 0.125899, 0.180735, -0.507774, 0.258667, -0.437219, 0.152845, 0.432877, -0.127312, -0.245815, -0.192641, 0.228690, -0.182735, 0.165522, 0.033025, -0.114651, 0.226983, 0.206568, -0.313927, 0.046067, -0.129688, 0.241080, 0.247603, 0.200613, -0.422648, -0.237846, -0.050109, 0.057392, -0.290783, 0.590043, 0.180944, 0.328928, -0.626901, -0.020530, 0.279933, 0.076968, },
{0.118136, -0.083261, -0.172092, -0.379649, -0.060654, 0.010208, -0.106587, 0.187875, -0.490906, 0.003098, -0.195102, 0.147029, 0.206780, 0.340132, -0.205930, 0.005212, 0.326666, -0.121532, 0.173431, -0.396444, -0.424007, 0.182274, -0.143083, 0.056194, -0.383619, -0.012298, 0.264742, -0.043652, -0.144487, 0.115443, -0.268669, 0.352069, -0.425125, -0.101424, -0.013200, -0.261240, 0.344545, 0.307309, 0.119846, 0.202628, -0.149093, -0.074661, -0.620472, 0.031688, 0.345580, -0.099035, -0.599189, 0.094480, 0.107323, 0.190952, 0.191136, 0.020381, 0.049036, 0.038052, 0.155083, -0.301912, 0.260649, -0.134225, 0.169892, -0.185190, 0.029696, -0.175986, -0.150797, -0.055063, },
{0.584958, -0.087576, -0.107337, -0.646575, 0.502602, -0.196891, -0.297192, -0.355440, 0.230993, -0.221932, 0.571661, 0.555105, 0.620858, 0.024791, 0.050859, -0.433285, -0.119935, 0.269643, -0.222700, -0.592871, -0.143609, 0.239193, -0.420702, -0.137557, 0.127528, -0.548484, -0.540092, 0.518815, -0.087996, -0.326346, -0.405679, 0.196990, 0.425688, 0.143530, -0.140836, 0.275023, 0.243635, 0.371116, 0.673914, -0.363596, 0.178179, -0.311213, -0.029197, -0.014278, -0.445192, -0.110625, -0.320789, 0.105043, -0.239286, -0.183392, 0.472305, -0.146459, -0.251909, -0.386805, -0.599342, -0.078459, -0.087924, 0.114127, -0.253687, 0.133179, 0.642006, 0.327712, -0.184750, 0.331790, },
{0.163824, -0.315094, 0.455198, -0.103909, 0.004968, 0.195324, -0.589000, -0.191226, 0.169765, -0.095263, 0.073155, 0.032120, 0.049115, 0.449715, 0.076799, -0.012186, -0.157732, -0.230140, -0.613824, 0.169926, -0.086137, -0.167533, -0.208742, -0.297171, 0.275401, -0.303530, -0.170533, -0.209994, 0.162321, -0.120268, -0.237427, -0.427576, -0.189065, -0.720534, 0.061199, 0.260704, -0.161591, -0.351280, 0.441045, 0.095379, 0.227858, 0.241676, 0.469627, 0.042067, 0.213145, 0.190821, -0.441552, -0.236406, -0.363843, 0.075777, -0.171891, -0.153804, -0.286358, -0.307717, -0.664004, -0.146121, -0.469362, -0.226948, -0.522329, -0.375375, 0.239227, -0.001853, 0.426690, 0.101932, },
{0.244835, -0.035707, 0.380400, -0.085917, 0.253849, -0.274804, -0.419340, 0.208915, -0.111969, 0.298093, 0.435465, -0.268148, -0.171746, -0.324521, -0.238808, -0.122636, 0.558371, -0.609935, -0.524013, -0.465079, -0.594150, 0.011039, -0.261019, 0.476237, -0.308236, 0.024531, 0.749446, 0.509632, 0.100794, 0.144103, -0.267576, -0.307813, -0.529039, -0.692358, -0.115398, 0.191460, -0.357090, -0.213135, -0.235187, 0.278978, -0.257702, 0.014333, -0.131534, -0.358995, 0.711615, 0.129175, -0.406204, -0.999374, 0.054715, 0.217031, 0.587353, 0.080890, -0.121069, 0.358099, -0.159264, -0.446469, -0.212346, 0.271931, 0.258476, -0.406169, -0.162286, -0.024834, 0.274851, 0.034273, },
{0.090514, 0.376870, -0.253158, -0.080670, 0.151182, -0.417104, -0.302045, 0.523891, 0.138055, 0.175524, 0.183217, -0.353185, 0.205364, -0.134295, -0.290372, -0.260631, 0.216545, 0.368505, -0.452567, -0.006957, -0.103621, -0.502210, -0.181951, 0.625287, 0.178641, 0.291377, 0.187778, 0.413609, 0.560776, -0.444635, -0.388971, -0.575429, -0.066194, 0.004783, 0.275300, 0.069753, -0.590083, -0.166618, 0.095067, -0.369265, 0.282488, -0.494598, 0.358602, -0.389839, -0.124716, -0.229351, 0.153104, -0.243544, 0.209875, -0.058148, -0.187981, -0.457611, 0.216577, -0.294393, 0.000002, 0.276960, -0.130101, 0.571541, -0.110451, -0.112455, 0.024530, -0.168013, -0.113641, 0.589183, },
{0.050223, -0.732825, -0.294048, 0.123394, -0.358282, -0.246216, 0.016102, 0.029476, -0.306701, -0.288885, -0.223937, -0.149382, 0.052950, 0.397844, 0.117115, 0.253559, 0.018319, -0.157137, -0.216922, 0.370451, 0.223465, -0.037546, 0.645771, 0.700673, 0.220754, 0.045232, 0.048715, -0.015128, 0.614606, -0.072980, 0.331309, 0.163133, -0.238980, 0.025458, 0.258011, -0.521075, -0.549871, -0.076852, -0.328844, -0.353612, -0.650109, 0.320668, 0.243575, 0.205469, 0.044113, 0.351831, 0.177581, 0.149540, -0.178229, -0.089467, -0.134243, 0.149628, 0.341149, -0.097047, -0.545009, -0.195016, 0.351927, -0.042194, -0.188727, -0.244391, -0.511696, 0.317138, -0.023775, -0.354256, },
{-0.192699, -0.370955, 0.169831, -0.130036, 0.053464, 0.325922, 0.417052, -0.182908, 0.058147, 0.282396, 0.147542, 0.024752, -0.129328, -0.081238, -0.011262, 0.222082, 0.418360, -0.174768, -0.109586, -0.009917, 0.237839, 0.228528, 0.061973, 0.199656, -0.280560, -0.107339, 0.043098, 0.048562, -0.347139, -0.087848, -0.144351, -0.043393, 0.172160, -0.170876, -0.161600, 0.286350, 0.034286, 0.030953, -0.533109, -0.338971, 0.027431, 0.376644, 0.468023, -0.139511, 0.079176, 0.091835, 0.001016, -0.121138, -0.187880, -0.200025, 0.247727, 0.020719, -0.386718, 0.378780, -0.249653, -0.103106, 0.199080, 0.098016, -0.090184, -0.012181, -0.124322, 0.774416, 0.175899, -0.253613, },
{-0.109823, -0.151891, 0.097329, -0.003306, 0.065551, -0.109576, -0.112659, -0.037374, -0.118223, -0.343118, -0.564158, -0.072758, 0.115552, 0.006209, 0.466250, -0.063963, -0.122528, -0.618164, -0.251839, -0.001979, 0.268433, 0.089430, 0.277451, 0.035407, 0.416365, -0.327756, 0.019348, -0.031066, 0.148327, 0.011008, 0.533477, 0.417983, -0.086215, -0.225006, 0.390093, 0.195951, 0.299257, -0.342057, 0.262404, 0.321342, -0.099783, 0.632670, 0.284509, -0.416682, -0.040570, -0.154284, -0.189741, -0.022700, -0.126432, 0.127108, 0.172262, 0.175164, 0.581053, 0.058021, -0.095255, -0.096305, 0.176156, -0.503693, -0.170515, 0.189700, 0.089460, 0.472741, -0.045825, -0.016525, },
{-0.355674, 0.289603, 0.355179, -0.050387, 0.753772, -0.056191, -0.220893, -0.093438, 0.364054, 0.064801, 0.273031, -0.191111, -0.181813, -0.503431, 0.395048, 0.014044, 0.099121, -0.363845, -0.224371, -0.513649, 0.027642, -0.329947, -0.064070, 0.011200, -0.875630, -0.078018, 0.165525, 0.340747, -0.590462, 0.007625, -0.123121, 0.057334, 0.230811, -0.457136, 0.155141, 0.394146, 0.347851, -0.100525, -0.230363, -0.207873, -0.587615, 0.233195, 0.205108, -0.316208, 0.242595, 0.070673, -0.347729, -0.173942, 0.159697, 0.085695, 0.370829, 0.007103, -0.709369, 0.370062, -0.155687, -0.002074, 0.066313, 0.453389, 0.131613, -0.280651, -0.304140, 0.196135, -0.012205, 0.070026, },
{-0.487853, -1.219211, 0.680228, 0.034682, 0.106577, 0.125339, 0.300153, -0.266330, 0.225169, -0.025542, 0.249042, 0.630106, 0.218821, -0.133893, -0.122489, -0.598372, 0.454294, 0.345186, 0.041185, -0.181082, 0.013578, 0.141878, 0.151506, -0.090850, 0.001669, -0.219649, 0.061527, -0.188185, -0.312152, 0.350741, -0.549178, 0.221168, -0.298213, -0.439662, -0.788906, -0.275745, 0.168066, 0.943485, -0.291748, -0.044188, -0.444618, -0.247613, -0.008858, -0.132374, 0.260950, 0.010160, 0.222626, 0.196597, -0.914763, 0.299470, 0.227406, -0.601319, -0.992273, -0.289014, -0.330692, -0.467223, 0.010736, -0.267404, 0.277884, 0.523120, 0.224885, 0.396949, 0.169520, 0.458069, },
{-0.626340, -0.201535, 0.551230, 0.487040, -0.061398, -0.445163, -0.065625, 0.031984, 0.094574, -0.220681, -0.092469, 0.168415, 0.102961, -0.159224, 0.426573, -0.224885, -0.393711, -0.404020, -0.063826, 0.248549, 0.544560, 0.247759, 0.393730, -0.207489, 0.089219, 0.129460, 0.063713, 0.042899, 0.015664, 0.296231, 0.248056, -0.273091, -0.082634, 0.060906, -0.264459, -0.026869, 0.221518, -0.429811, -0.474889, 0.896536, -0.179886, 0.514665, 0.259070, -0.127420, -0.156543, 0.146595, -0.257525, 0.230527, -0.212272, 0.247591, 0.338485, 0.402807, 0.357745, -0.556529, -0.040448, 0.040953, -0.032098, -0.302272, 0.342578, 0.577318, 0.006834, -0.092605, -0.098947, -0.046921, },
{-0.307694, -0.441317, -0.105024, -0.080448, -0.566328, 0.045053, 0.317900, 0.018448, -0.312387, -0.174557, -0.146796, 0.466025, -0.060605, -0.023041, -0.169134, 0.390501, 0.093171, 0.441589, 0.175938, 0.295329, -0.172023, -0.249149, 0.094388, 0.092810, 0.119896, -0.067080, -0.083383, -0.249254, 0.578497, 0.182781, -0.091746, 0.149634, -0.253080, -0.423120, -0.239587, -0.773082, -0.140643, 0.428157, -0.297569, -0.141939, -0.157014, -0.064156, 0.234902, 0.080729, 0.303986, 0.324350, 0.143637, 0.412587, 0.075580, 0.072707, -0.083991, -0.304280, -0.126110, -0.163190, -0.013513, -0.086859, -0.028630, -0.188850, -0.078072, 0.324837, 0.048303, -0.170730, -0.161039, 0.011311, },
{-0.393124, 0.078540, 0.319047, -0.103929, -0.019527, 0.134209, 0.020633, -0.299494, 0.993024, 0.177111, 0.489548, 0.364185, -0.001087, -0.130908, 0.081465, -0.023811, -0.612359, 0.172551, 0.108852, -0.008252, 0.218597, 0.120808, -0.228194, -0.414862, 0.031443, -0.152643, -0.110560, 0.076024, -0.086476, 0.095986, -0.060432, 0.068678, 0.382904, 0.141477, -0.114650, 0.417233, -0.157378, -0.016113, -0.199121, -0.362233, -0.439959, 0.022330, 0.798807, 0.168083, -0.217117, 0.643756, -0.085789, 0.494444, -0.466507, 0.140043, 0.349379, 0.066249, -0.423230, -0.175691, -0.328626, 0.259662, -0.097261, -0.049814, 0.064880, -0.237845, 0.305071, 0.297164, 0.419801, -0.056133, },
{0.375348, 0.411062, -0.608824, 0.251744, -0.057930, 0.042323, -0.190264, 0.334315, 0.370950, -0.099986, -0.189436, -0.112021, 0.233911, 0.420701, -0.384527, -0.216541, -0.161467, 0.349358, -0.189775, -0.042888, -0.019859, -0.708079, 0.227818, 0.391480, 0.025366, 0.223782, -0.159340, -0.111666, 0.775436, -0.040900, 0.177966, -0.255229, 0.397869, 0.170684, 0.410545, -0.006537, -0.223731, 0.040833, 0.557216, -0.163858, -0.351448, -0.307944, -0.327420, 0.139721, -0.250762, -0.165799, -0.029694, -0.030731, 0.287328, 0.090605, -0.339469, -0.245755, 0.244098, -0.486921, 0.045876, 0.056780, 0.321660, 0.179623, -0.367260, 0.052669, -0.182062, -0.353707, 0.019299, 0.215539, },
{0.153736, 0.220811, 0.036190, -0.032551, -0.123577, -0.055927, -0.516947, 0.076771, 0.371855, -0.087332, -0.015189, 0.096553, 0.040766, 0.259136, -0.075787, 0.053891, -0.101182, 0.003313, -0.356506, 0.322252, 0.177493, -0.317534, 0.207121, -0.345911, -0.059835, 0.024466, -0.357392, -0.433230, -0.089161, -0.065325, 0.156251, -0.222594, 0.102493, -0.041106, 0.049118, 0.370029, -0.094570, -0.153959, 0.155035, -0.296048, -0.378952, 0.011349, 0.089753, 0.422134, -0.035204, 0.452462, -0.280174, 0.205593, 0.013593, 0.134191, -0.158752, 0.066732, -0.151096, -0.334906, -0.211364, -0.250635, -0.111408, -0.049996, -0.270304, 0.145549, -0.076480, 0.017344, 0.281455, 0.076417, },
{0.016392, -0.311578, 0.168934, -0.324476, 0.453604, 0.168768, 0.165094, 0.246628, 0.288380, 0.098614, 0.276069, 0.496358, -0.103621, 0.327877, 0.236366, -0.051788, -0.076064, -0.221549, 0.175353, -0.404529, 0.145347, 0.250153, -0.455062, -0.211522, 0.370529, -0.426773, 0.180258, -0.213996, 0.073896, -0.326781, 0.430928, 0.164915, -0.328319, 0.341541, 0.130917, 0.174571, -0.256311, 0.039749, 0.264954, 0.059724, -0.554954, 0.145649, 0.313917, -0.082102, 0.139205, 0.487571, -0.324555, 0.142723, -0.440310, 0.243279, 0.519391, -0.074325, -0.287279, -0.161589, -0.058292, -0.392321, 0.024385, -0.209698, -0.404548, -0.050017, 0.215181, 0.336172, 0.098074, -0.233092, },
{0.043128, -0.215547, 0.127598, -0.079140, 0.165554, -0.437601, -0.053215, 0.002911, -0.028519, 0.315894, 0.258968, -0.251770, 0.368993, -0.037446, 0.245786, -0.709241, -0.141267, -0.112858, 0.240795, -0.514892, 0.046549, 0.420655, -0.214747, 0.012682, 0.157875, -0.368831, 0.092930, 0.250716, -0.224779, 0.444452, 0.260487, -0.391518, -0.041440, -0.229990, 0.109869, 0.121152, 0.029714, -0.365867, 0.058024, 0.658688, -0.118758, 0.217875, 0.078966, -0.041896, -0.102464, 0.051131, -0.005675, -0.540496, -0.427639, 0.036926, 0.417402, 0.542060, 0.354541, -0.071200, 0.051159, 0.017455, 0.065989, -0.481538, 0.303577, -0.181875, 0.485311, 0.091809, -0.002992, 0.194830, },
{0.009580, -0.024101, 0.021779, 0.227975, 0.161358, -0.119306, 0.015878, 0.178470, -0.154423, 0.077654, 0.175456, 0.157608, 0.262467, -0.091785, -0.426472, 0.298353, 0.182195, 0.106367, 0.026171, -0.003401, 0.030806, -0.311368, 0.095853, 0.323380, -0.354121, 0.381808, 0.143865, -0.220861, 0.205684, 0.025772, 0.086272, -0.323796, -0.194548, -0.158632, -0.275739, -0.113316, -0.075196, -0.134324, 0.305705, 0.268745, -0.238172, -0.469552, -0.289524, 0.562834, 0.082753, 0.095025, -0.033962, -0.108882, -0.093915, 0.184936, 0.004476, 0.130259, -0.291947, -0.564883, 0.387099, 0.205169, -0.227088, -0.027299, 0.065235, 0.401131, -0.313544, -0.349075, 0.338710, 0.466184, },
{0.038513, -0.273628, -0.029407, -0.195078, -0.258234, 0.347403, -0.004626, -0.157954, 0.051886, 0.066572, 0.426029, -0.424255, -0.025884, -0.089613, 0.115819, -0.203006, 0.329404, -0.048169, 0.161312, 0.046825, -0.118107, 0.224311, -0.307644, -0.004180, -0.068287, -0.132573, -0.173221, 0.493024, -0.359388, -0.024717, -0.331491, 0.142925, 0.175373, -0.210893, -0.203763, -0.084473, 0.191202, 0.174904, 0.022721, -0.065809, 0.367231, 0.179173, -0.037001, -0.050745, -0.088392, -0.785351, 0.441686, -0.518248, -0.199679, -0.270438, -0.117129, -0.202294, -0.039834, 0.297725, -0.045482, 0.516984, -0.069320, 0.193216, -0.317508, -0.186700, 0.336594, 0.048522, -0.314001, 0.110996, },
{0.135658, 0.150487, -0.351335, -0.191133, -0.124892, 0.398936, 0.313895, -0.334443, 0.243235, -0.066450, 0.225114, 0.032203, -0.029044, -0.253156, 0.151611, 0.344947, -0.180541, -0.051825, 0.074073, 0.577216, 0.194488, -0.258396, -0.116021, 0.091791, -0.159436, 0.455015, -0.224592, -0.160472, -0.000955, -0.111624, 0.199813, 0.089296, 0.318487, 0.558016, -0.026805, 0.346726, -0.023500, 0.032088, -0.238447, -0.383163, 0.185900, 0.223781, 0.487764, 0.059819, -0.172281, -0.024478, 0.270451, 0.223928, 0.104213, -0.363082, -0.662908, -0.078254, 0.292854, 0.215277, 0.199485, 0.466610, -0.027295, 0.298655, -0.097545, 0.133703, -0.202105, 0.158659, 0.031303, -0.127933, },
{-0.371141, -0.266801, 0.985874, -0.037982, 0.529309, -0.007015, 0.135681, -0.116791, 0.361561, 0.151039, 0.408141, -0.094843, -0.020215, -0.472591, 0.259130, -0.056691, -0.064446, -0.246291, -0.516575, -0.042998, 0.324267, 0.058644, 0.105635, -0.010965, 0.026720, 0.133062, 0.071698, 0.170403, -0.111633, 0.399524, 0.185401, -0.281788, -0.111668, -0.339563, 0.065612, 0.014981, -0.036448, -0.260928, -0.425250, 0.158773, -0.398092, 0.344382, 0.748820, -0.488289, 0.345967, 0.032680, -0.533030, -0.148612, -0.386169, 0.020368, 0.928035, 0.170231, -0.316009, -0.075290, -0.269064, -0.118777, 0.026458, 0.436858, 0.022105, 0.234920, -0.020117, 0.258718, 0.524914, -0.121762, },
{-0.276640, -0.194654, 0.055819, 0.447384, -0.334688, 0.497631, 0.451331, -0.519422, -0.239849, -0.251723, -0.314575, 0.859756, -0.333594, 0.002798, -0.368447, 0.443257, 0.144667, 0.034508, 0.491749, 0.511188, 0.575021, 0.318958, 0.477417, -0.498608, -0.132647, 0.836516, -0.139154, -0.725877, -0.196652, 0.394625, -0.076102, 0.384861, -0.076624, 0.050626, -0.427667, -0.116239, 0.419991, 0.342701, -0.458811, -0.413452, 0.193970, -0.267963, -0.117313, 0.531636, -0.061608, 0.262012, -0.005935, 0.518076, -0.177920, -0.070325, -0.302016, -0.235388, -0.151436, -0.021911, 0.212141, 0.117118, -0.483386, -0.528087, 0.103372, 0.725346, -0.079377, -0.197392, 0.016311, -0.325405, },
{-0.038429, 0.085765, 0.236363, 0.476492, -0.172979, -0.229059, -0.126921, 0.222529, 0.047130, -0.201504, -0.102797, 0.092996, 0.343790, -0.180879, -0.100795, -0.125921, -0.078561, -0.072994, -0.145061, -0.377619, -0.017739, -0.198888, 0.524773, -0.016946, 0.419127, 0.328743, 0.162687, 0.088728, 0.361754, -0.049062, 0.206976, -0.067293, -0.252912, -0.238259, 0.091506, -0.429224, 0.031197, 0.001022, -0.323301, 0.599956, -0.537953, 0.205322, -0.657482, -0.249998, 0.208299, -0.392984, 0.043188, 0.089453, -0.016099, 0.138202, 0.409608, 0.094326, 0.206615, -0.247258, 0.095972, -0.371480, 0.292995, -0.127162, 0.204876, 0.196037, -0.213839, -0.105198, 0.150041, 0.054740, },
{0.278435, 0.127850, -0.437454, -0.223995, -0.514273, 0.403738, 0.349227, -0.130670, -0.558727, -0.110579, -0.429982, 0.337512, 0.018736, 0.462708, -0.324609, 0.293653, 0.250211, 0.014284, 0.874809, 0.045106, 0.209965, 0.469214, -0.114645, 0.027211, 0.189676, -0.196298, -0.267981, -0.905171, 0.340967, -0.214277, 0.116595, 0.359652, 0.180614, 0.600054, -0.045218, -0.006423, -0.013619, 0.320921, 0.264272, 0.102656, 0.524102, 0.136075, -0.318118, 0.789788, -0.676691, 0.233452, 0.092062, 0.196979, 0.355630, -0.068097, -0.291008, 0.264357, 0.714659, 0.229341, 0.522840, 0.104711, -0.521561, -0.798060, -0.087338, 0.001073, 0.437252, -0.154850, -0.677778, -0.259155, },
{0.383276, 0.660198, -0.095022, 0.316224, -0.431646, 0.267050, 0.111277, 0.211419, -0.230075, -0.040555, -0.062095, -0.029663, -0.555508, -0.255962, -0.074078, 0.669751, -0.430979, -0.422541, 0.015617, 0.196745, -0.023297, -0.131859, -0.064369, -0.275916, 0.006425, 0.679631, 0.171676, -0.564015, -0.032282, -0.069588, 0.595396, -0.186680, 0.230357, 0.188751, 0.299440, 0.384046, 0.085107, -0.202429, -0.042225, 0.246980, 0.029858, 0.303311, 0.121860, 0.211913, -0.599378, 0.434275, -0.295678, 0.424517, 0.300224, 0.190845, -0.377210, 0.174755, 0.572718, 0.164029, 0.548384, 0.030584, -0.110129, 0.019960, 0.041387, -0.116251, -0.418372, -0.262300, 0.112460, -0.419066, },
{-0.508756, -0.121034, 0.052766, 0.202981, -0.385742, 0.250412, 0.134501, -0.097205, 0.279587, -0.409639, -0.453700, 0.406038, -0.037145, 0.283886, -0.149598, 0.351581, -0.073132, 0.191430, 0.442695, 0.725206, 0.483470, -0.101248, 0.400953, -0.256904, 0.397041, 0.158087, -0.308845, -0.249305, -0.041781, 0.188185, -0.400008, -0.168704, 0.133164, -0.051632, -0.709032, -0.039226, 0.119123, 0.367226, -0.316336, -0.108814, 0.239979, -0.279849, 0.309356, 0.484457, -0.240723, 0.243754, 0.553805, 0.379063, -0.197162, 0.578481, -0.566869, -0.512570, -0.149761, -0.101835, -0.258467, 0.453650, -0.165020, -0.213445, 0.347948, 0.494248, 0.219405, 0.087606, 0.166648, 0.186241, },
{-0.588323, 0.041853, 0.120306, -0.069357, -0.136517, 0.053825, 0.616113, -0.136281, 0.152797, 0.141422, -0.310169, 0.051800, -0.253336, -0.128952, -0.337561, 0.068660, 0.672920, 0.044157, 0.157004, 0.497745, 0.007237, 0.018363, -0.000483, -0.309307, -0.124503, -0.008634, 0.223589, -0.170602, -0.153380, 0.281432, -0.069030, 0.429056, -0.196629, -0.176718, 0.160405, -0.247631, -0.342411, 0.045706, -0.152825, -0.095082, -0.097099, -0.205197, 0.337067, 0.153800, 0.059610, 0.404124, 0.040853, -0.045045, -0.206115, 0.491213, -0.004662, -0.160863, -0.414266, 0.134774, -0.084272, 0.097824, -0.374702, -0.319098, 0.138018, 0.006380, 0.009051, -0.725104, -0.019297, 0.521995, },
{0.711399, 0.155619, -0.669811, 0.074096, 0.287885, 0.136017, -0.411761, -0.203480, -0.237236, -0.219102, 0.240982, 0.095981, 0.572446, 0.357721, -0.085201, -0.111910, 0.008972, 0.330481, -0.536137, -0.463719, -0.089447, -0.222456, -0.216421, 0.055149, -0.001168, -0.058897, -0.464994, 0.311089, 0.099143, -0.464713, -0.009753, -0.161964, 0.389015, 0.503878, 0.243846, 0.223383, 0.033973, 0.008865, 0.597239, -0.124142, 0.141147, 0.152908, -0.895926, -0.153015, -0.191566, -0.356938, -0.125696, 0.091005, 0.493426, -0.369596, 0.048866, 0.150429, 0.351082, -0.162873, 0.077343, 0.116764, 0.334187, 0.266885, -0.563011, -0.144875, 0.135762, 0.172474, -0.087001, -0.093219, },
{0.254121, -0.184876, 0.240776, -0.063875, 0.385245, -0.382059, -0.336456, -0.164358, -0.288389, -0.231901, 0.046725, 0.569131, 0.538579, 0.773693, -0.247053, -0.368775, 0.012081, -0.192536, -0.331837, -0.423147, 0.097165, 0.111423, 0.078499, -0.061233, 0.119890, -0.104360, -0.147968, 0.301094, 0.090603, -0.179666, -0.241247, -0.139286, -0.216928, -0.092047, -0.426276, 0.099774, 0.082338, 0.195531, 0.170413, 0.485681, -0.253652, -0.179776, -0.548764, 0.108032, -0.079467, 0.108645, -0.361616, 0.293449, -0.022146, -0.024497, 0.368608, 0.316309, 0.047513, -0.346878, -0.293386, -0.361177, 0.023885, -0.503141, -0.154595, 0.281517, 0.010042, -0.121693, -0.000211, 0.200176, },
{0.201816, 0.385123, -0.180765, 0.301969, -0.482943, -0.026603, 0.124831, 0.281628, -0.045006, 0.146546, 0.185961, 0.017028, 0.329597, 0.317092, 0.118811, 0.214790, -0.309126, 0.246293, -0.133872, 0.421289, -0.018574, -0.216111, 0.085617, -0.239973, 0.113496, 0.219572, -0.432866, -0.030461, 0.373682, -0.048480, 0.322790, -0.078265, 0.124978, 0.110676, 0.417412, 0.166067, -0.142803, -0.365913, -0.201417, -0.143125, 0.051937, 0.142855, 0.058167, 0.275481, -0.461259, 0.506395, 0.166247, 0.243872, -0.219464, 0.359862, -0.687242, 0.262474, 0.336705, -0.157635, -0.078448, 0.288919, -0.406228, -0.042324, 0.029039, -0.008589, -0.552551, -0.325252, 0.644452, -0.111209, },
{-0.582133, -0.111951, 0.220063, -0.253575, 0.554826, -0.118359, 0.150623, 0.290048, 0.128563, 0.849536, 0.094171, -0.097635, -0.147857, -0.813325, -0.056249, -0.049383, 0.294656, -0.185407, -0.121992, -0.458862, -0.256000, -0.131259, -0.085301, 0.181572, -0.562996, -0.195324, 0.367433, 0.478573, -0.560714, 0.503241, -0.325031, 0.053873, -0.256288, -0.482330, 0.034592, -0.170230, -0.016172, 0.145054, -0.212992, -0.008634, -0.368638, 0.025189, 0.246818, -0.186023, 0.742188, -0.342833, 0.074655, -0.410880, 0.126721, -0.003478, 0.638036, -0.013655, -0.043251, 0.345501, 0.318596, -0.184214, 0.532307, 0.409170, 0.210594, 0.092626, 0.109973, -0.043203, 0.108745, 0.399497, },
{-0.235396, -0.139069, 0.005113, 0.667136, -0.157640, -0.012273, -0.502857, 0.065657, 0.102613, -0.695810, -0.465978, 0.072516, 0.430133, 0.291829, -0.275592, -0.204927, -0.408845, 0.320942, -0.435535, 0.185586, 0.209872, -0.541440, 0.989502, 0.089602, 0.425147, 0.406808, -0.145282, 0.025665, 0.277598, 0.389777, 0.176842, -0.388153, -0.075786, -0.153338, 0.122491, -0.318467, 0.511771, -0.287931, 0.090761, 0.453204, -0.260178, -0.517092, -0.484606, -0.050505, -0.411559, -0.599478, 0.475362, 0.127311, 0.518993, 0.201349, -0.367573, 0.516383, 0.363789, -0.879663, -0.155640, 0.200338, -0.209367, -0.043959, 0.253204, 0.723676, -0.549280, -0.541108, 0.242519, 0.405688, },
{-0.031173, -0.020227, -0.518802, 0.165477, 0.090530, -0.034803, -0.042869, -0.078551, 0.100693, -0.291924, -0.049644, 0.154507, 0.182730, 0.085573, -0.219915, -0.264859, -0.390803, 0.119176, -0.009963, 0.119912, -0.079974, -0.027312, 0.307602, -0.000720, 0.599237, 0.064602, -0.042388, 0.298019, 0.332143, -0.161750, -0.186538, 0.103967, 0.123909, -0.212397, 0.050889, -0.243029, 0.138286, 0.035334, 0.131820, 0.041557, -0.022007, -0.406432, -0.047471, -0.257579, -0.068391, -0.515592, 0.429675, -0.042234, 0.098343, 0.028931, 0.051732, -0.300636, -0.227168, -0.417136, 0.099684, -0.476449, 0.410427, 0.346738, 0.208051, 0.441675, 0.489746, 0.227943, 0.086933, 0.247839, },
{-0.077235, 0.080075, -0.004049, 0.158470, -0.055036, 0.294549, 0.222988, 0.184264, 0.420648, -0.004408, -0.169957, -0.163287, -0.455505, 0.017757, 0.114928, 0.191490, -0.246520, 0.265338, 0.067767, 0.269296, 0.299166, -0.125238, 0.114702, -0.025877, 0.112014, -0.143466, 0.087499, -0.526798, -0.109444, -0.188676, 0.247079, 0.351357, -0.109379, 0.239074, 0.236161, -0.313981, 0.190395, -0.354690, -0.340679, -0.315349, -0.295489, 0.071698, 0.071289, 0.636128, -0.508352, 0.010572, 0.159994, 0.806109, 0.253934, 0.871811, -0.284900, -0.380783, 0.165816, -0.232635, 0.225189, 0.122663, 0.225029, -0.096840, 0.030847, 0.009194, -0.005416, -0.469663, -0.087312, -0.019785, },
{0.062267, -0.274601, 0.360891, -0.549236, 0.615348, -0.411069, 0.032465, -0.140951, 0.037228, 0.358357, 0.566836, -0.366997, -0.179164, -0.595770, 0.186852, -0.467526, 0.193545, -0.443974, -0.126302, -0.476870, -0.089173, 0.356655, -0.613250, 0.037932, -0.209611, -0.291751, 0.374199, 0.181691, -0.445328, 0.428837, 0.248412, -0.166512, -0.110096, -0.329999, 0.147351, 0.151660, 0.173974, -0.282881, -0.273142, 0.269662, 0.136179, 0.335861, 0.220298, -0.083039, 0.104984, -0.191936, 0.038037, -0.584722, -0.375463, 0.014474, 0.436725, 0.505668, 0.046027, 0.338251, 0.085540, 0.269113, -0.079862, 0.146982, -0.072124, -0.056645, 0.057310, 0.398171, -0.053301, -0.081202, },
{0.327209, 0.081122, -0.467758, 0.036280, -0.137262, 0.029156, 0.465238, -0.133677, -0.127522, -0.062003, 0.026812, -0.000353, 0.318979, -0.419360, 0.015106, 0.017765, -0.240347, 0.131490, 0.040016, 0.099198, 0.131450, -0.176055, 0.279697, 0.289074, -0.038779, 0.246755, -0.235929, -0.057679, 0.337711, 0.103437, 0.239284, -0.153875, 0.360219, 0.413732, -0.156350, -0.039997, -0.031576, 0.094042, -0.328889, -0.049724, -0.037017, -0.019139, -0.034739, 0.063504, -0.378230, -0.238284, 0.555919, 0.388269, -0.012086, -0.449754, -0.030306, 0.151333, 0.449511, 0.212775, 0.282056, 0.054401, -0.048237, 0.124066, 0.027623, -0.094774, -0.366385, 0.200656, -0.293032, -0.298806, },
{-0.232486, -0.204197, -0.011004, 0.106994, -0.324212, 0.098774, 0.293730, -0.004328, 0.608993, 0.242975, -0.189664, 0.378268, 0.062820, 0.105199, 0.127196, 0.400729, -0.460075, -0.061353, 0.104278, 0.562274, 0.535267, -0.143732, 0.216615, -0.146933, -0.049730, 0.231566, -0.335484, -0.182049, -0.048908, 0.235715, 0.342765, -0.150405, 0.112551, 0.227967, 0.056812, 0.151802, 0.117192, -0.175997, -0.468922, -0.352622, 0.073848, 0.192154, 0.551405, -0.195374, -0.383612, 0.466386, 0.058036, 0.248625, -0.297277, -0.199347, -0.188195, -0.179395, 0.168991, -0.238606, -0.130802, -0.004670, -0.084253, 0.090058, -0.102964, 0.420323, -0.128156, 0.317911, 0.401920, -0.217282, },
{-0.106802, 0.172922, -0.198046, -0.451433, -0.243900, 0.159367, -0.082623, 0.363615, -0.188547, 0.304812, 0.604707, -0.018718, -0.403548, -0.127511, -0.530801, 0.320364, 0.355723, 0.329615, 0.330143, 0.189850, -0.785026, -0.091152, 0.000185, 0.158183, -0.044505, 0.147803, 0.168061, -0.198458, -0.250016, 0.204980, -0.345570, -0.015237, -0.127195, -0.440936, -0.262584, -0.328779, -0.042357, 0.195727, 0.200527, -0.046681, 0.589168, -0.927020, -0.062517, 0.020356, -0.004588, 0.160289, 0.039358, -0.050010, 0.239349, -0.029322, -0.316944, -0.324106, -0.406072, -0.067522, 0.328285, -0.113624, -0.158968, 0.036727, 0.132326, 0.138910, 0.059249, -0.638034, 0.161145, 0.145746, },
{0.064834, -0.412782, 0.236198, -0.362826, -0.266266, -0.615598, -0.232989, 0.054122, -0.630619, 0.445549, -0.121388, 0.225869, 0.217424, 0.161615, -0.676049, 0.126122, 0.291585, -0.429776, -0.374369, 0.658432, -0.330675, 0.330828, -0.384464, 0.131165, 0.237938, 0.165652, 0.603713, -0.098375, 0.071124, 0.715643, -0.138455, -0.536771, -0.301841, -0.736753, -0.446715, -0.382087, -0.516549, -0.096548, 0.184901, 0.541101, -0.083232, -0.583354, 0.177813, 0.006196, 0.345896, 0.118421, -0.513416, -0.414020, -0.119488, -0.177571, 0.023967, 0.100220, -0.236848, -0.045920, -0.237582, -0.564056, -0.781942, -0.084523, 0.432767, 0.000041, -0.163322, -0.531539, 0.130145, 0.291501, },
{0.105285, -0.670191, -0.241623, -0.052730, 0.251305, 0.070202, 0.182614, -0.248791, 0.080246, 0.302054, 0.085915, 0.130998, 0.018914, 0.012898, 0.466190, -0.703097, 0.290147, 0.180206, 0.026338, -0.031454, 0.082699, 0.175534, -0.361942, 0.426384, 0.289767, -0.305442, -0.254332, 0.319326, 0.237089, 0.024032, -0.129772, 0.238314, 0.109901, -0.260572, 0.065227, -0.062718, -0.039172, 0.360184, -0.084388, -0.003723, -0.064978, -0.038370, 0.189989, -0.838612, -0.084874, 0.188721, 0.154694, 0.098951, -0.195886, -0.570240, 0.010345, -0.095666, 0.044916, 0.165317, -0.186516, 0.215062, 0.345813, 0.210130, -0.294222, -0.301299, 0.572127, 0.548137, -0.146058, 0.007275, },
{-0.166710, 0.051046, -0.103955, 0.031475, -0.151312, 0.106574, 0.035220, -0.007719, 0.428611, 0.198024, -0.037021, 0.171336, -0.194677, 0.072552, -0.420754, -0.029240, 0.070716, 0.475343, 0.179169, 0.099460, 0.178653, -0.198710, -0.099551, -0.073044, 0.085354, 0.073671, -0.096618, -0.281056, -0.156044, 0.024145, -0.193586, -0.036144, 0.358922, -0.125434, -0.514573, -0.270115, 0.058023, 0.106000, -0.074845, -0.118950, -0.104116, -0.557848, -0.010538, 0.261619, -0.271216, 0.266284, 0.364306, -0.004863, 0.146485, 0.202404, -0.454482, -0.006866, -0.135487, -0.329778, -0.398197, 0.134920, -0.554428, 0.168050, 0.014938, 0.187053, -0.068281, -0.389184, 0.230565, 0.125082, },
{0.325844, 0.225370, -0.200404, -0.234639, 0.025221, 0.182605, -0.380219, -0.287109, -0.413597, 0.125799, 0.306441, -0.650054, 0.138632, 0.127166, -0.012868, 0.358879, 0.711580, -0.286329, -0.007324, 0.157445, -0.700894, 0.249297, -0.362879, 0.101386, 0.078438, -0.198340, 0.091807, 0.371281, -0.343254, -0.042519, -0.665388, -0.207842, 0.111805, -0.578367, -0.179720, -0.237673, 0.110887, 0.272781, 0.149645, -0.220548, 0.968022, -0.510852, -0.126121, 0.274906, -0.174905, -0.280293, -0.074760, -0.535857, 0.143352, -0.202170, -0.262153, -0.255257, -0.313109, 0.272974, -0.296452, 0.238291, -0.304950, -0.144874, -0.067914, -0.326479, 0.181118, -0.166876, -0.154342, 0.284869, },
{0.270007, 0.227448, 0.022727, 0.380162, -0.196776, -0.777941, -0.429440, 0.201682, -0.016698, -0.390483, -0.030580, 0.158656, 0.183012, 0.275711, -0.347637, -0.104812, 0.049356, 0.175428, -0.732229, -0.158016, -0.100709, -0.451259, 0.084779, 0.245102, -0.093222, 0.183486, 0.072562, 0.248015, 0.108292, -0.063213, 0.063878, -0.622017, -0.226667, 0.053540, -0.018394, 0.124782, -0.436791, -0.279713, -0.278606, 0.065478, -0.230742, -0.062399, -0.063288, 0.066809, 0.222246, -0.242935, -0.491899, -0.202547, 0.066834, -0.304273, 0.122398, 0.456091, 0.123882, -0.502810, -0.254771, -0.224816, -0.067938, 0.182230, -0.005932, 0.129606, -0.200494, -0.339171, 0.383082, 0.163139, },
{0.499907, 0.385329, -0.203408, -0.515880, -0.190459, -0.062476, 0.674099, 0.494271, 0.049806, 0.548850, 0.441810, -0.211166, 0.186244, 0.090296, -0.425876, 0.239800, 0.383281, 0.663732, 0.228096, -0.301376, -0.851188, 0.194532, -0.301349, 0.295373, 0.093780, -0.201280, -0.030778, 0.073889, 0.415160, -0.357357, -0.152656, -0.262577, -0.259566, -0.182615, 0.860641, 0.222733, -0.454839, -0.399264, 0.104387, 0.036593, 0.204326, 0.020520, 0.131482, -0.030556, 0.114672, 0.186827, 0.035342, -0.151258, -0.007992, 0.387982, 0.065934, -0.207973, 0.344507, 0.003767, 0.453463, -0.040430, -0.052508, 0.121841, -0.296594, -0.390716, -0.052258, -0.232660, -0.216714, 0.167125, },
{-0.170117, 0.427810, 0.194305, 0.045965, -0.013197, -0.046227, -0.053828, 0.248588, -0.101971, -0.263985, -0.228400, 0.070324, -0.344906, 0.061630, -0.412624, 0.465641, 0.388610, 0.007083, 0.015376, 0.114628, -0.108319, -0.225236, -0.001033, -0.456395, -0.504876, 0.105036, 0.062121, -0.259956, -0.188302, -0.094760, 0.081858, -0.133767, -0.138840, 0.347262, 0.241808, -0.281185, -0.151184, -0.122118, 0.103556, -0.063039, -0.182384, -0.061084, -0.054531, 0.306269, 0.184703, 0.036888, -0.101474, 0.334779, 0.307162, 0.613971, -0.306612, -0.090863, 0.115692, 0.007820, 0.121670, -0.188701, -0.176464, -0.292728, 0.123024, -0.508394, -0.238626, -0.409369, 0.275208, 0.076519, },
{0.110575, 0.078580, -0.129535, 0.319147, -0.430243, -0.016390, 0.003524, -0.080544, -0.157187, -0.125858, -0.701906, -0.306039, -0.298885, -0.096632, 0.334898, 0.249304, -0.375898, -0.612027, 0.074148, 0.262236, 0.402465, 0.231987, 0.478543, -0.447126, -0.037485, 0.043451, -0.082487, -0.182478, -0.162856, -0.085563, 0.620003, 0.490066, 0.414035, 0.163408, 0.362513, 0.350868, 0.509369, -0.162753, 0.409206, 0.705041, 0.457064, 0.522224, -0.321550, 0.234928, -0.425007, -0.356623, -0.274449, 0.226344, 0.304067, 0.142552, -0.638975, 0.517095, 1.084692, 0.087161, 0.546586, 0.059851, -0.119384, -0.797530, -0.134836, 0.034160, -0.020769, 0.098988, 0.033545, -0.309358, },
{-0.081367, -0.155224, -0.021526, -0.228395, -0.553758, 0.116615, 0.081935, -0.603186, -0.009505, -0.261861, 0.094472, 0.281319, -0.251832, -0.080546, -0.059695, 0.268418, 0.105832, 0.228066, 0.207759, 0.248176, -0.052882, -0.321333, -0.065172, 0.190231, -0.108302, 0.135657, -0.353024, -0.227247, -0.236066, 0.374935, -0.161935, -0.187847, 0.223590, 0.027537, -0.745860, 0.123286, 0.173133, 0.101570, -0.082622, -0.327216, 0.905212, -0.346465, -0.010771, 0.118512, -0.340494, 0.103100, 0.258716, 0.041955, 0.018669, -0.035033, -0.422063, -0.402747, -0.349944, -0.100997, -0.022716, 0.390627, -0.191503, -0.220002, 0.145291, 0.091217, 0.029425, 0.089197, -0.087389, -0.135683, },
},
};

const float W1[HIDDEN_LAYER_SIZE][AC_SPACE_SIZE] = {
{-0.159900, 0.147767, 0.144114, -0.015843, },
{0.108607, -0.270025, 0.129053, 0.205611, },
{-0.238280, 0.065335, 0.048740, -0.024769, },
{0.214503, -0.043229, -0.059801, 0.468665, },
{-0.033022, -0.246007, -0.476139, 0.235650, },
{-0.222694, -0.080277, 0.113515, 0.094345, },
{-0.049514, -0.157075, -0.059441, -0.072133, },
{-0.007217, -0.084367, -0.092478, -0.175893, },
{0.130697, 0.111705, 0.204871, 0.240770, },
{-0.144907, -0.069681, -0.021917, -0.333824, },
{-0.379127, -0.020128, -0.051867, -0.162765, },
{-0.166273, 0.444590, -0.068185, 0.151655, },
{0.066431, 0.081366, -0.153842, 0.002481, },
{0.085735, 0.225935, 0.039859, -0.187827, },
{0.114291, 0.060089, 0.225497, 0.026329, },
{-0.219392, 0.107147, 0.120183, -0.302613, },
{-0.174805, -0.058450, -0.133886, -0.280937, },
{0.117631, -0.075046, -0.050099, 0.387491, },
{-0.256371, -0.324030, 0.154786, 0.142339, },
{0.069165, 0.128783, 0.404109, -0.105228, },
{0.185653, 0.172927, -0.064409, 0.107230, },
{-0.226226, 0.151112, -0.032695, -0.294732, },
{0.220538, -0.037704, -0.171763, 0.456842, },
{0.205818, -0.138077, -0.202437, 0.088723, },
{-0.068250, 0.011330, 0.163871, -0.146942, },
{-0.273484, -0.261940, -0.076930, 0.305901, },
{-0.058934, -0.147609, -0.252502, -0.292162, },
{0.232170, -0.246741, -0.080287, 0.311084, },
{0.335988, 0.005149, 0.129079, -0.236890, },
{-0.109758, -0.241630, -0.070524, -0.072773, },
{-0.177895, 0.318882, 0.424394, -0.212877, },
{-0.315378, 0.030941, 0.087635, 0.263559, },
{0.042631, 0.008945, 0.206343, 0.182734, },
{0.275331, -0.030673, 0.210434, 0.107192, },
{0.065843, 0.063968, 0.100799, -0.213604, },
{0.211082, 0.064087, 0.207022, 0.124234, },
{-0.112734, -0.024782, -0.067083, 0.175583, },
{-0.162731, -0.013517, 0.038618, 0.227864, },
{-0.109131, 0.040061, -0.097063, 0.109199, },
{-0.110301, 0.154955, -0.129053, -0.454343, },
{-0.179899, -0.150847, 0.307020, 0.170886, },
{0.002173, 0.112293, 0.284899, 0.104883, },
{-0.170169, -0.087837, 0.178074, 0.017800, },
{-0.272456, 0.126366, -0.003551, -0.197367, },
{-0.037093, -0.084040, -0.265139, -0.068092, },
{0.145512, -0.000697, 0.141799, -0.229228, },
{0.002322, -0.216026, -0.156615, -0.077380, },
{0.073448, 0.335112, -0.072282, 0.276028, },
{0.085058, -0.119312, 0.104879, 0.177792, },
{-0.232113, -0.077524, -0.002689, 0.002349, },
{-0.115316, -0.348598, -0.304170, 0.170122, },
{0.048063, 0.199983, 0.018330, -0.294227, },
{0.016245, -0.302151, 0.377860, 0.008430, },
{-0.056358, -0.153633, 0.212176, -0.250444, },
{-0.068795, -0.325064, -0.070825, 0.071233, },
{0.128191, -0.136127, 0.175648, 0.060472, },
{0.055544, -0.211225, -0.008333, 0.204258, },
{0.237753, 0.004636, -0.152056, 0.308851, },
{-0.045049, -0.135123, -0.125487, -0.010161, },
{0.029409, 0.037484, -0.183237, 0.331895, },
{-0.065370, 0.239701, 0.157396, -0.088208, },
{0.112354, 0.258114, 0.078221, -0.222398, },
{0.124281, 0.048523, -0.046037, 0.144880, },
{0.003788, 0.087783, -0.033961, -0.175288, },
};

const float b0[HIDDEN_LAYER_SIZE] = {0.136377, 0.626942, 0.675884, 0.592900, -0.397711, -0.079959, 0.004144, 0.070677, -0.097379, 0.123052, -0.091094, 0.319819, -0.010579, -0.037241, -0.853427, -0.133776, 0.162007, 0.113171, 0.492822, 0.293061, 0.317893, 0.223378, -0.192384, 0.165950, -0.076756, 0.533826, -0.218299, -0.255954, -0.309502, 0.150889, -0.208420, 0.056838, 0.214223, 0.037375, -0.515006, 0.232286, -0.125909, 0.210065, -0.430613, -0.241332, -0.294811, -0.237299, -0.534989, -0.208000, 0.271691, 0.224457, -0.450682, 0.236772, -0.499319, 0.132460, -0.322087, 0.442024, -0.313239, -0.215115, 0.058029, -0.073703, 0.301740, -0.311265, 0.244651, -0.052473, 0.196022, -0.302279, -0.209386, -0.207362, };

const float b_hidden[NUM_HIDDEN_LAYER - 1][HIDDEN_LAYER_SIZE] = {
{0.168013, 0.153862, 0.309647, -0.726614, 0.647801, 0.090000, -0.125422, -0.021319, 0.046290, 0.393731, 0.546409, -0.398948, -0.269932, -0.508424, 0.378060, 0.028959, 0.154768, -0.336800, -0.064559, -0.473944, -0.420816, 0.048035, -0.838493, 0.090251, -0.267754, -0.108827, 0.277448, 0.488022, -0.618243, 0.008025, -0.408012, -0.157285, 0.081593, -0.329264, 0.126516, 0.352072, -0.043751, -0.119930, 0.057492, -0.214962, -0.016925, 0.304526, 0.058643, -0.380688, 0.302336, -0.121449, -0.157061, -0.574748, -0.038327, -0.008006, 0.567219, -0.097393, -0.324904, 0.506618, -0.025562, -0.145769, 0.063133, 0.401942, -0.149542, -0.372906, 0.417463, 0.342471, 0.051521, -0.070593, },
};

const float b1[AC_SPACE_SIZE] = {-0.139465, -0.298991, -0.079685, -0.087009, };

const float ob_mean[OB_SPACE_SIZE] = {0.011232, -0.630877, -0.003171, 3.840892, 0.027737, 0.009459, -0.006627, -0.323942, -0.050209, 4.743772, 0.002028, };

const float ob_std[OB_SPACE_SIZE] = {0.271334, 0.318081, 0.270529, 2.207806, 0.713195, 0.754365, 0.630073, 1.452619, 0.651904, 2.072371, 0.575369, };

#endif
