#ifndef __AP_MOTORS_POLICY_DEF_H__
#define __AP_MOTORS_POLICY_DEF_H__

const int STATE_SIZE = 9;
const int OB_SPACE_SIZE = 11;
const int AC_SPACE_SIZE = 4;
const int NUM_HIDDEN_LAYER = 2;
const int HIDDEN_LAYER_SIZE = 64;
const float FINAL_BIAS = 3.500000;

const float W0[OB_SPACE_SIZE][HIDDEN_LAYER_SIZE] = {
{0.185128, -1.319653, -0.156444, -0.608897, -0.207664, -0.453958, -1.294527, 0.071716, -0.432710, 1.214973, 0.006548, -0.762173, -0.037583, 0.034689, -1.013758, -0.930430, 0.156547, -0.090493, 0.837184, 0.546262, -1.287424, -0.674332, -0.096594, -0.109161, 0.725876, -0.763696, 1.030270, -0.957448, 0.592959, -0.589778, -0.135871, -0.386131, 1.050346, 0.459923, -0.572602, 0.003764, -1.203300, 0.765342, 0.061917, 0.343380, 0.240133, -0.012998, 0.526477, 0.905261, 0.737266, 0.002778, -0.246165, -1.276605, 0.732634, 0.103822, 0.851669, -0.435641, 0.173074, -0.561620, 0.677268, 0.198879, 0.316336, -0.010323, -0.516265, -0.246860, -1.088408, -0.943922, 0.358725, 0.756937, },
{0.087559, 0.669853, 0.448854, -0.258981, 0.511026, 0.101193, 0.026888, 0.314419, 0.885310, 0.336952, -0.313518, -0.105457, 0.213115, 0.010170, 0.346184, 0.511532, 0.553741, -0.446068, 0.701887, 0.213599, -0.375834, -0.299394, -0.140520, 0.158362, -0.218234, 0.696421, -0.004429, -0.452815, -0.302653, -0.000006, 0.283243, 0.251381, -0.134551, -0.641972, -0.206339, -0.335331, 0.205272, -0.374291, 0.138401, 0.228248, 0.455726, 0.117090, -0.173951, 0.459119, -0.115919, -0.888289, 0.779414, -0.232676, 0.220774, -0.607747, -0.427316, 0.487741, 0.292852, -0.333118, 0.583719, 0.096937, 0.160424, -0.097233, -0.279472, 0.144662, -0.586534, 0.078511, 0.304990, 0.121697, },
{-0.024779, -0.052439, -0.045635, -0.320992, -0.618115, -0.177165, -0.845625, 0.812856, -0.631798, -0.426632, -0.181358, -1.235638, -0.579294, 0.453279, -0.435915, 0.251705, 0.128729, -0.158103, -0.816517, 0.480878, 0.372870, -1.140767, -1.334206, 0.378106, -0.408329, 0.042225, 0.149736, -0.651041, 0.186631, -0.356128, 0.192659, 0.379036, -0.533327, -0.036716, 0.226209, -0.296834, 0.176850, -0.972000, -0.500323, 0.525200, -0.097810, -0.121168, 0.697250, -0.715437, -1.154748, -0.172931, 0.533828, 0.150375, -0.409909, 0.242662, -0.250452, -0.683030, 0.976571, 0.333175, 0.131196, -0.142775, -0.579379, -0.386764, -1.053906, 0.414059, -0.143493, 0.472821, -1.193171, 0.949484, },
{0.460665, 0.128950, 0.794442, 0.268718, 0.246435, -0.253020, -0.125775, 0.056624, 0.403405, 0.370973, -0.227746, 0.190255, -0.287583, -0.714686, -0.089219, 0.215528, 0.357668, -0.730029, -0.305900, 0.304207, -0.038812, 0.090869, 0.091529, 0.052018, -0.460986, 0.575698, -0.100321, 0.244769, 0.681458, 0.497200, -0.203789, 0.250815, -0.378246, -0.149343, 0.210312, 0.633432, 0.106912, 0.407112, 0.743941, -0.156520, -0.082366, 0.264379, -0.155896, -0.050635, 0.581773, 0.293822, 0.147272, 0.194852, 0.325019, 0.284822, -0.414684, 0.439313, 0.157865, 0.083604, -0.005856, 0.585901, 0.455998, -0.740193, 0.177742, -0.002765, -0.591225, 0.090296, 0.312430, 0.480255, },
{0.255735, -0.782512, -0.156819, -0.832209, 0.150494, 0.027522, -0.652576, -0.294779, 0.264222, 0.631910, -0.010793, -0.616343, -0.343586, -0.278323, 0.192359, -0.771397, -0.076773, -0.435878, 0.136132, -0.077894, -0.699761, -0.075987, 0.320635, -0.839645, 0.200428, 0.048384, 0.200748, -0.044368, 0.111594, -0.185928, 0.065418, -0.430789, 0.510885, 0.093543, -0.033442, -0.239238, -0.656382, -0.590484, -0.797497, -0.698664, 0.932275, -0.301933, -0.320711, 0.187259, 0.135311, 0.150947, 0.008667, -0.711353, -0.134827, -0.204026, -0.393201, -0.028284, -0.281753, -0.272327, -0.276210, -0.150931, 0.874538, 0.001675, -0.358500, -0.257803, 0.014432, 0.534359, 0.075853, 0.644053, },
{0.135725, 0.236603, -0.211696, -0.552678, 0.971645, 0.928183, -0.220643, -0.360594, 0.243912, -0.285598, 0.583153, 0.097026, -0.276640, 0.421366, -0.681704, -0.210855, -0.182440, 0.023617, 0.183119, 0.223158, 0.219018, 0.337158, -0.228002, -0.631525, 0.668249, 0.079315, -0.756222, 0.280489, -0.067875, -0.330323, -0.057861, -0.284529, 0.440386, 0.669336, -1.010936, 0.564474, 0.255123, -0.315739, -0.444869, 0.155849, 0.259798, 0.893054, 0.234712, 0.214689, 0.336576, -0.336501, 0.211380, -0.176996, 0.093609, 0.485213, -0.188130, 0.089070, 0.101285, 1.024692, -0.264223, -0.564008, -0.382056, 0.209552, -0.467391, -0.956337, -0.348238, 0.447513, -0.203020, 0.086970, },
{0.133286, -0.295503, 0.085243, -0.722618, 0.114236, -0.169916, -1.089958, -0.634598, 0.721021, 0.680909, -0.458360, 0.433797, -0.182207, -0.398870, -0.107908, -0.354330, -0.697036, 0.482594, 0.348531, -0.155829, -0.938300, -0.862966, 0.438063, -0.153080, 0.586116, 0.199238, -0.456998, -0.876702, 0.206433, -0.289038, -0.347458, 0.334040, -0.236695, 0.151853, -0.203100, 0.728033, 0.147812, 0.344203, 0.229277, 0.715126, -0.940476, 0.247143, 0.953929, 1.030177, 0.018426, 0.179138, -0.579257, -1.195404, -0.089326, 0.078236, -0.194377, 1.295990, 0.397127, -0.238170, -0.325278, -0.218336, 0.282396, -0.852205, 0.119312, -0.073513, -0.213459, -0.507157, -0.098004, -0.104197, },
{-0.170681, -0.504386, 0.291156, 0.086494, 0.135067, 0.081289, 0.533160, 0.271013, 0.413436, -0.573498, -0.369177, -0.527101, -0.150525, -0.224030, 0.243786, -0.014452, -0.233557, -0.359393, 0.312945, 0.568928, 0.057572, -0.040526, 0.189394, 0.279597, 0.173975, -0.464835, 0.239743, 0.166821, -0.260294, 0.596037, -0.697514, -0.008474, -0.041042, 0.284922, -0.209075, -0.150782, -0.540839, -0.756892, 0.261630, -0.250365, -1.145907, -0.327336, 0.969618, -0.528913, -0.298438, -0.542566, 0.562406, -0.146722, -0.048406, 0.744062, -0.020577, 0.299406, -0.933286, 0.097365, 0.193541, -0.594874, 0.303471, 0.086942, -0.451724, 0.440066, 0.362831, -0.021197, 0.562769, -0.136286, },
{-1.417003, -0.020800, -0.337617, -0.350697, 0.273103, -0.061090, -0.257173, 0.844137, -0.327198, -0.403374, -0.659018, -0.094298, -0.113880, 0.096947, -0.106673, 0.101454, 0.064731, 0.193260, 0.118503, 0.651919, -0.178239, 0.111091, 0.384589, 0.678545, -0.571970, -0.470720, -0.567324, -1.247526, 0.284329, 0.046885, 0.604433, -0.260837, -0.383358, 0.306079, -0.026327, -0.563027, 0.414406, 0.010976, -0.020396, 0.548827, 0.336414, 0.484719, 0.270176, 0.217678, -0.000714, -0.218832, -0.487129, 0.084009, -1.736129, 0.821652, -1.188116, 0.425192, 0.373897, 0.587738, 0.032305, -0.091797, -0.424512, -0.196828, 0.015734, 0.720122, 0.446828, -0.181232, -0.043172, 0.445450, },
{-0.506726, 0.145028, -0.523764, -0.372896, -0.086877, 0.032079, 0.038665, -0.175843, 0.096826, -0.269932, 0.205047, -0.047444, -0.974598, 0.465220, 0.541306, -0.064193, 0.636514, -0.153795, 0.756406, 0.795617, -0.350940, -0.285840, -0.098435, 0.202603, 0.112372, -0.289614, 0.280811, 0.055797, -0.627986, -0.228017, -0.395816, 0.237339, 0.033274, -0.398437, -0.446269, 0.109033, 0.015888, 0.028807, 0.441767, -0.188714, -0.031879, -0.217505, -0.008585, -0.294813, 0.559225, 0.359759, 0.388880, -0.269408, -0.397513, -0.338283, -0.175070, 0.176168, 0.220102, -0.212347, 0.593049, -0.264573, -0.230246, -0.008935, -0.273776, -0.029878, 0.271942, -0.100425, -0.028761, -0.442479, },
{-0.381358, -0.025511, 0.177362, 0.386516, -0.609200, -0.837978, 0.000968, 0.430658, 0.327189, 0.072222, -0.519708, 0.023548, 0.685257, -0.244568, 0.592583, 0.096884, 0.568683, -0.119340, -0.123668, -0.093445, -0.507871, -0.214524, -0.281098, 0.465012, -0.453228, -0.026816, -0.226901, -0.170280, 0.276166, 0.560843, -0.263909, -0.552639, -0.844216, -0.242151, 0.676585, -0.211877, -0.145090, -0.087752, 0.520508, -0.078282, -0.366442, -0.470397, 0.028833, -0.278267, -0.489725, -0.137942, -0.070230, 0.070304, -0.235752, -0.525690, -0.035186, -0.005110, -0.085965, -0.787197, 0.225558, 0.630619, 0.321029, 0.017084, 0.423741, 0.714154, 0.198385, -0.416376, 0.229278, -0.169898, },
};

const float W_hidden[NUM_HIDDEN_LAYER - 1][HIDDEN_LAYER_SIZE][HIDDEN_LAYER_SIZE] = {
{
{-0.527476, 0.217159, -0.568638, 0.527070, -0.038815, 0.238615, 0.044703, -0.217584, -0.082319, -0.063097, 0.133058, 0.553873, 0.172058, -0.164507, 0.104332, -0.035625, 0.090270, -0.555840, 0.531431, -0.520301, -0.115237, -0.248492, -0.074864, -0.289504, 0.007573, -0.381841, 0.434930, -0.000905, 0.257839, 0.213621, 0.117707, 0.029975, -0.172361, 0.109861, 0.554860, -0.153957, -0.015009, 0.135956, -0.451295, 0.334449, 0.042838, 0.137799, 0.012582, 0.335270, 0.048255, -0.032288, -0.191491, 0.458286, -0.459659, -1.640891, -0.197141, -0.093628, -0.120746, 0.288243, -0.144731, -0.172025, -0.205856, -0.447237, 0.482514, -0.588356, -0.302214, 0.648336, 0.480039, 0.007691, },
{0.294432, 0.116725, -0.107851, 0.209128, 0.062126, 0.511546, 0.350683, 0.369685, -0.394547, -0.423411, -0.407284, 0.031823, -0.205761, 0.368008, 0.155232, 0.246225, -0.206687, 0.009409, 0.259415, -0.213771, 0.232427, 0.494656, -0.229554, 0.140899, 0.269419, 0.379616, 0.305785, 0.332047, -0.365288, 0.351979, 0.324476, -0.605286, -0.213240, -0.044611, 0.045473, -0.294494, 0.710444, 0.214771, 0.154047, 0.082008, 0.208988, -0.411475, 0.166845, 0.533882, 0.219240, -0.387085, -0.109260, 0.400735, 0.398120, 0.008257, 0.645375, 0.017734, 0.121123, -0.176057, 0.415485, -0.304216, 0.461470, -0.581570, -0.153157, 0.525449, 0.250440, -0.241540, -0.252258, -0.127403, },
{0.301832, 0.382142, 0.062590, -0.030129, 0.058267, 0.089607, 0.302887, 0.043461, -0.177689, -0.200441, -0.033360, -0.072516, 0.002795, -0.203894, 0.076389, 0.215477, -0.346614, 0.337713, 0.444205, 0.486810, 0.665253, 0.294751, -0.281223, -0.301932, 0.386464, -0.060253, -0.103328, -0.504515, -0.335267, -0.258118, -0.171304, 0.017160, 0.437371, 0.474379, 0.145964, 0.445570, -0.121479, 0.205315, 0.392042, -0.256392, 0.185223, 0.072580, 0.509225, 0.042921, 0.423524, 0.367409, -0.305771, 0.089137, 0.127551, 0.011658, -0.150198, 0.326107, -0.250180, -0.228177, 0.811872, -0.544024, 0.175842, 0.019726, -0.679297, 0.288665, 0.095980, -0.123175, 0.225305, 0.032853, },
{0.354497, 0.606613, -0.067162, 0.461765, -0.143946, 0.376336, -0.255724, -0.133706, -0.174691, -0.456651, -0.024587, -0.440799, -0.450794, -0.168795, -0.109711, -0.117096, -0.342837, 0.517777, -0.229509, 0.015955, 0.162717, 0.616813, -0.173535, -0.350576, -0.234777, -0.068833, 0.053929, -0.397792, -0.485361, -0.260260, 0.277021, -0.063904, 0.300179, -0.038012, -0.096227, -0.107449, 0.036244, 0.295078, 0.004097, -0.005047, 0.279962, 0.363690, 0.015211, 0.256557, 0.151108, -0.145970, -0.364676, 0.172318, -0.164275, 0.457951, 0.145179, 0.375757, -0.035669, -0.337104, 0.557543, 0.029554, -0.154992, -0.241605, -0.819003, 0.434322, -0.005371, -0.758028, 0.723958, 0.062780, },
{-0.163702, -0.411831, 0.000161, -0.350764, 0.230713, 0.076604, -0.110438, 0.478553, -0.107783, -0.169860, 0.252963, 1.023761, -0.194730, 0.278096, 0.395380, 0.682283, -0.152171, -0.215279, 0.576160, -0.201824, -0.292427, -0.484862, 0.396370, -0.557983, -0.302252, 0.460540, -0.109747, 0.136340, 0.442141, 0.247261, -0.764597, -0.113987, -0.156462, -0.715931, 0.357914, -0.234819, -0.083422, 0.424653, -0.303230, -0.354019, -0.100578, -0.238245, -0.181023, 0.220432, 0.283642, 0.029745, 0.254891, 0.748197, -0.136528, -0.338899, -0.017131, -0.100296, -0.646172, -0.164832, -0.486926, -0.020105, 0.480152, -0.294350, -0.004310, -0.003236, 0.019123, 0.199194, 0.259290, 0.215496, },
{-0.496054, 0.082014, -0.293625, 0.019967, 0.105759, -0.115064, -0.194608, 0.350431, -0.171309, -0.487805, 0.032484, 1.052556, -0.263011, 0.435932, 0.063827, 0.265798, 0.155970, -0.620481, 0.161604, -0.182243, -0.632341, -0.796304, -0.075126, -0.445815, 0.109450, 0.312212, 0.355594, 0.863816, 0.425666, 0.587474, -0.410006, 0.061517, -0.372043, -0.665582, 0.684616, 0.020088, -0.010528, 0.134914, -0.387485, -0.282131, -0.172429, -0.246403, 0.126100, 0.252565, 0.122862, -0.227760, 0.174161, 0.844726, -0.092491, -0.523212, -0.005633, -0.056568, -0.350066, -0.030206, -0.268056, -0.034734, 0.156183, -0.425363, 0.077254, 0.287494, 0.278451, 0.220203, 0.123726, 0.193166, },
{0.143975, 0.589974, 0.037896, 0.770377, 0.405877, 0.020607, -0.320310, 0.171606, -0.446245, -0.450837, -0.322023, -0.131181, 0.067957, 0.539853, -0.438336, -0.213481, 0.002268, 0.069950, -0.434866, 0.375195, -0.041364, 0.190814, -0.808886, -0.102790, 0.129920, 0.401593, -0.214075, 0.305253, 0.095703, -0.222296, -0.338006, -0.311483, 0.297108, -0.090684, -0.020190, 0.378817, 0.193702, 0.536836, -0.390217, -0.500022, 0.501677, -0.273878, -0.735392, 0.391396, 0.838209, 0.223986, -0.116382, -0.083254, -0.220633, 0.468515, 0.603964, 0.731716, -0.327865, -0.671056, 0.771381, -0.558895, -0.400163, 0.075952, -0.973199, 0.545586, -0.427430, -0.908060, 0.174411, -0.149686, },
{0.338785, -0.061513, 0.306020, -0.038838, -0.166068, 0.430383, 0.509984, -0.187708, -0.373909, 0.086399, 0.117582, 0.078924, 0.108511, 0.423147, 0.024779, -0.139489, 0.384867, -0.093032, 0.076059, -0.098902, 0.383555, 0.376783, -0.320511, 0.075429, 0.785190, -0.070233, -0.110913, 0.150990, -0.022885, 0.064184, -0.070446, -0.122905, 0.143734, 0.316691, 0.016660, -0.041405, -0.416612, 0.076675, 0.068296, -0.082525, -0.128591, 0.401289, 0.160826, 0.435747, 0.004497, 0.267179, -0.128781, -0.134868, 0.102487, 0.420579, 0.478781, 0.043557, -0.703234, 0.035468, 0.062206, -0.367085, 0.165735, -0.309778, 0.352394, -0.364710, 0.355852, -0.391021, 0.037665, 0.308024, },
{0.206145, -0.192199, -0.229479, -0.107252, -0.121836, 0.053441, 0.386205, -0.389161, 0.131567, -0.386541, -0.322040, 0.489563, 0.324813, 0.125401, 0.135398, 0.213938, -0.134369, -0.034300, 0.365815, 0.395588, 0.500254, 0.389349, 0.234874, -0.263787, 0.371599, 0.133159, -0.822524, 0.407853, 0.316389, 0.082868, -0.532380, -0.307361, 0.452963, 0.393508, -0.176236, -0.016406, 0.155809, 0.539284, -0.029803, 0.052880, 0.037910, -0.201715, -0.086637, -0.002253, 0.206263, 0.375373, 0.100085, 0.147655, 0.230824, 0.223478, 0.255386, 0.154822, -0.427621, -0.435697, 0.415697, -0.326959, 0.309466, 0.118269, 0.148421, 0.245222, -0.394560, -0.143830, -0.132563, -0.173854, },
{0.140520, -0.065617, -0.773406, -0.318083, 0.218415, -0.134768, 0.396980, -0.439844, -0.111191, 0.375182, 0.632572, 0.295548, 0.109946, -0.223657, 0.309284, 0.134793, 0.112817, -0.434493, 0.204373, -0.173757, -0.047099, -0.409768, -0.294729, -0.301675, -0.175041, -0.249835, -0.020004, 0.105583, -0.121826, 0.578141, -0.024575, 0.532106, 0.581777, 0.503164, -0.370643, -0.184824, 0.215933, -0.196086, 0.273327, 0.159321, 0.107586, 0.351124, -0.019082, 0.037100, -0.757639, 0.156869, 0.204534, 0.066309, -0.228078, -0.268230, -0.309803, 0.175535, -0.173448, -0.196967, -0.240066, 0.127066, 0.078175, -0.441188, 0.491951, 0.066768, 0.112734, 0.598268, -0.153037, -0.112822, },
{-0.106184, 0.269067, 0.165860, 0.158247, 0.224248, -0.339720, -0.378912, 0.190944, 0.557088, 0.146940, -0.212868, -0.028379, 0.191660, -0.557453, -0.266030, -0.173707, -0.340758, 0.229231, -0.266150, -0.069216, -0.048179, 0.093455, -0.139049, -0.249038, -0.510562, 0.226302, 0.588097, -0.338972, -0.141141, -0.655333, 0.378281, -0.189820, -0.463705, -0.262513, 0.166789, 0.229969, 0.290479, -0.184390, -0.129246, 0.070794, 0.234354, -0.131980, -0.015704, -0.225557, 0.087626, -0.335582, 0.286277, 0.040739, -0.381481, 0.451639, 0.148139, 0.058681, 0.028458, -0.087403, 0.054513, 0.261746, -0.049364, -0.069413, -0.365892, 0.011923, 0.030589, -0.051160, 0.058684, -0.100274, },
{-0.105206, 0.329761, -0.745281, 0.376660, 0.104907, -0.449091, -0.131467, 0.003137, 0.116962, -0.334615, -0.027356, -0.114214, 0.143693, 0.359995, 0.319186, 0.536691, -0.360662, 0.110632, -0.024753, 0.023571, -0.087617, 0.617742, 0.433136, -0.471547, -0.502327, 0.571060, 0.204370, 0.102862, 0.224005, 0.119687, 0.111151, -0.148384, -0.307060, -0.331641, -0.668351, -1.020064, 0.679918, 0.644231, -0.128619, -0.109102, 0.395800, 0.357765, -0.369622, 0.135829, 0.022784, 0.054623, 0.248552, 0.454090, 0.141124, -0.344749, -0.093630, -0.154641, 0.450127, 0.066948, 0.193753, 0.767115, 0.721188, -0.367990, -0.440852, 0.739286, 0.169825, 0.359198, 0.216196, -0.098081, },
{-0.129593, 0.175142, -0.490072, 0.008078, -0.256869, 0.155548, 0.141064, -0.168287, -0.113295, 0.126495, -0.090715, 0.083602, 0.065590, 0.377133, 0.632441, -0.044343, 0.098151, -0.249618, -0.094752, 0.426060, 0.236587, 0.154652, -0.338355, -0.503466, 0.313136, 0.041444, -0.167162, 0.345746, -0.149400, 0.086523, 0.110188, 0.351261, 0.013749, 0.134323, -0.223899, 0.221570, 0.212108, 0.137335, 0.244382, 0.049976, 0.223115, 0.649625, 0.024579, -0.147452, -0.025512, 0.559432, 0.076869, -0.104108, 0.282403, -0.167463, 0.120797, 0.441366, -0.650333, -0.331549, 0.298537, -0.301946, 0.217172, -0.342031, 0.069624, 0.375453, 0.407547, 0.055885, 0.078474, -0.062894, },
{-0.185944, 0.013140, 0.471313, 0.077726, 0.085907, -0.257429, -0.085327, 0.218312, -0.129687, -0.146154, -0.449197, 0.182126, 0.180765, 0.126619, 0.393332, 0.193547, 0.507462, -0.081367, -0.111616, -0.176714, -0.264910, 0.003720, -0.220199, 0.228208, 0.251797, -0.192719, 0.016299, 0.579171, 0.027991, 0.331113, -0.021682, -0.557015, -0.655702, 0.099422, 0.387535, 0.254278, -0.042983, -0.131584, -0.442542, -0.518158, 0.172368, -0.175026, 0.329109, 0.231836, 0.070858, -0.076261, 0.176887, 0.124037, -0.234241, 0.208027, 0.388538, -0.015592, -0.011241, -0.350290, 0.089142, 0.147518, 0.073532, -0.433221, 0.274863, 0.129078, 0.283024, 0.043380, -0.343853, 0.080191, },
{0.194933, -0.569932, -0.112859, 0.621081, -0.318973, 0.181493, -0.378515, -0.203821, -0.288577, -0.309815, -0.632288, 0.368968, 0.122061, 0.506114, -0.081158, -0.533896, 0.329012, -0.326038, -0.242127, -0.321864, 0.111025, -0.056504, -0.233922, 0.358606, -0.240859, -0.208125, -0.478443, 0.592893, 0.144185, 0.224636, 0.531009, -0.561827, 0.256951, -0.033480, 0.302688, 0.274199, 0.661008, -0.026041, -0.173098, 0.492875, 0.746774, -0.206707, -0.709792, 0.502181, 0.565847, -0.165678, -0.361447, -0.111862, 0.117766, -0.116828, 0.443444, -0.043776, 0.274033, -0.087421, 0.036533, -0.243483, -0.251773, 0.397730, -0.099538, 0.021186, -0.969986, -0.285645, -0.325727, -0.604953, },
{-0.271885, 0.151096, -0.480403, 0.319827, -0.095956, 0.396252, 0.040441, 0.320600, -0.183354, -0.256535, -0.097241, 0.349105, -0.039046, 0.295755, 0.076155, -0.209178, 0.049506, -0.488515, 0.554444, -0.525393, -0.094273, -0.029379, -0.147225, -0.063372, 0.085591, 0.094761, 0.276010, 0.523783, 0.296340, 0.276121, 0.194414, -0.297284, 0.045258, 0.106719, 0.377865, -0.156793, -0.123217, -0.015718, 0.143068, 0.509413, -0.142744, -0.155194, -0.144542, 0.828073, 0.246134, -0.342595, -0.162335, 0.625348, -0.057971, -0.679366, 0.470648, 0.100887, -0.191105, 0.186460, -0.015100, -0.134700, -0.052300, -0.272731, -0.102745, 0.228784, 0.128823, -0.097073, 0.233857, -0.010968, },
{0.055559, -0.312014, -0.381147, 0.348291, -0.473875, 0.396177, -0.192997, -0.088303, -0.154250, 0.004140, -0.378655, 0.314525, -0.053713, 0.146381, 0.199336, -0.280540, 0.183695, -0.416195, -0.085821, -0.381906, 0.198005, 0.079503, -0.115862, 0.115045, -0.191105, -0.435908, -0.156257, 0.246797, 0.309838, 0.131560, 0.452820, -0.457134, 0.000106, 0.022998, -0.000843, -0.554821, -0.120839, 0.069704, 0.272305, 0.200310, -0.054693, 0.031545, -0.020004, 0.549504, 0.079367, -0.045342, -0.370903, 0.053484, -0.063700, -0.349577, 0.237442, -0.107386, 0.027532, -0.084266, 0.035542, 0.259505, 0.240154, -0.207085, 0.257600, -0.201973, -0.226250, 0.229703, -0.223567, -0.151190, },
{-0.362094, 0.052323, 0.268922, -0.013440, 0.474727, -0.212654, 0.039806, 0.490066, 0.200857, -0.162778, 0.203478, -0.481778, -0.219396, 0.354882, -0.184219, 0.324566, -0.080731, 0.582189, -0.118101, 0.509676, -0.138527, 0.325521, 0.095423, -0.060316, -0.109185, 0.332013, 0.040441, 0.121259, 0.117761, -0.100637, -0.115514, 0.194133, 0.050991, 0.183118, -0.223347, -0.199616, 0.449858, -0.222289, 0.022576, -0.690047, -0.028135, 0.204518, 0.389677, -0.137450, 0.054918, -0.106969, 0.294638, 0.008395, 0.140291, -0.042851, -0.181531, -0.278447, 0.433226, -0.389322, -0.003268, 0.151360, 0.131371, -0.224164, 0.153830, 0.071233, 0.163117, -0.172748, 0.079274, 0.280464, },
{0.272496, -0.703531, 0.064072, -0.123953, 0.090070, -0.597945, -0.030011, 0.221524, 0.694767, 0.282937, -0.309973, 0.044798, 1.073822, 0.109593, -0.060678, 0.454160, 0.957196, 0.074904, -0.354168, 0.683219, 0.298326, -0.030607, -0.068705, -0.161946, -0.270753, -0.075944, -0.640317, 0.547521, 0.175688, 0.162299, -0.548233, -0.298337, 0.059666, 0.364384, 0.293991, 0.400850, 0.453037, 0.045844, 0.078831, -0.554047, 0.041298, -0.241926, -0.320350, -0.300738, 0.576382, 0.808033, 0.352609, -0.158794, 0.012846, 0.094603, -0.114678, 0.266587, 0.185748, -0.436517, -0.039894, 0.207954, 0.415426, 0.181638, -0.226126, 0.111793, -0.237733, -0.115052, 0.436638, -0.384549, },
{-0.096545, -0.525906, 0.295875, -0.362792, -0.093140, 0.276667, -0.382806, -0.172840, 0.294088, 0.048468, -0.196310, -0.162894, -0.000615, -0.425158, -0.180905, -0.058710, 0.189219, 0.404262, -0.034147, -0.144614, -0.102697, 0.131784, 0.467129, 0.523153, -0.401589, -0.262766, -0.106721, 0.089677, -0.136409, -0.077274, -0.197888, -0.419470, 0.027271, 0.011871, 0.220922, -0.083221, -0.058138, -0.231352, -0.296162, -0.029807, -0.431712, -0.454945, -0.102564, -0.358707, 0.404058, -0.174641, 0.123612, 0.038761, -0.305879, 0.320991, -0.020818, -0.301118, 0.393069, -0.000628, -0.430288, 0.110752, -0.052027, 0.387680, -0.214888, -0.214734, 0.047402, -0.139046, -0.106099, 0.107632, },
{-0.191261, 0.282118, 0.387758, 0.303899, 0.513170, 0.333846, 0.269111, 0.329231, -0.401594, -0.485826, 0.178935, -0.269832, -0.243902, -0.263474, -0.097974, -0.109360, -0.657052, 0.334798, 0.037400, -0.084216, 0.105632, 0.210860, -0.514349, -0.073495, 0.461993, 0.710585, 0.547543, -0.177232, -0.465847, -0.173794, -0.207445, -0.244689, -0.210945, 0.021564, 0.381642, 0.034458, 0.340327, -0.127436, -0.093873, -0.426753, 0.269801, -0.303358, 0.131230, 0.183810, 0.367410, 0.062044, 0.154623, 0.443191, 0.090706, 0.702379, 0.228912, 0.611557, -0.205135, -0.146312, 0.619789, -0.492851, -0.564641, -0.152758, -0.523553, 0.181659, 0.445366, -0.506423, 0.045781, -0.028892, },
{-0.013267, 0.579704, 0.289342, 0.247060, -0.040813, -0.089643, -0.226920, 0.200857, 0.157694, -0.295222, 0.118461, -0.191085, -0.536742, -0.309358, 0.594049, -0.132945, -0.437392, 0.537837, -0.045378, -0.151515, 0.348262, 0.312162, -0.088744, -0.215396, -0.609575, 0.405880, 0.175857, -0.477825, 0.031418, -1.018068, -0.156038, -0.347507, -0.046049, -0.294998, -0.289543, -0.240281, -0.436887, 0.594610, -0.362252, -0.297154, 0.172723, -0.081139, -0.427248, -0.352045, 0.371771, 0.375182, -0.169595, -0.010273, -0.276901, 0.161792, -0.055294, -0.271319, 0.202440, -0.431710, 0.201861, 0.062888, -0.081121, -0.215965, -0.685600, 0.376278, 0.034184, -0.452438, 0.274132, -0.333728, },
{0.078369, 0.270755, -0.241030, -0.227525, 0.354937, -0.309961, -0.093806, 0.232687, -0.155795, -0.104369, 0.343032, 0.226751, 0.206112, -0.074015, -0.377645, -0.117258, 0.066177, 0.047687, -0.105827, 0.264382, 0.093656, -0.325023, -0.019987, -0.161991, -0.068689, 0.176383, -0.066374, 0.089855, 0.034475, -0.137241, -0.090623, 0.100009, 0.274375, -0.347730, -0.045467, -0.159355, 0.162270, 0.095085, 0.170965, -0.249385, 0.181501, -0.051193, -0.045072, -0.029506, 0.041522, 0.289215, 0.168082, 0.023292, -0.115947, -0.383825, -0.216578, -0.178287, 0.002613, -0.124886, 0.006029, -0.060026, -0.178957, 0.256762, -0.248639, 0.170515, -0.166734, -0.056392, 0.418666, -0.137834, },
{0.166070, -0.474716, 0.238975, -0.037927, -0.179947, 0.259916, 0.056275, 0.033502, -0.093278, -0.051333, 0.342591, -0.854294, -0.214745, -0.143658, -0.597144, 0.154387, 0.216773, 0.408877, -0.275711, -0.065937, -0.044150, 0.394526, 0.255883, 0.453894, 0.329371, -0.294001, -0.080789, 0.406908, -0.265457, 0.144798, 0.244135, -0.028895, 0.011268, 0.171637, 0.238498, 0.122491, -0.180892, 0.054424, 0.171961, 0.139897, 0.153863, -0.186025, 0.218068, 0.279555, 0.659754, 0.128419, -0.487541, 0.033377, -0.008513, 0.165218, 0.417110, -0.094013, 0.563770, 0.437693, -0.256304, -0.213672, 0.196964, 0.584812, -0.033420, -0.356384, -0.128243, -0.166642, 0.186713, -0.252908, },
{-0.479468, 0.038955, 0.400519, 0.222867, 0.400059, -0.710591, -0.045297, 0.048392, 0.814701, -0.054431, 0.208126, 0.359147, 0.451719, -0.361860, -0.115919, 0.416828, 0.461394, 0.876071, -0.276359, 0.299419, -0.397075, -0.320858, 0.542843, 0.166184, -0.662723, -0.235192, -0.149138, 0.077020, 0.254978, -0.090741, -0.446229, 0.151707, 0.040781, 0.151788, 0.235964, 0.361523, 0.574252, 0.036979, -0.457894, -0.437079, -0.222645, 0.249703, 0.003855, -0.892927, 0.278239, -0.068429, 0.542950, -0.229868, -0.232732, -0.063493, -0.365325, -0.071094, 0.291374, -0.096715, -0.455088, -0.100787, 0.240439, 0.437141, -0.373063, -0.280605, 0.041655, 0.523386, 0.467241, 0.297664, },
{0.302420, 0.299557, -0.690741, -0.075172, 0.012244, 0.289396, 0.494532, -0.095342, -0.217732, -0.038657, -0.001897, 0.248617, 0.320220, -0.023212, 0.073344, 0.317157, -0.147747, -0.250938, 0.296672, -0.147491, 0.171851, -0.268977, -0.416067, -0.160679, 0.428467, 0.248605, 0.202236, 0.091466, -0.503540, 0.211986, 0.110468, -0.274536, 0.040774, 0.475665, -0.048280, 0.006408, 0.434806, -0.335495, 0.248557, 0.109948, 0.112075, -0.063205, 0.280457, 0.138828, -0.101491, -0.191032, -0.033753, 0.101696, 0.216141, -0.659026, -0.050847, 0.746025, -0.726662, -0.340865, 0.811415, -0.026295, -0.332596, -0.419582, 0.017640, 0.675279, 0.270901, -0.112541, -0.345479, -0.016952, },
{0.225513, -0.012544, -0.253104, 0.089659, 0.398808, -0.053528, -0.103995, 0.380104, 0.237010, 0.130143, 0.106479, 0.096090, 0.171018, -0.604210, -0.108850, -0.554008, 0.112235, -0.081646, -0.091998, 0.251650, -0.082457, -0.111698, -0.419220, 0.158756, -0.129903, -0.000266, 0.070674, 0.113736, -0.581222, 0.192075, -0.005289, -0.076548, -0.051128, 0.143907, 0.437448, 0.403029, -0.135167, -0.564268, -0.027788, -0.328219, 0.072915, -0.318793, 0.111684, -0.236784, -0.094772, -0.115685, -0.216620, -0.219052, -0.360783, 0.247386, 0.224981, -0.244902, 0.303419, -0.043799, 0.242046, 0.006392, -0.394213, 0.097572, -0.035306, -0.547887, 0.102706, 0.235632, 0.472920, -0.174376, },
{-0.003584, 0.487987, 0.371880, 0.715114, 0.057694, 0.204925, -0.431853, -0.031255, -0.180131, -0.393229, -0.580882, 0.048732, -0.424283, 0.171955, -0.169108, -0.295712, -0.370011, 0.266434, 0.280820, -0.368178, -0.081976, -0.158597, -0.265181, 0.044305, -0.252864, 0.062542, 0.367729, 0.046171, 0.015045, -0.126177, 0.277906, -0.529966, 0.113753, -0.170693, 0.241540, -0.213570, -0.055714, 0.388757, -0.274735, -0.231530, 0.257418, -0.494837, -0.348572, 0.037229, 0.467018, -0.235643, -0.201448, 0.211416, -0.583458, 0.253314, 0.127131, 0.028599, -0.164371, -0.545233, -0.296872, -0.029646, -0.044746, 0.178729, -0.395453, 0.500886, -0.556552, -0.539849, -0.015132, -0.163697, },
{0.086867, 0.311084, -0.078883, -0.472537, -0.455032, 0.221847, 0.122423, -0.467839, 0.039777, 0.374416, 0.188124, -0.663053, -0.280938, -0.386605, 0.132341, 0.201938, -0.807217, 0.262766, 0.261582, 0.118946, 0.202580, 0.206340, 0.573600, -0.067158, -0.092829, 0.052890, -0.243492, -1.011236, -0.086201, -0.727189, 0.094175, 0.119092, 0.141138, 0.198879, -0.361682, -0.127253, -0.621829, -0.083698, 0.501887, 0.109127, -0.107177, 0.157896, 0.138369, -0.633092, -0.308608, 0.329072, 0.010008, -0.125427, 0.257628, 0.136196, -0.562352, -0.000048, 0.005694, 0.257288, 0.188920, 0.093831, -0.034288, 0.280726, 0.115646, 0.043298, -0.090123, 0.017141, 0.026076, 0.073187, },
{0.528202, 0.163621, 0.175603, 0.084270, -0.060628, 0.114302, -0.103459, -0.009837, 0.074615, -0.014358, 0.099748, -0.375648, -0.026482, -0.024284, -0.056136, -0.023868, -0.591722, 0.505859, -0.221294, -0.052112, 0.189723, 0.576224, 0.181896, -0.008655, -0.186901, 0.042852, -0.315466, -0.301178, -0.075777, -0.514912, -0.169241, 0.079468, 0.252833, 0.295259, -0.273352, 0.150890, -0.146919, 0.073392, 0.431448, 0.040984, 0.073773, 0.117115, -0.005088, -0.027535, 0.260893, 0.362423, -0.146234, -0.324730, 0.157580, 0.237560, -0.218394, 0.054061, -0.164079, -0.365925, 0.485676, -0.312407, 0.102455, 0.639463, -0.788594, 0.278474, -0.209738, -0.750280, 0.082906, 0.251438, },
{0.212716, 0.359755, -0.438188, -0.013808, -0.001274, 0.090655, 0.086650, -0.100595, -0.418891, -0.308707, 0.087781, 0.341463, -0.181824, 0.008255, -0.188795, -0.352430, 0.145078, -0.566549, 0.632568, -0.677658, 0.006257, -0.364295, -0.564943, -0.127827, 0.285117, -0.039261, -0.167681, 0.247025, -0.006052, 0.681479, -0.015565, 0.094062, 0.227521, -0.489703, 0.218294, -0.277322, 0.055370, 0.030676, -0.105811, 0.022062, 0.151542, 0.001124, -0.045703, 0.587404, -0.054135, -0.040670, 0.014175, 0.477449, -0.147252, -0.484290, 0.434857, -0.163706, 0.254728, 0.031536, -0.161329, -0.133169, -0.249315, -0.718859, 0.407316, 0.057859, 0.088761, 0.268058, -0.062813, -0.378175, },
{-0.069157, 0.028349, -0.198318, -0.276036, -0.128811, 0.302284, 0.129965, 0.312726, 0.278048, -0.070567, 0.430420, 0.204283, 0.082102, -0.486620, -0.543882, 0.158425, 0.017222, 0.116087, 0.191437, 0.226908, -0.198598, -0.088816, -0.120181, 0.187276, -0.175249, 0.335318, 0.306416, -0.185366, -0.462435, 0.035408, 0.079596, -0.238029, 0.014793, 0.154173, 0.138311, 0.203871, 0.425946, -0.006463, 0.134546, -0.079556, 0.226659, -0.441503, 0.286293, -0.062562, 0.134725, -0.276631, -0.150893, 0.064205, -0.069636, -0.256832, 0.259346, 0.172661, 0.221813, 0.186988, 0.145921, -0.166067, -0.278436, 0.054668, -0.032991, -0.144071, -0.020241, -0.025029, 0.460775, -0.569750, },
{-0.119569, 0.176184, -0.170376, -0.243944, 0.318593, -0.633007, -0.284623, 0.297901, 0.219259, 0.031698, 0.347505, 0.688580, 0.303664, -0.239886, 0.366160, -0.065708, 0.220230, -0.324097, 0.002227, 0.019709, -0.123667, -0.419869, -0.385343, -0.553174, -0.419932, 0.045274, 0.377748, 0.187376, 0.175946, 0.209861, -0.612521, -0.003626, -0.164674, -0.304780, -0.094039, -0.225987, 0.033971, 0.028140, -0.502136, -0.454199, 0.020025, 0.233917, -0.368684, -0.364973, 0.057164, 0.242038, 0.359909, 0.187490, -0.930029, 0.195158, -0.161442, -0.210620, -0.132056, -0.475986, -0.149271, 0.320050, -0.344668, -0.359454, 0.421984, -0.506946, -0.013527, 0.259133, 0.665743, -0.154984, },
{-0.242596, 0.258660, 0.415878, -0.109550, 0.129356, -0.119747, -0.145619, -0.043754, -0.039059, 0.265281, 0.023698, -0.119636, -0.384491, -0.022391, 0.026693, 0.258079, -0.270939, 0.510101, 0.160119, 0.328616, -0.237572, 0.117236, 0.494875, -0.054040, -0.237185, -0.164563, -0.112161, -0.136578, 0.298939, -0.567288, -0.072014, 0.308644, 0.001708, -0.432538, -0.165125, -0.275545, -0.191781, 0.354712, -0.276880, -0.283869, -0.417830, 0.507225, -0.150639, -0.425050, 0.041217, 0.273185, 0.395803, 0.099627, 0.083667, -0.022751, -0.436067, -0.040508, -0.171237, 0.083453, -0.521100, -0.223154, 0.208070, 0.587931, 0.294288, -0.221643, 0.032597, 0.050457, 0.243200, 1.027390, },
{0.691784, 0.422480, 0.015760, 0.060690, -0.211630, 0.171181, 0.240562, -0.421354, -0.669726, -0.241467, -0.059208, -0.840704, -0.298462, -0.023100, -0.005860, -0.667079, -0.342245, 0.100312, 0.041667, -0.048177, 0.612885, 0.524515, -0.550767, 0.240930, 0.431676, -0.173933, 0.114353, -0.423857, -0.769247, -0.188027, 0.540338, 0.070806, 0.416307, 0.467707, -0.554753, 0.136216, 0.073573, -0.108403, 0.370607, 0.385323, 0.487874, 0.510068, -0.160719, -0.113499, -0.563656, -0.069840, -0.235897, -0.214754, 0.395500, 0.534788, -0.084650, 0.317509, 0.109663, -0.152866, 0.804584, -0.208025, -0.322002, -0.206100, -0.329388, 0.714050, 0.327703, -0.156840, 0.064868, -0.182811, },
{-0.426134, 0.016050, -0.224688, 0.471157, -0.448484, -0.006676, -0.489961, -0.048353, -0.033362, -0.172168, -0.018453, 0.469813, -0.226511, 0.119576, -0.115857, 0.085249, -0.017665, -0.283593, 0.095788, -0.353566, -0.389787, -0.378322, 0.342253, -0.246445, -0.077894, -0.072588, 0.244262, 0.114771, 0.235436, 0.048520, 0.316893, -0.057062, 0.346053, -0.286064, 0.088468, -0.717483, 0.030105, 0.281598, 0.027967, 0.420120, 0.039710, 0.162949, -0.166577, 0.246240, 0.256309, -0.522365, -0.315575, 0.168746, 0.096111, -0.674059, -0.329298, -0.040403, 0.089941, 0.284769, -0.312137, 0.145871, 0.161173, 0.051177, 0.177009, -0.208326, -0.557811, 0.143080, 0.095899, -0.243750, },
{-0.115715, -0.228066, 0.215372, -0.071128, 0.273532, 0.232182, 0.592829, 0.256233, -0.468898, -0.373331, 0.188071, 0.002762, -0.133226, -0.087208, 0.014514, 0.382511, -0.142193, -0.063834, 0.565831, -0.059981, -0.007115, 0.194914, 0.320719, 0.268440, 0.320853, 0.401279, -0.014938, -0.141976, 0.259038, 0.077563, 0.301588, -0.282194, 0.078925, -0.324459, 0.480538, -0.524052, 0.226594, -0.047653, 0.173998, 0.005039, 0.067611, -0.024538, 0.602700, 0.522925, 0.031242, -0.219149, 0.261486, 0.546730, 0.422134, -0.198887, 0.387355, -0.187425, 0.380188, 0.430166, -0.104051, -0.146066, 0.530015, -0.152422, 0.170205, 0.012243, -0.046354, 0.161430, -0.212372, 0.041952, },
{0.006208, 0.252004, -0.335983, 0.164774, -0.363951, -0.494443, 0.159444, 0.055061, -0.169059, 0.065275, 0.392127, 0.082339, -0.298700, -0.292829, 0.202696, 0.085682, 0.097642, -0.312827, 0.073894, -0.524507, -0.124833, 0.406617, -0.025056, -0.197953, -0.143513, -0.143871, 0.528219, 0.035482, 0.029282, 0.206691, 0.382877, 0.347434, -0.430822, -0.326472, -0.001241, -0.504655, 0.213891, 0.054158, -0.013493, 0.184149, 0.158516, 0.425905, -0.102682, 0.398300, -0.329037, -0.253553, 0.116857, 0.117871, -0.033345, -0.383535, -0.343943, -0.583320, 0.494809, 0.597848, -0.287648, 0.854534, 0.369079, -0.315246, 0.214610, -0.163164, -0.088827, 0.067783, 0.174325, -0.395983, },
{0.350717, -0.201253, -0.129910, 0.153239, -0.358688, 0.148699, -0.358248, -0.203903, 0.283467, 0.514766, 0.011880, -0.194512, 0.149950, 0.108009, -0.565087, 0.310469, 0.206175, 0.035392, -0.281775, -0.274794, 0.305538, 0.351841, 0.259396, 0.098660, -0.417518, -0.234595, -0.222549, 0.014315, 0.378999, -0.172715, 0.389715, -0.324631, 0.171781, 0.127817, -0.039501, -0.321695, -0.080298, 0.145818, 0.015680, 0.178634, 0.108809, -0.276643, -0.028720, 0.020735, 0.124258, 0.291604, -0.392301, 0.062852, 0.336901, 0.169067, 0.110020, 0.033168, 0.372533, -0.031960, 0.160572, 0.351131, 0.445304, 0.434054, -0.796134, -0.149939, -0.482088, -0.353011, -0.221732, -0.168934, },
{0.327435, -0.431550, 0.149968, -0.454195, 0.194849, 0.088544, 0.313953, 0.337166, -0.050417, 0.186603, 0.508404, -0.292982, -0.134110, -0.092664, -0.212660, 0.378823, -0.128065, 0.374087, -0.052065, 0.293354, 0.353257, 0.418369, 0.206353, -0.127579, 0.074122, 0.321050, 0.132127, -0.145023, 0.011983, -0.181563, 0.078614, -0.027235, 0.329011, 0.137760, -0.115860, -0.054378, 0.010068, 0.036895, 0.285383, -0.173246, -0.087326, -0.471177, 0.470615, -0.315656, 0.490557, 0.078377, 0.109320, 0.145172, 0.268013, 0.395837, 0.049094, 0.063200, 0.295548, 0.002944, 0.068099, 0.149581, 0.428672, 0.003820, -0.170462, -0.260132, 0.657964, 0.033398, -0.067840, 0.116065, },
{0.033157, -0.116010, -0.192190, -0.017797, 0.038720, -0.368502, -0.061183, 0.259303, -0.114171, -0.091803, -0.365613, 0.560328, -0.004975, -0.102959, 1.260288, 0.012467, 0.280243, -0.252689, 0.016247, -0.621793, 0.164078, -0.117127, -0.635810, -0.081254, -0.003004, 0.191733, 0.037617, 0.186975, -0.165939, 0.202599, 0.097069, -0.439204, -0.570740, 0.247876, -0.322539, -0.336233, 0.079509, -0.551272, -0.030918, -0.058126, 0.230251, -0.058381, 0.102917, 0.298927, -0.087414, -0.301781, -0.038687, 0.130503, -0.211938, -0.157476, 0.150460, -0.321492, -0.138461, 0.049668, 0.062188, 0.288366, 0.025501, -0.705476, 0.594438, 0.340577, 0.299842, 0.031035, -0.248360, -0.105877, },
{-0.376345, -0.068977, 0.158870, -0.187959, 0.214638, -0.063928, 0.321964, 0.199652, -0.361001, -0.205281, -0.310528, 0.070763, -0.368265, 0.360784, 0.116969, 0.529579, 0.003292, 0.048927, 0.742909, -0.355897, -0.151595, -0.256427, 0.467433, -0.355373, 0.078117, 0.378160, 0.035370, 0.213131, 0.246046, 0.241843, -0.242700, -0.045546, -0.151758, -0.239952, 0.244734, -0.628402, -0.007609, 0.182061, -0.124819, 0.200270, -0.615452, 0.076678, 0.138250, 0.327112, -0.114757, -0.148486, 0.163464, 1.091085, -0.330101, -0.462321, -0.233463, -0.161026, 0.119952, 0.176988, -0.651581, 0.132834, 0.719685, -0.101316, 0.501663, 0.007086, 0.155366, 0.287780, 0.091928, 0.157269, },
{0.052789, -0.436851, 0.720862, -0.150891, -0.245886, 0.580929, 0.192020, -0.044077, 0.258262, 0.124140, 0.172841, -0.386612, -0.017421, -0.047718, -0.692572, 0.375116, 0.007374, 0.649209, 0.005033, 0.020790, -0.137090, -0.223319, 1.115911, 0.473359, 0.044760, -0.259919, -0.164785, -0.222735, 0.000371, -0.143455, -0.080104, 0.278289, 0.142497, 0.188896, 0.169026, 0.496175, -0.141668, -0.042220, -0.002936, -0.000249, -0.046312, -0.135156, 0.065983, -0.267152, 0.251800, 0.262034, 0.095647, -0.242862, 0.413946, 0.419716, -0.241511, -0.047487, 0.176312, 0.272262, -0.220565, -0.328696, -0.154112, 0.666810, 0.009698, -0.053506, -0.011244, -0.033663, 0.128165, 0.254141, },
{0.042094, -0.051654, -0.230871, -0.356613, 0.122405, -0.262734, 0.492204, -0.212136, -0.096298, -0.215617, 0.418551, 0.172186, 0.122872, -0.049880, 0.094048, 0.645662, 0.053802, -0.252390, 0.341119, 0.262556, 0.226250, -0.110013, -0.108760, -0.533839, 0.165866, -0.019848, -0.048648, 0.275571, -0.110712, 0.227869, -0.128977, 0.354990, 0.259306, 0.123381, -0.258766, 0.016019, 0.510343, -0.251993, 0.422840, -0.166112, 0.335640, 0.044126, 0.129991, 0.056846, -0.026846, 0.524663, 0.302396, 0.112800, 0.040859, -0.528883, -0.069382, 0.043625, -0.157172, 0.185896, -0.035415, 0.265389, 0.138867, -0.401061, -0.037278, -0.116219, 0.334276, 0.139977, 0.479352, 0.008776, },
{-0.372992, -0.089322, 0.193714, -0.221375, -0.114596, -0.351576, -0.558849, 0.206478, 0.187687, -0.130838, -0.153090, 0.237530, 0.087420, -0.438589, -0.018732, 0.080387, -0.303844, -0.122359, -0.002662, -0.176328, -0.099784, -0.277440, 0.247576, 0.040039, -0.718613, 0.144037, 0.295733, -0.182189, 0.200785, 0.138236, -0.009166, -0.303646, 0.362921, -0.123241, -0.221445, -0.451351, 0.064657, 0.119040, -0.140013, -0.090817, 0.254296, -0.131818, -0.164181, 0.087195, 0.049730, -0.101231, -0.189446, 0.159255, -0.157685, -0.123031, 0.132145, -0.511828, 0.243397, 0.136633, -0.034427, 0.478614, 0.114609, 0.345079, -0.044253, -0.179189, -0.598788, -0.238966, -0.118328, -0.414919, },
{0.085727, 0.240674, 0.193680, -0.068253, -0.057570, -0.109822, -0.366757, 0.192307, 0.009100, 0.056080, 0.173512, -0.036430, -0.179606, -0.417306, -0.290503, 0.038622, -0.480389, 0.043303, -0.408930, -0.399711, -0.313433, -0.048260, 0.032466, 0.169195, -0.057901, -0.076601, 0.485236, -0.184280, -0.259448, -0.032656, 0.226724, -0.064175, -0.140891, -0.201960, -0.313784, -0.377152, 0.150384, -0.055798, 0.011770, 0.430193, 0.333460, -0.029999, -0.207735, -0.025573, -0.187957, -0.507495, -0.109832, 0.101503, 0.306398, 0.183948, -0.153301, -0.759480, 0.572209, 0.460243, -0.136262, 0.175870, -0.051516, 0.258357, -0.051827, 0.107480, -0.335148, -0.098859, -0.218455, -0.319664, },
{0.253160, -0.351406, 0.269941, 0.050296, -0.131868, 0.381430, 0.218486, -0.110898, 0.452487, -0.186278, -0.537172, 0.394274, 0.555996, -0.483285, 0.082532, 0.120224, -0.053809, 0.115356, -0.340816, 0.167150, -0.063291, -0.146968, -0.422109, 0.237674, 0.233275, 0.157480, -0.086471, 0.026524, -0.087164, -0.176517, -0.245116, -0.489776, 0.155044, 0.491775, 0.322102, 0.624741, -0.006508, -0.105207, 0.057827, 0.067304, -0.106823, -0.356836, 0.102629, -0.045655, 0.905209, 0.073291, -0.296584, -0.271923, -0.491155, 0.200597, 0.503353, 0.418763, -0.502294, -0.168337, 0.259646, -0.736860, -0.213081, 0.611364, -0.562429, -0.016241, -0.215985, -0.835971, 0.075437, -0.140686, },
{-0.084122, 0.589840, 0.113849, 0.253958, -0.230495, 0.365676, -0.220317, 0.086705, -0.233729, -0.065365, -0.071121, -0.401864, -0.558375, -0.070176, 0.081584, -0.140795, -0.187450, 0.045534, -0.421244, -0.780825, 0.084030, 0.219619, -0.475830, 0.006067, 0.516626, 0.126861, 0.512248, -0.087427, -0.606415, -0.378214, 0.227670, -0.141354, -0.229168, -0.086438, 0.146064, -0.341305, -0.211136, 0.150285, -0.116741, 0.016029, 0.354878, -0.150111, -0.020023, 0.414926, 0.278266, -0.737261, -0.198779, 0.375488, -0.301583, 0.301982, 0.320988, 0.090549, -0.134812, -0.001985, 0.126070, 0.045976, -0.488377, -0.322458, -0.296129, 0.345898, 0.081427, -0.780440, -0.147531, -0.139507, },
{-0.503222, 0.576862, -0.455728, 0.384544, 0.226388, 0.243663, 0.118486, -0.007629, -0.160931, 0.101505, 0.159815, 0.625991, 0.178374, 0.079156, 0.046941, 0.334110, 0.025624, -0.295307, 0.120272, -0.257423, -0.326683, -0.168329, -0.090224, -0.614423, -0.093740, -0.322848, 0.340355, -0.149751, 0.152830, -0.006285, -0.122593, 0.412026, -0.005511, -0.157106, 0.365694, -0.008895, -0.204165, 0.065310, -0.414207, 0.381948, -0.079993, 0.127149, -0.424399, -0.008390, -0.090750, -0.036683, 0.054020, 0.553680, -0.597596, -0.715827, -0.268057, 0.051831, -0.518463, 0.283911, -0.271574, -0.133468, -0.230119, -0.952330, 0.337452, -0.248077, -0.071875, 0.340802, 0.627249, -0.084465, },
{-0.075851, 0.046518, 0.515519, -0.315770, 0.420822, -0.214486, 0.079240, 0.153320, -0.091153, -0.013196, 0.263937, -0.252003, -0.330486, -0.236716, -0.052713, -0.128234, -0.401055, 0.416698, -0.153065, 0.361220, -0.091437, -0.167042, 0.666270, -0.323457, 0.095380, 0.127218, 0.167965, -1.036785, -0.218639, -0.558302, -0.448720, 0.135428, -0.219975, -0.046679, -0.199556, 0.023731, -0.221411, 0.003495, -0.268964, -0.327285, -0.077426, -0.259356, 0.111749, -0.736461, 0.431171, -0.037713, 0.343821, -0.044070, 0.045556, 0.338878, -0.015778, -0.070149, -0.088591, 0.229483, 0.322659, -0.163122, 0.145431, 0.584049, -0.513052, 0.110953, 0.341167, -0.529329, 0.458035, 0.179060, },
{-0.309245, 0.488395, -0.268645, 0.501886, 0.107422, -0.103702, -0.048327, -0.083244, 0.057388, -0.098930, 0.006407, 0.134964, 0.051247, 0.076883, 0.101281, 0.097069, 0.033948, -0.062934, -0.070726, -0.255870, -0.173928, -0.405012, -0.132063, -0.278904, -0.009540, -0.747722, 0.767143, 0.004091, 0.081857, 0.073838, 0.348173, 0.168585, -0.208334, -0.028171, -0.080425, 0.285792, 0.431534, 0.182537, -0.626018, 0.078092, 0.375526, 0.261196, -0.139261, 0.069290, -0.182155, -0.289582, -0.170178, 0.012314, -0.426768, -0.681496, -0.131209, 0.075388, 0.061223, -0.132223, -0.195991, -0.255284, 0.078649, -0.455858, -0.222982, -0.140051, -0.140812, 0.349730, 0.470042, 0.247876, },
{0.235618, -0.501833, -0.016979, -0.171637, 0.163013, 0.135173, 0.320644, -0.046541, 0.021717, -0.144547, 0.191259, 0.210343, -0.047375, -0.169300, -0.622373, 0.445682, -0.029305, -0.319380, 0.343935, 0.672304, 0.073258, -0.129695, 0.482644, 0.268087, 0.072557, 0.306415, -0.635063, -0.235583, 0.557015, 0.291112, -0.433069, 0.138818, 0.604830, -0.095944, 0.104614, -0.143844, 0.210429, 0.235961, 0.551809, -0.030232, 0.149276, -0.015298, -0.086743, -0.011055, 0.078667, 0.528119, 0.168699, 0.184275, 0.167451, -0.059753, 0.077730, -0.177504, -0.041531, -0.005509, 0.151554, -0.049094, 0.614544, 0.728482, -0.179405, -0.170759, -0.416038, -0.105571, -0.112549, -0.338892, },
{-0.108030, -0.285622, -0.027481, -0.122461, -0.235623, -0.010928, 0.340265, 0.090113, 0.055236, -0.421881, 0.148472, 0.312030, -0.014475, 0.151648, 0.075148, 0.161914, 0.141402, -0.425357, 0.449698, -0.276625, -0.071403, -0.146023, -0.147012, 0.080876, -0.016242, 0.035433, 0.232682, 0.115385, 0.163566, 0.499167, 0.141717, -0.119811, -0.366254, 0.230812, 0.349072, -0.412861, 0.012159, -0.388504, 0.047181, 0.124476, 0.059302, 0.159148, 0.137974, 0.436469, -0.211009, -0.242190, -0.063012, 0.316106, 0.090311, -0.382138, 0.082805, -0.114618, 0.122188, 0.471781, -0.189437, 0.390893, 0.311567, -0.468165, 0.917307, -0.045091, 0.150267, 0.438110, -0.007566, -0.159754, },
{-0.694044, -0.098862, 0.865504, -0.402726, 0.466925, 0.144090, 0.153539, 0.322953, 0.391158, -0.510713, 0.588878, -0.135090, -0.352005, -0.337333, -0.073445, 0.283298, -0.327863, 0.534548, 0.297140, -0.154473, -0.338859, 0.318999, 0.560964, -0.228065, -0.167495, 0.834982, 0.523097, -0.715263, -0.244223, -0.913025, -0.163281, -0.225888, -0.563056, -0.615547, 0.360349, 0.095115, -0.151085, -0.173543, -0.612989, -0.491572, -0.411534, -0.224510, 0.324759, 0.224928, 0.530318, -0.432426, 0.539677, 0.364108, -0.122618, 0.238686, 0.112131, 0.026767, -0.067046, 0.222103, 0.055280, -0.203944, -0.108101, 0.401257, -0.054870, -0.033857, 0.435607, -0.573426, -0.091648, 0.670381, },
{0.018345, -0.422077, -0.021074, 0.311578, -0.158066, 0.235838, -0.427194, -0.000952, 0.530447, 0.078619, -0.428013, 0.138780, 0.807574, -0.243278, -0.060550, -0.072788, 0.373872, -0.253750, -0.141059, 0.040627, 0.097083, 0.301495, -0.291275, 0.137261, 0.149562, -0.159923, -0.324438, 0.514303, 0.266645, 0.289743, -0.099482, -0.512226, -0.181153, 0.211964, 0.291923, 0.432804, -0.126466, -0.244751, 0.104298, -0.129851, 0.135989, -0.057504, -0.297706, 0.038415, 0.653714, 0.241939, -0.595605, -0.079061, -0.272273, 0.217384, 0.496791, 0.201687, -0.097510, 0.040378, -0.028205, 0.414532, 0.444267, -0.080057, -0.211682, -0.123901, -0.114638, 0.026307, -0.073300, -0.639040, },
{0.589504, 0.419863, -0.255580, -0.264542, -0.734772, 0.106692, 0.328032, -0.579285, -0.038406, 0.185725, -0.176919, -0.608501, -0.140898, -0.133941, 0.381683, 0.034708, -0.734600, -0.593591, 0.066018, 0.011803, 0.371950, 0.805202, -0.342446, 0.155905, 0.005770, -0.288388, -0.132994, -0.514430, -0.220621, -0.362549, 0.425204, -0.267145, 0.140584, 0.461663, -0.798258, -0.601200, 0.112204, 0.061373, 0.587266, 0.740872, 0.106165, 0.329932, 0.465085, -0.164460, -0.371098, -0.076578, -0.461176, -0.396558, 0.456201, -0.075082, -0.006684, 0.222231, 0.152826, 0.181374, 0.526899, 0.489320, 0.088729, -0.765215, -0.059838, 0.393987, -0.103104, 0.138545, -0.155874, -0.483229, },
{0.264042, 0.357554, -0.484896, 0.084257, -0.186420, -0.009594, -0.449602, -0.358001, 0.163117, -0.037624, -0.110701, 0.261542, -0.060413, -0.323715, 0.329666, -0.379569, -0.152464, 0.003058, -0.184396, 0.050368, 0.352552, -0.280729, -0.160613, -0.242040, -0.080136, 0.073614, -0.361544, -0.254045, -0.177977, -0.081135, -0.408557, 0.430560, 0.512185, 0.097263, -0.393663, 0.409154, -0.250981, 0.085165, 0.284032, 0.464509, 0.056590, 0.108468, -0.452748, -0.418049, -0.349431, 0.312233, -0.395223, -0.515618, 0.168919, -0.411231, -0.482632, 0.068063, -0.483199, -0.383111, 0.205374, -0.307939, -0.105259, 0.102956, -0.211658, 0.340754, -0.419583, 0.138007, 0.153388, -0.024947, },
{-0.176864, -0.181842, 0.285773, 0.371127, 0.109480, -0.279742, 0.024173, 0.066440, 0.076196, -0.073947, -0.346167, 0.004330, 0.229550, 0.045683, 0.424173, -0.016131, -0.166232, 0.428051, -0.498792, 0.581280, 0.322961, 0.302758, -0.362188, -0.124265, 0.165631, 0.023062, -0.029103, 0.154400, -0.531497, -0.374937, -0.072680, -0.284803, -0.618238, 0.122189, -0.407672, 0.519254, 0.046241, -0.290310, -0.243723, -0.521708, 0.137351, -0.046535, 0.056103, -0.132557, 0.066286, -0.067683, -0.008293, -0.451232, -0.183748, 0.329373, 0.137752, 0.137724, -0.334510, -0.597106, 0.139821, -0.205545, -0.198047, -0.311806, 0.039399, 0.478437, 0.423890, -0.358389, -0.174429, 0.197185, },
{0.158712, 0.323468, -0.684849, 0.138817, -0.070869, -0.487918, 0.141858, -0.101502, -0.117469, -0.119786, 0.024062, -0.746286, -0.189979, 0.165153, 0.153707, 0.067697, -0.520652, 0.254162, -0.277826, 0.321915, 0.373636, 1.045212, 0.150707, -0.439720, -0.784884, 0.132725, -0.053338, -0.636074, -0.083257, -0.451085, 0.510524, 0.178903, 0.128226, 0.145606, -0.819129, -0.318687, 0.471678, 0.187490, 0.201828, 0.112619, 0.699971, 0.381637, -0.168212, -0.123733, -0.305342, 0.384939, 0.249658, -0.143132, 0.716684, 0.403587, -0.114820, 0.025133, 0.597051, -0.005413, 0.276047, 0.662062, 0.468350, -0.307308, -0.472995, 0.950327, -0.118543, 0.027308, 0.179130, -0.451617, },
{0.282507, -0.294060, 0.104547, -0.075678, -0.522768, 0.480433, 0.527587, -0.044010, -0.214217, 0.045887, 0.189003, -0.574210, -0.214515, 0.165377, -0.323016, -0.197023, 0.188939, 0.602174, 0.068932, 0.427082, 0.369423, 0.181161, -0.026836, 0.472988, 0.672056, -0.029334, -0.272554, 0.221820, -0.150697, 0.109544, 0.023494, 0.087316, 0.852883, 0.296504, -0.013751, 0.391218, -0.343542, 0.336229, 0.444368, 0.236908, 0.057329, 0.089044, 0.055539, 0.205072, 0.050415, 0.356142, -0.184121, -0.149781, 0.386801, 0.638359, 0.251036, 0.467915, -0.051349, 0.166373, 0.100723, -0.288088, 0.024154, 0.487947, -0.177044, -0.265626, -0.086411, -0.401986, 0.052174, -0.019698, },
{-0.288027, -0.066758, 0.383419, 0.371187, -0.082942, 0.052073, -0.503774, 0.247736, -0.065295, -0.162915, 0.022149, -0.516499, -0.298698, 0.538449, -0.418642, -0.287653, 0.377712, 0.288278, -0.164768, -0.277795, -0.206966, 0.026768, 0.196210, 0.483094, -0.534251, 0.152244, -0.011428, 0.169039, 0.477570, -0.171296, 0.432813, 0.297259, 0.102600, -0.506230, 0.252955, 0.000590, 0.220112, -0.035900, -0.477090, -0.302388, 0.456563, -0.334180, -0.439420, 0.058878, 0.266867, -0.271571, -0.120729, 0.136979, 0.188722, 0.147339, 0.177853, -0.390946, 0.453961, 0.159574, -0.343031, 0.054658, -0.237790, 0.459524, -0.236031, -0.469354, -0.520212, -0.573600, -0.071998, 0.117907, },
{0.078838, 0.002806, 0.269972, 0.122744, 0.098309, 0.195283, -0.100370, 0.178511, -0.315846, -0.246470, -0.193720, 0.338846, -0.315863, -0.264574, 0.309596, -0.037474, -0.295714, -0.080688, 0.016300, -0.415178, 0.293941, -0.141597, -0.407205, 0.085552, 0.266280, 0.468760, 0.347138, -0.231674, -0.392614, -0.522241, 0.118798, -0.225234, -0.062683, -0.134144, -0.035330, 0.182010, -0.240950, -0.509396, -0.376154, -0.308442, -0.105202, -0.361684, -0.120485, 0.246197, 0.149459, -0.413353, -0.026364, -0.112447, -0.459514, -0.019815, -0.089903, 0.484690, -0.455508, -0.204854, 0.061231, -0.381702, -0.532108, 0.042299, 0.147061, 0.137416, 0.057891, -0.323550, -0.242400, 0.130032, },
{0.072246, 0.191832, -0.162119, 0.190831, -0.086590, 0.061285, -0.228413, -0.129516, 0.048879, -0.187340, -0.206759, 0.041340, 0.218189, 0.392787, 0.201820, -0.039068, -0.024016, -0.214439, 0.088929, -0.072897, 0.364082, -0.038615, -0.404111, -0.523377, 0.040480, -0.195757, -0.104612, 0.157158, 0.394346, 0.205526, -0.211415, 0.190118, 0.057017, -0.184280, -0.221397, -0.129580, -0.150771, 0.853391, 0.063623, -0.038042, -0.212172, -0.056782, -0.350052, -0.075243, -0.095168, 0.815315, 0.162213, 0.179866, 0.056857, -0.053731, -0.219116, -0.013275, -0.409891, -0.440685, 0.291880, 0.207580, 0.179607, 0.173969, -0.093705, 0.017430, -0.494059, -0.082040, 0.342560, -0.269350, },
{0.545173, -0.164433, -0.109064, -0.732978, -0.091535, 0.270094, 0.142362, -0.122765, -0.447017, 0.401286, 0.213952, -0.098371, -0.050840, -0.152121, 0.097636, -0.268623, -0.361020, 0.172330, 0.144469, -0.016283, 0.089662, 0.171966, -0.072257, -0.375411, 0.412402, 0.127774, -0.039840, -0.390771, -0.536525, 0.124105, -0.425383, 0.621385, 0.299116, 0.475973, -0.108430, 0.153327, -0.678077, -0.494291, 0.384424, -0.088323, -0.642387, -0.139706, 0.477710, -0.187370, -0.187056, 0.134680, 0.049221, -0.060152, 0.305325, 0.127325, -0.386808, 0.347802, -0.339036, 0.002271, -0.086174, -0.044507, -0.180709, -0.108658, 0.567529, -0.126975, 0.440783, 0.024008, -0.088996, 0.271332, },
},
};

const float W1[HIDDEN_LAYER_SIZE][AC_SPACE_SIZE] = {
{-0.210634, -0.265345, -0.218182, -0.129287, },
{0.215262, -0.056952, 0.252118, -0.492060, },
{-0.114760, 0.231777, 0.220688, -0.137183, },
{-0.185778, 0.339567, 0.132201, -0.324532, },
{0.300171, 0.231358, 0.240577, 0.053110, },
{0.103592, -0.413034, 0.296546, 0.067249, },
{0.146995, 0.063275, 0.190982, 0.030849, },
{0.113888, 0.076717, 0.216853, 0.234717, },
{0.112068, 0.155225, -0.194474, 0.281297, },
{0.096226, -0.105132, -0.160210, 0.108596, },
{0.226746, -0.172838, 0.013441, -0.047213, },
{0.316770, 0.102192, -0.007409, 0.575991, },
{0.033053, 0.140942, -0.220887, 0.071238, },
{-0.074031, 0.086452, -0.078801, -0.278434, },
{0.087798, -0.051802, 0.052295, 0.145506, },
{0.318441, 0.306153, 0.022506, -0.075357, },
{-0.283906, 0.202590, -0.392753, 0.319474, },
{0.091349, 0.056900, 0.062894, -0.391471, },
{0.033101, 0.141121, 0.381487, -0.064961, },
{0.057718, 0.064613, -0.185613, 0.432840, },
{-0.325902, -0.012756, -0.195510, -0.245668, },
{0.048088, -0.126876, -0.184314, -0.383836, },
{0.005741, 0.178714, 0.035168, 0.253278, },
{-0.505176, 0.070664, -0.072631, -0.028219, },
{-0.134994, -0.209815, 0.082083, 0.028863, },
{0.103827, 0.241257, 0.258134, 0.030931, },
{0.409542, -0.246114, 0.149315, -0.035849, },
{-0.165774, 0.311866, -0.468945, 0.084463, },
{0.031676, 0.061575, 0.010669, 0.207822, },
{-0.301091, -0.098379, 0.152113, 0.027631, },
{-0.423521, -0.249148, -0.111705, 0.057064, },
{0.255574, -0.026261, -0.085238, -0.259601, },
{-0.047893, -0.206173, -0.065240, -0.197233, },
{-0.283393, -0.139053, -0.448699, 0.009692, },
{-0.098074, 0.286347, 0.100156, 0.284337, },
{-0.312442, -0.030231, 0.025858, 0.415016, },
{-0.135913, 0.319162, 0.011655, -0.134697, },
{-0.089815, -0.051877, 0.178385, -0.216385, },
{-0.290868, -0.289358, -0.426857, -0.097277, },
{-0.064728, -0.159192, -0.227669, -0.212761, },
{-0.171164, 0.139552, -0.076692, -0.207601, },
{0.044704, -0.233756, -0.128107, -0.199562, },
{0.146162, -0.192443, 0.058369, 0.181799, },
{-0.106684, 0.418677, 0.121821, -0.206384, },
{-0.000402, 0.348791, -0.169674, 0.113174, },
{0.170367, 0.222334, -0.147440, -0.268212, },
{0.254221, 0.204287, 0.145216, -0.016991, },
{0.136530, 0.428015, 0.428997, 0.087195, },
{-0.209299, -0.291626, -0.028909, -0.185832, },
{-0.281675, 0.094753, 0.259954, -0.487023, },
{-0.372489, -0.018444, 0.068765, 0.121482, },
{-0.106932, 0.048487, -0.151506, -0.015929, },
{-0.209409, 0.072245, 0.005660, -0.063150, },
{-0.015897, -0.346413, -0.012349, 0.095197, },
{-0.357375, 0.068777, -0.151353, -0.215749, },
{0.165385, 0.200041, -0.182162, -0.259540, },
{0.196778, 0.185747, -0.225073, -0.167992, },
{-0.374457, -0.055607, 0.117260, -0.027521, },
{-0.063120, -0.205765, 0.302215, 0.120831, },
{-0.376295, -0.026690, 0.353498, -0.440556, },
{0.046511, 0.007335, 0.249478, 0.309431, },
{-0.013807, -0.403206, -0.003542, 0.277967, },
{0.154487, 0.114757, 0.057431, -0.252423, },
{0.111149, -0.185334, 0.097637, 0.167797, },
};

const float b0[HIDDEN_LAYER_SIZE] = {-1.218580, -0.038987, 0.326133, 0.344304, -0.502351, -0.590933, 0.232315, -0.186921, 0.139766, -0.126166, 0.429590, 0.052969, -0.032345, -0.041388, -0.226503, -0.664439, -0.502839, 0.555109, 0.320723, -0.058349, 0.496057, 0.368724, 0.008323, -0.137203, 0.223207, 0.027689, 0.290789, -0.060235, 0.308352, 0.327474, -0.841068, 0.404992, 0.022274, 0.006144, 0.233795, -0.781025, -0.134380, -0.372346, -0.135274, 0.686735, 0.050647, -0.541894, -0.045594, 0.365070, 0.075057, -0.236587, 0.151870, 0.036624, -0.509663, 0.478033, -0.161204, -0.034039, -0.236999, 0.165858, 0.041962, 0.272367, -0.007282, 0.693680, 0.363139, 0.018644, -0.059855, 0.018791, -0.277110, -0.003168, };

const float b_hidden[NUM_HIDDEN_LAYER - 1][HIDDEN_LAYER_SIZE] = {
{0.391037, 0.034662, 0.052949, -0.249865, 0.061635, -0.186248, -0.013933, -0.169649, 0.435920, 0.060765, -0.163186, -0.596873, 0.228435, -0.404300, 0.142361, -0.024346, -0.575897, 0.545281, -0.462723, 0.721868, 0.364294, 0.470734, 0.108508, 0.014105, 0.286764, -0.067654, -0.227824, -0.635621, -0.406257, -0.346805, -0.003223, 0.072988, 0.046809, 0.522439, -0.354564, 0.374577, 0.140062, -0.354513, 0.376776, -0.093805, 0.031760, 0.049899, 0.278670, -0.571674, 0.043613, 0.324365, 0.057882, -0.497321, 0.412473, 0.754751, -0.136305, 0.477350, -0.137711, -0.151774, 0.485742, -0.111231, -0.091796, -0.116293, -0.123354, 0.288016, 0.330377, -0.054608, -0.192194, -0.058444, },
};

const float b1[AC_SPACE_SIZE] = {-0.075564, -0.299625, -0.279118, -0.005179, };

const float ob_mean[OB_SPACE_SIZE] = {0.012132, -0.517095, -0.032480, 3.542934, -0.019340, -0.028535, -0.005412, -0.194253, -0.064473, 4.113645, -0.009106, };

const float ob_std[OB_SPACE_SIZE] = {0.194088, 0.343223, 0.204875, 2.101579, 0.286483, 0.652641, 0.376587, 0.896742, 0.428897, 2.256389, 0.577180, };

#endif
