#ifndef __AP_MOTORS_POLICY_DEF_H__
#define __AP_MOTORS_POLICY_DEF_H__

const int STATE_SIZE = 9;
const int OB_SPACE_SIZE = 11;
const int AC_SPACE_SIZE = 4;
const int NUM_HIDDEN_LAYER = 2;
const int HIDDEN_LAYER_SIZE = 64;
const float FINAL_BIAS = 3.500000;

const float W0[OB_SPACE_SIZE][HIDDEN_LAYER_SIZE] = {
{-0.131560, -0.570817, 0.851315, -0.253798, -0.290673, 0.443220, -0.677744, 0.019841, 0.159397, -0.554399, -0.609549, -0.252462, 0.078425, 0.640480, 0.166798, -0.092379, 0.376027, -0.058752, -0.472483, 0.195776, -0.609994, 0.549671, 0.009255, -0.203616, -0.232243, -0.272306, 0.227534, 1.042601, -0.371987, 0.055912, -0.754306, 0.424096, 0.005348, -0.770928, 0.574967, 0.532197, -0.095919, 0.143249, 0.393704, -0.244208, 0.063159, 0.370762, -0.100446, -0.215466, 0.293634, 0.289867, -0.141101, -0.266269, 0.729980, -0.192209, 0.117769, 0.199810, 0.166673, -0.780332, -0.570279, -0.211977, -0.128547, -0.106230, -0.068042, 0.585311, 0.093641, 0.267175, -0.678096, 0.131796, },
{0.709837, 0.406445, -0.060752, 0.165014, -0.107867, 0.298145, 0.275873, 0.938627, 0.944618, 0.715401, -0.685104, -0.149213, -0.308547, -0.639887, 0.070000, 0.247197, 0.260616, 0.235885, 0.218349, -0.134542, 0.210907, -0.071497, -0.244223, -0.748525, -0.601966, -0.412004, -0.261984, -0.398357, 0.396624, -0.011080, 0.006087, -0.069750, 0.490341, 0.293266, 0.515916, -0.349592, -0.016404, 0.121498, 0.170317, -0.314992, 0.210856, 0.175491, -0.186518, -0.064910, 0.307424, -0.002069, -0.124854, -0.562383, 0.107894, -0.806617, -0.416769, -0.168271, 0.033250, 0.582913, 0.215980, 0.124718, -0.122790, 0.264357, -0.412729, 0.450711, -0.248719, 0.528393, -0.105163, -0.124358, },
{-0.443192, 0.110250, -0.013529, -1.102525, -0.554330, -0.117720, -0.098933, 0.027175, -0.292649, -0.170269, 0.339300, 0.015863, -0.764968, -0.388981, 0.197986, 0.236361, 0.100378, -0.053441, -0.222825, 0.235072, -0.136294, -0.154946, 0.274142, 0.526129, 0.132824, 0.400952, 0.380651, 0.043911, 0.089902, 0.181978, 0.655588, -0.422989, -0.337335, -0.203821, -0.320281, -0.809664, 0.592429, 0.267153, 0.082619, -0.036815, -0.356299, 0.009905, -0.195549, 0.059201, 0.138298, 0.216111, 0.635276, -0.378671, -0.095634, -0.221677, -0.598718, 0.027424, 0.066520, -0.290681, -0.362959, -0.411509, -0.471822, -0.513286, 0.187079, -0.537502, 0.274861, -0.162598, -0.782227, -0.225199, },
{0.115774, 0.077836, -0.568699, 0.000202, -0.330353, -0.137156, -0.237215, -0.620350, -0.206926, 0.447141, -0.235851, -0.601328, 0.618439, 0.072883, -0.010128, -0.587325, -0.040077, -0.394494, 0.612217, -0.379343, -0.086807, -0.263952, -0.035510, -0.352657, -0.649748, -0.067423, 0.650556, -0.091903, -0.066705, 0.827106, 0.084690, -0.161498, -0.076735, 0.069211, -0.170936, -0.000957, 0.190924, -0.241319, -0.868702, -0.045682, -0.294430, 0.553316, 0.027708, -0.311328, 0.012646, -0.034002, -0.025791, -0.548534, 0.227520, -0.774558, 0.293822, 0.130705, 0.576649, -0.260618, 0.367006, -0.239581, -0.234558, -0.453029, -0.045914, 0.334589, 0.135754, 0.002576, 0.199616, 0.476156, },
{-0.364379, 0.018957, 0.755284, 0.337453, 0.585891, 0.928039, 0.458531, 0.097932, -0.114046, -0.204256, 0.099660, -0.083548, 0.045782, 0.462821, 0.234976, -0.255153, -0.213925, 0.607965, -0.224790, 0.644896, 0.018812, -0.061641, 0.231591, -0.165524, -0.378325, 0.456144, -0.073983, -0.118035, -0.437935, 0.589054, -0.407071, -0.065914, 0.354900, -0.041860, 0.442454, 0.011693, 0.070866, 0.560350, 0.102475, 0.212419, -0.270535, 0.304003, 0.471509, -0.188093, -0.614086, 0.036454, -0.109180, -0.511648, -0.124263, -0.620806, 0.569075, 0.655860, -0.241241, -0.303045, 0.188728, -0.196357, -0.217461, 0.267264, -0.212410, -0.507553, -0.066231, -0.312177, 0.155998, -0.532335, },
{-0.508971, 0.552539, -0.394668, 0.034328, 0.442527, -0.419028, 0.058582, -0.011011, 0.089024, -0.064845, -0.300210, -0.121898, -0.470625, 0.005290, -0.445122, -0.755313, -0.619715, -0.086662, -0.195447, 0.291244, 0.284719, 0.332137, 0.861039, 0.300532, -0.153390, -0.563401, -0.023808, -0.303630, 0.071525, -0.056541, 0.174055, -0.705813, -0.554446, 0.111769, -0.126622, 0.143805, 0.748698, -0.296804, -0.011440, -0.069341, 0.514367, -0.709276, -0.301760, 0.198699, -0.275705, 0.695368, -0.437646, -0.361821, 0.372245, -0.187477, 0.145051, 0.335991, -0.139609, -0.054250, 0.173977, -0.631599, -0.395317, 0.091771, 1.029570, 0.141843, 0.291933, 0.252374, -0.052955, 0.747832, },
{-0.410583, -0.484734, 0.197034, 0.062572, -0.584706, 0.296509, 0.299891, -0.288752, 0.081613, 0.442821, 0.210018, -0.147779, -0.505905, -0.569700, 0.632050, -0.594012, -0.585149, -0.167325, -0.095440, 0.551468, 0.337879, -0.536406, -0.378378, 0.063154, 0.738453, -0.003077, 0.221054, -0.019678, 0.194251, -0.200982, -0.115238, 0.231479, 0.135802, -0.100296, 0.455749, 0.220726, 0.418630, 0.171920, -0.175697, -0.049750, -0.555297, 0.471467, -0.149943, -0.617047, -0.167346, 0.858006, -0.524658, 0.423923, 0.605427, 0.072354, -0.030919, 0.518051, -0.437744, -0.177111, -0.339769, -0.112822, 0.522855, 0.225564, -0.316270, 0.435070, 0.319672, -0.531289, 0.368591, 0.102612, },
{-0.114852, 0.432301, -0.049329, -0.249143, -0.208187, 0.097399, 0.514678, -0.404762, 0.164364, -0.160223, -0.109636, 0.796951, -0.206778, 0.404937, -0.201189, -0.007142, -0.368546, 1.075266, 0.855349, 0.444261, -0.179628, 0.016360, 0.127094, -0.041145, -0.044819, -0.016689, -0.237857, -0.156033, 0.079700, -0.283952, 0.627789, 0.611477, 0.475482, -0.702375, 0.486587, -0.110582, 0.000048, -0.307455, -0.668290, -0.741437, 0.190407, 0.065282, 0.407235, 0.540024, 0.057266, 0.076803, -0.166633, 0.487835, -0.218520, -0.075267, 0.278790, -0.649312, 0.550111, -0.209921, -0.112416, -0.121208, -0.069164, 0.743878, 0.412678, -0.372371, 0.773773, 0.822568, -0.529575, 0.374574, },
{-0.268368, 0.524784, 0.451972, -0.152937, -0.188958, -0.190730, -0.497891, -0.426160, -0.260967, 0.674916, -0.589919, 0.469699, -0.219018, -0.156252, -0.028095, 0.072320, 0.096179, 0.286322, -0.186068, -0.111543, -0.042599, 0.537285, -0.017960, 0.412060, 0.034141, 0.444599, -0.017060, 0.191396, 0.557595, -0.234482, 0.050349, 0.237343, -0.187542, -0.260584, -0.353361, 0.409230, 0.176753, -0.730554, -0.126553, -0.491547, 0.347279, 0.284945, 0.301590, 0.148114, 0.183994, -0.006287, -0.133541, -0.046559, -0.429556, -0.526798, 0.372316, 0.410981, -0.333351, 0.191421, 0.143437, -0.419795, 0.512423, 0.410366, -0.140452, 0.159138, -0.142162, 0.027865, -0.149813, -0.183738, },
{-0.240664, -0.043265, 0.194930, 0.570771, -0.167989, -0.173110, -0.054706, -0.268600, -0.401527, -0.024383, 0.186709, 0.085426, -0.021742, 0.332107, 0.722532, -0.032785, 0.402577, 0.101532, -0.285617, -0.378817, 0.354425, -0.099006, 0.463910, 0.334580, -0.003720, -0.147927, 0.046305, -0.083833, -0.542095, 0.030262, 0.232998, 0.197709, 0.546683, 0.196510, 0.224973, -0.520316, 0.316867, 0.314921, -0.191220, -0.527427, 0.232881, 0.013374, 0.478710, 0.314933, -0.381459, 0.078613, -0.345161, -0.372473, 0.232939, 0.359905, -0.570413, -0.540340, -0.669266, 0.086959, -0.583646, -0.251113, -0.387417, 0.137327, 0.103799, -0.201213, -0.703147, -0.222136, 0.268796, -0.096654, },
{-0.044242, 0.066513, 0.149666, 0.234273, 0.101227, 0.285953, -0.026113, 0.167279, 0.256962, -0.053112, -0.124009, 0.273786, 0.396149, -0.100121, -0.005440, -0.072785, 0.043122, -0.009859, -0.575560, -0.102003, -0.581534, -0.226239, 0.076096, -0.474167, 0.438546, 0.419699, 0.727139, 0.309477, -0.291871, 0.287002, 0.279606, 0.266653, 0.054501, 0.398220, -0.276765, -0.383016, -0.475300, -0.164424, -0.336009, 0.232643, -0.457835, -0.337930, 0.255083, -0.714094, -0.121679, -0.219376, 0.411758, 0.038062, -0.110615, 0.155338, 0.348371, -0.437871, -0.171582, -0.064437, 0.178007, -0.537268, 0.003215, 0.202653, -0.484358, -0.045815, 0.203765, -0.404104, 0.392668, 0.183167, },
};

const float W_hidden[NUM_HIDDEN_LAYER - 1][HIDDEN_LAYER_SIZE][HIDDEN_LAYER_SIZE] = {
{
{0.352359, 0.143458, 0.082378, 0.004478, -0.022162, 0.198000, 0.327904, 0.144487, 0.270142, -0.058264, 0.211832, 0.006186, 0.056199, 0.200144, -0.298502, 0.298002, 0.218319, -0.138575, 0.060059, -0.090918, -0.083886, -0.199575, -0.219754, 0.536055, 0.191869, -0.067173, 0.137133, -0.290841, 0.040942, -0.049882, 0.170576, 0.241195, 0.070710, -0.052314, -0.282610, -0.029546, 0.192005, -0.015748, -0.138441, -0.099840, 0.045291, 0.013311, -0.021822, -0.017156, -0.122580, -0.007164, 0.026801, 0.177934, -0.123789, 0.384492, -0.194514, 0.035387, -0.233716, 0.214414, -0.323576, 0.017951, 0.148028, 0.295035, 0.029929, 0.131218, 0.598987, -0.124664, -0.327652, 0.061853, },
{-0.291819, 0.264568, -0.351178, 0.202364, 0.127797, 0.000325, -0.104209, 0.299170, -0.124972, 0.038305, 0.251845, -0.017123, 0.284126, 0.240015, -0.158831, 0.250943, -0.392933, -0.385291, 0.075528, -0.228963, 0.459301, -0.103613, 0.153566, -0.000203, 0.537096, 0.280315, 0.168317, -0.006127, 0.292451, -0.074359, 0.092723, 0.168462, 0.355570, -0.005150, 0.274953, -0.007899, 0.035600, 0.407649, 0.097782, -0.201670, 0.214576, 0.154843, 0.130906, 0.069476, 0.011213, -0.228295, -0.148198, 0.372086, 0.128654, 0.062025, -0.302409, 0.366216, 0.051117, 0.150114, -0.376787, -0.278546, -0.287540, 0.267045, -0.082358, 0.031059, 0.226171, 0.129684, 0.253386, 0.009375, },
{-0.185887, -0.289956, 0.271968, 0.162677, -0.055835, -0.169749, -0.178905, -0.155111, 0.137469, -0.134524, 0.180795, 0.184734, -0.379151, 0.084041, -0.191132, -0.098369, -0.143307, 0.176797, -0.182506, 0.194917, -0.073321, -0.047253, 0.018056, -0.246099, 0.217380, 0.004919, 0.117060, 0.322523, -0.265171, 0.496447, 0.216167, -0.616290, -0.074251, -0.266527, -0.233330, -0.089215, 0.113176, 0.077716, 0.186540, -0.162130, -0.180954, -0.284645, -0.101738, -0.110061, -0.580140, 0.001660, 0.348581, -0.436728, 0.090335, -0.334951, -0.268039, 0.093994, 0.155639, 0.069064, 0.210015, 0.117147, 0.235706, -0.302760, -0.352731, -0.359446, -0.212579, -0.067820, -0.263317, -0.037632, },
{-0.234450, -0.075386, 0.513190, -0.473221, 0.104843, 0.193662, -0.184992, 0.132077, -0.350795, -0.068566, 0.056431, -0.139092, 0.226330, 0.181438, 0.335342, -0.050979, 0.564226, 0.118102, -0.068762, -0.025292, 0.121592, 0.379584, -0.015441, 0.224615, -0.106368, -0.202104, 0.067503, 0.175284, -0.043566, -0.021485, 0.122756, 0.184769, -0.070553, 0.319811, 0.071235, -0.371872, -0.053155, -0.457244, -0.039453, -0.087982, 0.126545, -0.027135, -0.121922, -0.153218, 0.117336, 0.158381, 0.205788, 0.001364, -0.448841, 0.089353, -0.136838, -0.024003, -0.036110, -0.021653, 0.085947, -0.319709, 0.141553, -0.281696, 0.268796, -0.150524, 0.166519, -0.100158, -0.013910, -0.399803, },
{-0.059803, 0.139979, -0.104058, -0.175612, -0.151884, 0.066585, 0.077503, 0.166066, 0.077986, -0.186849, 0.154504, 0.114882, -0.092397, 0.165149, 0.566868, 0.133679, -0.098327, -0.029039, -0.269129, -0.190952, -0.027164, -0.019533, -0.224785, 0.132452, -0.092566, 0.078958, 0.337241, -0.332109, 0.052697, 0.266889, -0.066777, -0.269048, 0.179408, 0.013149, -0.070082, 0.059279, -0.268354, 0.062981, -0.580426, -0.226724, -0.073821, 0.310286, -0.092593, 0.180886, 0.024104, 0.332170, -0.294723, 0.087652, -0.149254, 0.091915, 0.090024, 0.155523, -0.082812, -0.027238, -0.255663, -0.251920, -0.133554, -0.106855, 0.143081, -0.265603, -0.046415, -0.160476, -0.062019, -0.214778, },
{-0.188270, -0.133607, 0.339972, 0.167574, -0.044804, 0.125079, -0.097904, -0.233736, -0.001134, -0.096486, -0.177328, -0.114166, -0.310434, 0.311891, -0.032120, -0.213026, -0.265863, -0.249133, 0.095668, 0.301141, 0.109099, 0.038972, 0.131305, 0.207438, -0.170965, 0.070303, 0.370692, 0.251351, -0.340411, 0.393286, 0.133527, -0.293494, -0.234532, -0.178588, -0.182920, -0.004386, 0.285363, 0.121972, 0.086647, -0.415633, -0.079031, 0.058208, -0.416286, -0.027270, -0.502941, 0.057111, 0.228074, 0.017199, 0.028426, -0.117171, 0.047733, 0.065011, 0.050283, 0.231810, 0.134721, -0.197620, -0.076236, -0.347365, -0.437190, -0.078033, 0.198786, -0.136276, -0.101809, 0.071023, },
{0.030944, 0.153685, 0.099597, 0.054878, 0.209994, -0.022897, 0.068998, -0.335535, -0.169968, -0.057026, -0.219544, -0.122967, -0.003028, 0.212031, 0.148328, -0.205381, -0.308432, -0.140308, 0.293192, 0.186230, -0.216197, -0.061049, 0.257461, 0.562629, -0.102435, 0.118111, 0.023129, -0.030312, 0.068213, -0.027798, -0.003164, -0.126540, 0.164995, 0.321534, 0.120386, 0.022816, 0.170359, -0.057672, 0.205587, -0.107123, 0.161714, -0.285818, 0.199440, -0.142814, 0.510146, -0.126780, -0.095629, 0.421139, -0.194820, 0.217314, -0.326544, 0.129465, -0.013597, 0.112768, -0.065559, -0.043946, 0.014058, 0.015851, -0.064640, -0.279644, -0.059952, 0.144768, -0.195655, -0.130668, },
{0.005089, -0.182656, 0.232820, 0.140011, 0.190986, -0.029397, -0.072588, -0.164912, 0.217958, -0.030767, -0.349079, -0.095364, 0.003617, 0.313124, -0.093312, -0.069797, 0.239769, 0.196109, 0.254962, 0.152089, 0.004242, -0.080841, 0.286155, 0.267529, -0.007892, 0.121141, -0.038285, -0.127470, -0.018913, -0.109785, 0.454574, 0.368780, -0.079881, -0.071956, -0.206931, 0.257103, -0.132514, -0.033614, -0.002742, -0.231275, -0.102028, -0.101263, -0.094416, 0.241053, -0.151556, 0.006691, -0.062123, 0.141034, -0.213651, 0.648309, -0.270972, 0.131120, 0.367892, 0.297062, -0.120038, -0.082413, -0.117524, 0.153681, 0.058619, 0.121378, 0.022732, -0.477447, -0.125023, -0.035119, },
{-0.052477, 0.009751, 0.292538, -0.112180, 0.609384, 0.075304, -0.047792, -0.116233, 0.204611, 0.064724, -0.181649, -0.227953, 0.262814, 0.029510, 0.083939, 0.058875, -0.065365, -0.024499, 0.014644, -0.019629, -0.184968, 0.289540, -0.048409, 0.021684, 0.283829, -0.080861, 0.154195, 0.125110, 0.060404, -0.032092, 0.182989, 0.104604, 0.015370, 0.170951, -0.323576, -0.049150, -0.055035, -0.166373, -0.001253, 0.017799, -0.108334, -0.179879, -0.043628, -0.082561, 0.009208, -0.121408, 0.025493, 0.226867, -0.280994, 0.268138, -0.156801, -0.102647, 0.167115, 0.114826, 0.001519, 0.094969, -0.036411, 0.247924, -0.162799, 0.267928, 0.151319, -0.280075, -0.080329, -0.133574, },
{0.230687, -0.022998, 0.041901, 0.077093, -0.042065, -0.067121, 0.339261, -0.169428, 0.374552, -0.108888, -0.152146, 0.004518, 0.142164, 0.175045, 0.148150, 0.112396, 0.115328, 0.262944, -0.265855, -0.173233, -0.209060, 0.362171, -0.127421, -0.342584, -0.071158, -0.215213, -0.071373, 0.258061, 0.047520, 0.182994, 0.468935, -0.104262, 0.186973, 0.367443, -0.106014, -0.273620, 0.086609, 0.157262, 0.034761, 0.353684, -0.401890, -0.023791, -0.239951, -0.027496, 0.079827, -0.163399, -0.053854, 0.184766, -0.228107, 0.099566, -0.387061, 0.045810, 0.413821, 0.045317, 0.210185, 0.205780, -0.132937, 0.288959, -0.119921, 0.024288, -0.072138, 0.033610, 0.119566, 0.114474, },
{0.055435, -0.266599, 0.018485, 0.037678, -0.184938, -0.191127, -0.070159, -0.280236, -0.256638, -0.005141, 0.079458, 0.221775, 0.002344, 0.036681, -0.100731, -0.047395, 0.029855, -0.077221, 0.016058, 0.075970, -0.135796, 0.045248, 0.086435, 0.167188, 0.099868, 0.319618, 0.388737, -0.341563, 0.096697, -0.010426, -0.480746, 0.084781, -0.211575, -0.031688, 0.317168, -0.088741, -0.049091, -0.086310, 0.295187, 0.216135, 0.046654, 0.288897, -0.109095, 0.255941, 0.188567, -0.219792, -0.186674, -0.121950, -0.271927, 0.121665, 0.244011, 0.043578, -0.028180, -0.291106, -0.282805, 0.377018, -0.123670, 0.152513, 0.245994, 0.062870, -0.084754, 0.128768, -0.260120, -0.016971, },
{-0.063853, 0.326268, -0.080704, -0.047572, 0.102337, 0.419247, 0.070614, -0.153132, 0.017569, -0.188104, 0.390805, 0.249170, 0.236166, 0.019301, -0.220827, -0.106925, -0.238488, -0.231680, 0.433824, -0.018552, -0.074419, 0.169757, -0.169014, -0.140285, 0.344799, 0.010413, 0.150972, -0.448530, 0.237369, -0.072079, 0.434576, 0.009831, 0.415193, -0.217504, 0.272765, 0.083644, 0.464910, -0.172174, 0.491385, -0.288300, -0.217596, 0.203800, -0.050038, -0.090864, 0.203613, 0.178650, -0.363174, -0.191968, 0.281236, -0.324592, -0.007310, -0.235093, -0.165244, -0.242317, 0.022685, 0.025550, -0.068118, -0.009422, -0.238288, -0.094912, -0.274877, -0.115727, 0.046108, 0.122535, },
{0.286593, -0.126831, 0.345910, -0.133793, -0.426049, 0.148695, -0.307343, 0.570312, -0.104508, -0.052124, 0.179363, -0.091819, 0.284742, -0.381024, 0.041828, 0.288725, 0.289875, 0.003875, 0.069214, 0.200369, 0.201988, 0.501033, 0.047163, 0.076974, -0.359945, 0.072627, 0.202037, -0.011441, 0.032161, 0.271339, -0.055465, 0.146520, -0.090596, -0.078392, 0.110563, -0.161920, 0.392307, -0.515722, -0.115200, 0.208897, -0.080615, 0.133825, 0.008632, 0.119340, -0.016645, 0.501466, 0.237423, 0.265845, -0.278715, -0.195877, 0.347726, 0.077186, 0.116654, 0.080488, 0.142775, 0.064400, 0.266439, -0.113896, 0.160533, 0.092393, 0.299099, -0.580156, 0.037398, -0.158924, },
{-0.300723, -0.047643, -0.058192, -0.185545, -0.340241, 0.098895, 0.092178, 0.395300, -0.217841, 0.082725, 0.343613, -0.077764, 0.141117, -0.032484, -0.093675, 0.094149, 0.043615, -0.480514, -0.001399, -0.029374, 0.036611, -0.015508, 0.056637, 0.167624, 0.180571, -0.194316, -0.119366, -0.278901, -0.302324, 0.263163, -0.242723, -0.162251, -0.267174, -0.379516, 0.311223, -0.054790, 0.209089, -0.260828, -0.345181, -0.053402, 0.101634, 0.172679, 0.131827, -0.202611, -0.045293, 0.189578, -0.080462, -0.197896, 0.240292, -0.192493, 0.350786, 0.050281, -0.091913, -0.041815, -0.044442, 0.061040, 0.137362, -0.336132, -0.048280, -0.095830, 0.047863, -0.176518, 0.332832, -0.139075, },
{-0.125117, -0.155603, 0.210903, -0.085278, 0.067990, -0.148219, -0.125322, 0.032075, 0.244991, 0.204502, -0.219533, -0.056520, -0.003278, 0.248310, -0.154085, 0.218502, 0.008632, 0.041034, -0.228233, 0.490026, -0.218726, 0.192994, 0.106520, -0.369510, -0.072164, -0.146553, -0.049080, -0.104519, -0.250027, -0.107357, -0.067456, -0.176539, -0.139458, -0.166753, -0.096660, 0.095237, -0.122420, 0.106062, 0.269288, 0.271106, 0.279889, -0.141652, 0.165322, -0.050742, -0.322356, 0.040103, 0.237892, -0.081712, -0.128064, -0.233346, -0.093003, 0.010940, 0.104158, -0.190680, -0.220081, 0.278012, -0.074671, 0.083865, -0.019323, -0.076348, 0.013966, 0.008865, -0.226345, -0.317628, },
{0.079946, 0.035568, 0.239221, 0.408863, -0.025456, -0.396837, 0.228251, 0.408957, 0.466976, -0.130586, 0.213014, -0.011568, -0.154215, 0.098556, 0.031229, -0.163114, 0.433473, -0.193061, 0.295078, 0.050454, 0.162949, -0.263304, -0.303261, 0.244328, 0.170255, -0.453499, 0.425758, -0.191878, -0.005440, -0.063207, 0.325277, 0.016022, 0.033254, -0.170175, -0.420952, -0.096703, -0.031125, 0.178614, 0.170824, 0.016108, -0.485208, 0.057905, -0.474600, -0.083196, 0.161711, 0.040963, 0.065626, -0.044798, -0.154342, 0.238731, -0.053288, 0.016734, 0.198272, -0.165322, -0.095830, 0.202661, -0.051005, 0.122263, -0.487219, 0.186479, 0.151542, -0.035000, 0.045230, 0.512650, },
{0.028303, -0.005123, -0.043458, -0.151563, -0.154886, -0.058246, 0.046047, 0.213327, 0.177639, -0.265344, 0.200099, -0.015885, 0.158596, 0.222704, -0.321941, -0.036040, 0.376681, 0.115264, -0.182421, 0.376050, 0.092497, -0.154429, -0.122484, -0.085739, -0.237805, -0.201518, -0.128601, -0.355068, -0.253673, 0.030966, 0.184856, 0.411385, -0.050957, -0.487219, -0.045983, 0.158137, 0.308297, 0.024563, 0.082128, 0.163926, -0.188703, 0.095142, -0.379563, 0.141775, -0.055256, 0.009531, 0.381383, -0.498691, 0.174797, 0.209573, 0.087208, -0.042921, 0.186653, -0.106719, 0.073554, -0.052027, 0.146846, 0.215207, -0.280098, 0.301761, 0.020979, -0.081248, 0.037037, 0.232432, },
{-0.229401, -0.106344, -0.123082, 0.376285, 0.035761, 0.093162, 0.324077, -0.135566, 0.207470, -0.152505, 0.486617, -0.067625, 0.177839, 0.230809, -0.101667, -0.151043, -0.248067, -0.434286, 0.488649, 0.430318, 0.087812, -0.160498, 0.242059, 0.125819, 0.315305, -0.070038, 0.018853, -0.043168, 0.000116, 0.219011, -0.234346, 0.006585, 0.432246, -0.263869, 0.028125, 0.154897, 0.446651, 0.240828, 0.228719, -0.521689, -0.137391, 0.138386, -0.329700, 0.161835, 0.110863, 0.097211, -0.331781, -0.225257, 0.005830, -0.249919, -0.344363, 0.144816, 0.216374, 0.052833, 0.215181, 0.143444, 0.036136, -0.281175, -0.313504, -0.116902, 0.101546, 0.208217, 0.089844, 0.271640, },
{-0.129828, 0.361903, -0.177676, 0.369620, 0.268377, 0.344055, -0.042074, 0.338375, -0.109197, 0.127203, 0.035958, -0.140483, 0.081201, -0.027237, 0.102002, -0.000548, -0.049713, -0.489787, 0.240334, -0.167226, -0.126516, -0.106678, -0.008527, 0.226784, 0.031736, 0.017833, -0.269981, -0.168871, -0.304673, -0.541923, 0.131236, -0.168730, -0.026952, 0.227942, 0.139477, -0.326129, 0.339646, -0.160227, 0.177957, 0.070802, 0.067640, 0.051496, 0.087616, 0.081739, 0.575836, -0.090735, 0.154504, 0.317882, -0.344320, -0.043511, -0.115219, -0.424110, 0.058805, -0.135951, 0.326494, 0.039197, -0.330683, -0.206786, -0.161090, 0.129291, 0.628178, 0.366739, 0.080449, -0.050180, },
{-0.299860, 0.132770, 0.003069, 0.241599, 0.379135, -0.138329, 0.028711, -0.086104, 0.115197, 0.065051, 0.012622, 0.109509, -0.322367, -0.380285, 0.160178, -0.142733, -0.256931, -0.100300, -0.004218, 0.173291, -0.135350, -0.106766, 0.156392, 0.007287, 0.272151, 0.379870, 0.134620, 0.210998, 0.139474, 0.524394, 0.060891, -0.161428, -0.212383, -0.155312, 0.316579, -0.109648, -0.169293, -0.005297, -0.329062, -0.201668, -0.146915, 0.045075, -0.287065, -0.260997, -0.033354, 0.025163, -0.132602, 0.307077, 0.064725, -0.153752, 0.094645, -0.204344, 0.141930, -0.250479, -0.072523, 0.053720, -0.039707, -0.326806, -0.061529, -0.283204, -0.260145, 0.181289, 0.156116, 0.121730, },
{0.050821, 0.272043, 0.234392, -0.175014, 0.108126, 0.100052, -0.245641, -0.097568, -0.140088, 0.144193, 0.044364, -0.415118, 0.049705, -0.108269, -0.162569, -0.011804, 0.161276, 0.115132, -0.337268, -0.137105, -0.246161, 0.188947, 0.201415, -0.092211, -0.059037, 0.153993, -0.176854, -0.234383, 0.164754, -0.090808, -0.151408, 0.138726, -0.209927, 0.177482, 0.042053, 0.019788, 0.015156, 0.047644, 0.045857, 0.430802, 0.011974, -0.219977, 0.112093, 0.032150, 0.130235, -0.390187, 0.076577, -0.134292, -0.316628, 0.190897, -0.068674, -0.068555, -0.039906, 0.022297, -0.010984, 0.291853, -0.536874, -0.010121, 0.194195, 0.012687, -0.077311, 0.101818, -0.277468, -0.264770, },
{-0.018488, 0.112687, 0.026159, 0.125637, -0.037412, 0.183286, -0.472254, 0.570669, 0.212548, -0.060143, 0.103879, -0.277598, 0.533086, 0.048907, -0.164057, -0.102176, 0.078707, -0.263495, -0.122568, -0.322167, -0.129117, -0.296320, 0.177022, -0.157904, 0.320180, 0.143165, -0.099284, 0.011694, 0.167418, 0.364635, 0.064232, -0.086237, 0.258807, -0.163667, 0.051419, 0.210407, 0.211925, -0.165709, -0.054866, 0.142843, 0.294550, 0.065311, -0.180116, -0.140159, -0.348630, -0.127813, -0.240030, -0.004275, 0.755426, 0.208622, -0.058463, 0.071912, -0.069406, 0.214847, 0.004998, -0.039874, -0.290428, 0.090172, 0.338842, -0.057145, 0.191558, -0.097562, -0.243725, -0.211146, },
{-0.111292, -0.192530, -0.031408, -0.302726, -0.022409, -0.098935, -0.105486, 0.475362, -0.161671, 0.257286, -0.125832, 0.204015, 0.055544, 0.352718, -0.161545, 0.059128, 0.047725, -0.165815, -0.089748, -0.191570, 0.286251, 0.108534, 0.167974, 0.007712, 0.106483, 0.348496, -0.065557, 0.089754, 0.221309, 0.015353, -0.226303, 0.048789, -0.054896, -0.329576, 0.314987, 0.175442, -0.067155, -0.026611, 0.119731, -0.215247, 0.292464, 0.024678, 0.210690, 0.151793, -0.073372, 0.060325, 0.070565, -0.019508, 0.153533, -0.295349, 0.312028, 0.282695, -0.220322, 0.249983, -0.217398, -0.123152, 0.037529, -0.325692, 0.156006, -0.079808, -0.081576, 0.189789, -0.013260, -0.044188, },
{-0.310625, -0.010786, -0.067802, -0.129300, 0.069587, -0.102371, -0.320060, -0.105321, -0.359086, 0.259185, -0.135408, -0.150389, -0.046901, -0.054637, -0.235826, 0.235286, -0.060112, 0.190278, 0.101275, -0.139288, 0.275181, -0.090084, 0.196154, -0.196760, 0.509891, 0.060534, -0.007838, -0.249462, 0.093283, -0.004635, -0.243561, -0.015667, 0.234756, -0.045271, 0.380899, 0.143272, -0.214952, 0.111073, 0.231148, 0.065374, 0.073533, 0.147871, 0.220341, -0.043269, 0.187474, -0.016711, -0.085444, -0.288475, 0.458573, 0.043231, 0.276454, 0.143166, -0.092121, 0.259717, 0.059644, -0.098369, -0.166780, 0.054824, 0.088790, -0.072298, -0.326588, 0.244486, -0.056389, 0.198917, },
{0.144219, 0.194488, -0.245355, -0.075507, 0.380770, -0.402392, -0.142276, -0.354548, 0.273943, -0.332211, -0.048270, 0.530318, -0.114687, -0.229986, 0.187151, -0.106962, -0.357197, -0.163917, 0.069375, 0.087233, -0.195528, 0.142540, -0.368021, -0.289121, 0.137099, -0.183870, 0.074816, 0.310720, 0.293906, -0.212084, -0.120382, -0.113515, 0.016648, -0.094590, -0.030766, -0.052804, -0.256419, 0.120115, 0.276949, 0.103910, -0.403231, 0.067939, -0.181322, 0.012740, 0.267872, 0.164420, -0.192115, -0.116402, -0.096638, 0.112070, -0.114599, 0.045090, -0.337090, -0.337757, 0.025288, -0.011938, -0.174790, 0.230385, 0.008004, -0.141446, -0.708551, -0.051662, 0.081415, -0.073750, },
{-0.064090, -0.687520, 0.046635, 0.079530, -0.125252, -0.220924, 0.079865, -0.141888, -0.258847, -0.287907, 0.131115, 0.323690, -0.324733, -0.382381, -0.002313, -0.233785, -0.096558, -0.087149, 0.600005, 0.148047, 0.072722, 0.234671, -0.177241, -0.442046, -0.054379, 0.101411, 0.220279, -0.528676, 0.196552, 0.383852, 0.170568, -0.209169, -0.220251, -0.436171, -0.186574, -0.191849, 0.226598, 0.101148, 0.172947, 0.214527, 0.121893, 0.341159, -0.240619, 0.084143, -0.110150, 0.073753, -0.187548, -0.133128, 0.152974, -0.155872, -0.069356, 0.350137, -0.184278, -0.016626, -0.018102, 0.016708, -0.019636, -0.145367, 0.087898, 0.109361, 0.120978, 0.396177, 0.091710, 0.021616, },
{0.234664, -0.413971, 0.149589, -0.105051, -0.095474, -0.037188, 0.157917, 0.038145, -0.225925, -0.060043, -0.235130, 0.531173, -0.257693, 0.039388, 0.370129, 0.120484, -0.204414, 0.160022, -0.086389, -0.018009, -0.044377, 0.638057, -0.195197, -0.129771, -0.300488, -0.284255, 0.069072, 0.216363, 0.021770, -0.017112, -0.173518, -0.337131, 0.156255, -0.027678, -0.097556, -0.158186, 0.094645, 0.108367, 0.167925, -0.153610, 0.042378, 0.371794, 0.058634, -0.040387, -0.204459, -0.064564, 0.109842, 0.064899, 0.111975, 0.012399, 0.432751, 0.041239, 0.122498, 0.084871, -0.035142, 0.042333, 0.085448, 0.121714, -0.177491, 0.121707, -0.169819, 0.030257, -0.213581, -0.350674, },
{0.103429, -0.391089, 0.001201, 0.254073, 0.011197, -0.072651, -0.262247, 0.279654, 0.088547, 0.120237, 0.305371, 0.415351, -0.245632, -0.240409, 0.065308, -0.001046, -0.268230, 0.042878, 0.186877, 0.038774, -0.092664, 0.004184, 0.201195, -0.256071, 0.037518, -0.022779, 0.022445, 0.335479, -0.096753, 0.182458, -0.277609, 0.151941, -0.237491, -0.243084, 0.148137, 0.108584, -0.163892, -0.377761, 0.005680, -0.061000, 0.025826, 0.006915, -0.141204, -0.207081, -0.310079, 0.107692, 0.225176, -0.350804, 0.285796, -0.244974, 0.181173, 0.015406, -0.051387, -0.272316, -0.060085, 0.323404, 0.332432, -0.021618, -0.004042, -0.027748, -0.105891, -0.350331, -0.094012, -0.128951, },
{-0.230788, 0.224051, -0.147426, 0.121661, -0.068928, 0.059142, 0.043226, -0.153794, 0.390360, -0.013093, -0.078051, 0.051434, -0.002142, 0.121908, -0.088680, -0.281251, 0.141658, 0.182288, 0.112369, -0.404172, -0.116405, -0.173665, -0.294514, 0.149454, 0.089488, -0.259114, -0.161377, -0.284998, 0.131819, 0.022651, 0.309354, -0.036980, 0.332772, 0.113234, -0.110443, -0.021567, 0.029826, -0.009796, -0.085389, 0.120512, -0.286173, -0.300753, 0.109400, 0.019007, -0.189088, -0.146785, -0.318465, 0.321660, -0.185965, 0.013624, -0.335766, -0.156581, 0.150331, 0.094289, 0.001262, 0.221296, -0.131703, 0.298370, -0.018112, -0.209531, 0.023791, 0.315118, -0.052483, 0.161019, },
{-0.049381, -0.497655, -0.200926, -0.319003, -0.303008, -0.089879, 0.187007, -0.027296, -0.211515, -0.023931, -0.093013, 0.189777, -0.069090, -0.329616, 0.027524, 0.256138, -0.165347, 0.222655, 0.002896, 0.208136, 0.060367, 0.162060, -0.061944, 0.209216, -0.092209, -0.186583, 0.127041, 0.122528, -0.326029, 0.452565, -0.017918, -0.040714, -0.057319, -0.250659, 0.243088, -0.010231, 0.156410, -0.040278, -0.043557, -0.144779, 0.163422, 0.103180, 0.010689, 0.182370, -0.158294, -0.067590, 0.140527, 0.138770, -0.196487, -0.112290, 0.087491, 0.085150, 0.368424, 0.020438, 0.123052, -0.023177, -0.014268, -0.488954, -0.007941, 0.164763, 0.320150, -0.194266, -0.168411, -0.130831, },
{-0.021532, -0.137942, -0.239705, 0.063213, 0.310254, -0.047865, 0.134213, -0.104514, -0.375698, -0.034951, 0.043970, 0.307518, 0.279122, 0.088388, -0.162620, 0.166838, -0.075872, -0.248733, 0.435274, -0.102412, 0.164680, 0.188512, 0.199153, 0.184482, -0.000076, 0.170596, 0.155472, -0.172625, -0.066160, -0.060076, 0.221757, 0.256308, 0.356319, -0.137472, 0.077917, -0.308272, 0.224902, 0.079812, 0.290289, 0.117418, -0.032960, 0.195395, 0.299189, 0.007571, 0.432160, -0.195144, -0.076186, 0.330390, 0.194552, -0.042940, 0.000193, 0.181770, -0.012227, 0.283310, -0.343746, -0.011892, -0.177887, 0.267103, 0.041433, 0.259286, -0.100824, -0.158593, 0.169017, 0.184253, },
{-0.300992, 0.184075, 0.339608, 0.332787, 0.203637, 0.263541, -0.092565, 0.046076, 0.270535, -0.513658, -0.022665, -0.114409, -0.085591, 0.085444, -0.067560, -0.123183, 0.013000, -0.383406, 0.067854, 0.685988, 0.103333, 0.539234, -0.456325, 0.022921, -0.145143, -0.211869, -0.047812, 0.236486, -0.345917, -0.178162, 0.220278, 0.001185, 0.172378, -0.143592, -0.239005, -0.160209, 0.298457, -0.049757, 0.301958, -0.321928, -0.136602, -0.261371, -0.119724, -0.104199, -0.063106, 0.015611, 0.296251, -0.611515, 0.073526, -0.029063, -0.379826, -0.536444, -0.215500, -0.059992, 0.173070, 0.088432, -0.000931, -0.266516, -0.249841, 0.174743, 0.066642, 0.028011, -0.115038, -0.354754, },
{-0.204605, -0.191967, 0.220710, -0.113466, 0.315876, 0.100800, 0.046759, 0.107877, -0.161864, -0.008129, 0.221596, -0.149091, -0.176907, 0.486070, -0.245779, 0.020177, 0.169690, -0.131239, 0.299582, 0.682776, 0.194536, 0.214322, -0.133995, 0.125071, -0.256137, 0.043927, 0.004444, -0.050064, -0.709604, 0.001869, 0.512326, 0.062819, 0.056634, -0.148507, -0.155149, 0.194059, 0.501189, -0.203342, 0.199795, -0.075988, 0.153357, -0.144967, 0.159422, 0.205128, 0.019363, -0.003848, 0.235345, -0.161036, -0.248467, -0.157458, -0.177614, -0.107266, 0.032178, 0.071266, 0.169363, -0.018857, 0.031980, 0.031656, -0.429365, -0.151329, 0.049360, 0.253554, -0.047016, 0.144924, },
{0.270912, -0.089869, 0.173441, -0.490473, 0.065911, -0.090682, -0.123416, -0.144263, -0.076992, 0.086208, -0.303303, 0.109616, 0.048297, 0.149053, -0.085075, 0.182039, 0.081453, 0.284587, -0.560318, -0.113604, 0.177790, -0.077213, 0.003287, 0.272743, -0.196309, 0.000514, 0.183173, 0.051119, 0.096472, -0.176503, 0.170004, -0.070090, 0.200100, 0.208462, 0.008432, 0.020688, -0.099847, -0.224580, -0.132585, 0.063125, -0.080750, -0.144347, -0.137200, 0.174460, 0.231216, -0.131596, 0.176137, 0.441119, -0.273191, 0.355189, -0.132020, 0.520340, 0.102183, -0.009807, -0.094530, -0.037075, -0.288859, 0.440462, 0.215661, -0.165608, 0.157477, -0.244992, -0.090214, -0.225293, },
{-0.151806, 0.178910, 0.517408, 0.405121, 0.655610, -0.312539, -0.116576, -0.021942, 0.074484, -0.192226, -0.145795, -0.079750, -0.012334, 0.198365, 0.207389, -0.338968, -0.298420, -0.055269, -0.083489, 0.276166, -0.034369, -0.215970, -0.155655, -0.010178, 0.094557, 0.075303, -0.137552, 0.224228, -0.381014, 0.172330, 0.024036, -0.498885, 0.092942, -0.261346, 0.080338, -0.137499, -0.233054, -0.318731, 0.221112, -0.212797, -0.225166, -0.361325, -0.034759, 0.219767, -0.327591, -0.602095, 0.435527, -0.183427, -0.142182, -0.356435, 0.131296, -0.578022, -0.343317, 0.283264, 0.254503, 0.029602, 0.214566, -0.512167, -0.481470, -0.105621, 0.055889, 0.220659, 0.192263, 0.095715, },
{0.038790, 0.234481, -0.017309, 0.497400, -0.022544, 0.049406, -0.347440, 0.174100, 0.226994, 0.241902, 0.027330, -0.344741, -0.037334, -0.340834, 0.156231, 0.112320, 0.061378, 0.199230, 0.132267, -0.121534, -0.070735, -0.115836, -0.004444, -0.125854, -0.083246, -0.148012, -0.088106, 0.114090, 0.212955, 0.230931, -0.060177, -0.050963, -0.159860, 0.125730, 0.088853, 0.229608, -0.074597, -0.362522, -0.362010, -0.124143, -0.122237, 0.005122, 0.027935, -0.176905, -0.227209, 0.104774, 0.108469, -0.090023, 0.131526, -0.214525, -0.458024, -0.264670, -0.279097, -0.031670, 0.044157, 0.058230, -0.173035, 0.081934, 0.026126, -0.305380, 0.075354, -0.014419, -0.037196, 0.028249, },
{-0.335802, -0.085735, 0.007797, -0.038087, -0.008679, -0.203418, 0.185021, -0.186851, -0.345306, 0.147206, -0.281969, -0.059607, -0.167154, 0.188501, -0.151328, 0.329276, -0.290658, -0.051309, -0.205182, -0.244177, -0.139443, -0.170250, 0.229952, -0.230889, 0.193528, 0.184292, -0.440351, -0.012670, -0.049034, -0.108983, -0.093693, -0.198938, 0.343392, -0.100258, 0.088333, 0.125749, -0.214017, 0.207725, 0.031376, 0.413968, 0.105918, -0.067570, -0.154493, -0.042537, -0.184790, -0.215832, 0.123753, 0.023712, 0.062547, -0.213041, -0.122745, 0.219658, 0.008183, 0.155305, 0.264413, -0.023526, -0.499746, -0.031673, 0.180685, 0.120117, -0.188427, 0.396549, -0.037176, 0.083782, },
{-0.205615, -0.197151, -0.039905, -0.121961, 0.077167, 0.033519, -0.149248, -0.060167, -0.011534, 0.274539, -0.349923, -0.307335, 0.110150, 0.016373, -0.257248, -0.079849, 0.266778, 0.130891, 0.261591, 0.285310, -0.072787, -0.085254, 0.241924, 0.159140, -0.316396, 0.338069, -0.064823, 0.080494, -0.593435, 0.238616, 0.074257, 0.203783, -0.701084, -0.113447, 0.009857, 0.150026, -0.127545, 0.181434, 0.449482, -0.156910, 0.064367, -0.242412, 0.255334, 0.058763, -0.141907, -0.225265, 0.264925, -0.124178, -0.135914, 0.389239, 0.261820, 0.050500, 0.073306, -0.164491, -0.210049, 0.078009, 0.034557, -0.224357, -0.141772, 0.111817, 0.208886, -0.165036, 0.229797, -0.161724, },
{-0.004023, -0.145893, 0.061648, 0.272751, -0.197403, 0.021167, -0.017152, -0.039468, 0.242275, 0.097027, 0.092008, -0.290387, -0.274264, 0.053128, -0.236044, 0.039515, 0.153832, 0.277114, -0.269061, 0.013648, 0.089423, -0.456279, 0.158362, 0.082933, 0.125142, -0.150915, 0.121904, 0.348461, 0.011596, -0.011130, -0.096119, -0.016967, -0.376889, -0.247025, -0.304994, -0.021730, -0.071120, 0.033603, 0.067809, -0.161333, -0.105818, -0.068100, -0.296020, 0.137314, 0.106515, 0.050660, 0.085028, -0.013593, 0.063207, 0.397883, 0.177152, -0.137945, 0.077865, -0.091041, -0.137874, -0.488431, -0.202998, 0.081326, 0.077216, -0.030543, -0.023322, -0.259004, -0.026239, 0.265527, },
{0.197975, -0.076394, 0.022101, 0.093671, -0.264353, -0.159157, -0.056427, -0.176900, -0.197219, -0.007663, -0.058613, -0.041930, -0.193393, -0.181872, 0.195213, -0.096093, 0.183401, 0.293546, -0.094679, -0.006337, -0.222225, -0.226840, 0.060391, -0.039018, -0.116704, -0.249832, 0.188306, -0.157684, 0.247701, 0.136116, 0.070468, 0.088565, -0.173844, 0.167052, -0.241893, -0.378428, -0.501528, 0.215755, -0.220182, 0.174798, -0.031035, -0.209384, -0.426399, 0.222937, 0.095780, 0.278965, -0.215501, 0.110655, -0.160076, 0.129737, -0.053363, 0.278870, 0.008385, -0.424181, -0.175016, -0.137786, -0.028408, 0.158250, 0.321847, 0.098660, -0.079535, -0.000449, -0.023124, -0.062815, },
{-0.235188, 0.222335, -0.091090, -0.018284, 0.046753, 0.768646, -0.256873, 0.618309, 0.258186, -0.056196, 0.229213, -0.340370, 0.666243, 0.162166, -0.365217, 0.257048, 0.355400, 0.084266, 0.038180, -0.292680, 0.011426, -0.435409, 0.344867, 0.004262, 0.516746, 0.334547, -0.130203, -0.087928, 0.293396, -0.076904, 0.172400, 0.438518, 0.197769, 0.044528, 0.024151, 0.458118, 0.060729, -0.266418, 0.117332, -0.032037, -0.147944, 0.243276, 0.208997, -0.074673, -0.162148, -0.102378, -0.169141, -0.042617, 0.354143, 0.039218, -0.250261, -0.159201, -0.315197, 0.141039, -0.283693, 0.195087, -0.312502, -0.208595, -0.216467, 0.070560, -0.122354, -0.162565, -0.152487, 0.020659, },
{-0.170744, -0.077108, 0.048038, 0.077035, -0.000347, 0.184477, -0.226194, -0.010121, 0.000870, 0.063003, 0.127256, -0.163470, -0.258427, -0.301070, 0.168662, 0.096167, 0.223079, 0.152262, -0.064221, 0.261702, -0.143536, -0.096327, 0.277283, 0.001787, -0.034105, 0.157355, -0.076610, 0.154900, -0.555258, 0.231307, 0.152867, 0.001970, -0.298615, 0.227346, -0.239161, 0.020502, 0.321013, 0.072551, 0.440859, 0.038543, -0.051331, 0.100106, 0.202335, 0.269591, -0.389586, 0.014387, 0.484995, -0.087283, -0.021497, -0.311179, 0.047324, -0.123416, 0.085868, -0.105729, 0.352236, 0.023556, -0.248055, -0.241061, -0.240218, -0.231020, -0.049981, 0.344375, -0.005868, 0.142137, },
{-0.599145, -0.120618, 0.020381, -0.216001, -0.223792, -0.220034, 0.465933, 0.189751, 0.003621, -0.276608, 0.544447, 0.012218, 0.089048, 0.319333, 0.173920, 0.083820, 0.246108, -0.249576, 0.188196, 0.241210, 0.306374, -0.107786, -0.147319, -0.277855, -0.002672, 0.008737, 0.088993, -0.115076, -0.084865, 0.383578, 0.111107, -0.103161, 0.075541, -0.392081, 0.029362, -0.091518, 0.372125, -0.354893, 0.097913, -0.119864, -0.011881, 0.093836, -0.133517, -0.091453, 0.178380, 0.064090, -0.134557, -0.105067, -0.223097, -0.162022, -0.108549, 0.073240, 0.076733, 0.078582, 0.017633, 0.046089, 0.351844, -0.423573, -0.160766, 0.182699, 0.013780, -0.011510, -0.241897, -0.003300, },
{-0.238660, 0.184567, 0.026555, 0.242509, -0.011161, -0.107062, -0.101909, 0.153197, 0.292483, 0.032537, 0.528536, -0.165924, 0.009565, 0.110901, -0.336725, 0.105230, -0.067304, -0.172196, 0.185586, -0.011466, 0.650356, -0.299505, 0.253621, 0.335680, 0.345796, 0.250850, -0.108526, -0.400789, 0.009266, 0.068018, 0.121265, 0.210061, 0.422141, 0.011315, 0.346020, 0.430340, 0.123369, -0.195732, 0.113677, 0.022019, -0.118445, 0.249185, 0.230544, 0.103067, 0.379683, 0.054920, -0.168920, 0.046318, 0.096392, 0.101138, -0.189114, -0.431083, -0.267715, 0.050733, -0.043862, -0.245410, -0.185952, -0.116974, -0.064200, -0.096664, 0.266827, -0.073482, -0.292873, 0.089467, },
{0.175375, -0.132521, -0.055885, 0.267589, -0.124061, 0.216417, 0.381898, 0.001780, 0.377202, 0.091081, 0.126684, -0.007207, 0.109644, -0.071491, -0.317258, -0.037221, 0.061117, 0.107779, 0.232000, -0.224574, -0.280921, -0.235688, -0.349755, -0.176556, 0.178957, -0.496654, -0.099158, -0.030370, 0.157442, 0.073600, 0.271354, -0.048290, 0.004186, -0.068039, -0.216778, 0.158438, -0.106389, 0.188881, 0.036694, 0.172192, -0.376281, 0.173757, -0.280553, 0.079921, 0.187011, 0.009856, -0.063127, 0.082154, -0.084960, 0.206856, -0.250903, -0.353544, 0.177825, -0.230756, 0.343255, 0.394392, 0.185778, 0.297216, -0.096617, 0.077516, 0.195996, -0.108443, -0.102581, 0.450676, },
{0.029562, 0.102080, 0.114278, 0.134684, -0.225606, -0.133031, -0.206250, -0.650861, -0.183619, 0.405295, -0.672067, 0.069654, -0.370307, -0.009424, 0.197105, -0.307012, -0.143093, 0.257175, -0.094887, 0.101302, -0.262621, 0.150775, 0.000131, -0.292843, 0.479070, -0.079974, -0.086212, 0.644463, 0.069438, -0.022458, -0.521501, -0.269734, -0.098023, 0.085591, 0.086846, 0.217241, -0.395981, 0.291205, 0.172546, 0.060708, 0.177463, -0.299631, 0.228210, 0.116262, -0.065171, -0.217247, 0.066509, 0.092603, -0.182803, -0.188077, -0.078723, -0.266135, 0.125707, 0.138556, 0.288694, -0.135044, -0.357857, -0.194136, 0.023296, -0.076993, -0.560549, 0.037775, -0.109781, -0.043274, },
{0.076921, -0.360545, -0.330076, -0.076946, 0.055810, 0.002584, 0.040054, 0.189208, 0.082152, 0.044284, -0.263123, 0.230530, -0.205356, -0.138434, -0.482185, -0.002877, 0.028049, 0.038711, 0.157155, -0.060289, -0.110264, -0.095884, 0.067073, -0.086484, -0.042301, -0.049893, 0.531281, -0.108464, 0.363605, 0.024958, 0.339185, 0.092418, -0.058337, 0.052218, -0.297277, -0.024126, 0.337506, 0.095182, 0.009987, -0.034464, -0.150963, 0.312056, -0.168008, 0.162602, 0.055180, 0.098289, -0.035042, 0.096423, -0.142309, 0.176477, 0.215670, -0.064460, 0.186245, -0.275600, -0.377387, -0.170739, 0.237962, 0.380595, 0.109170, 0.404782, 0.003875, 0.169783, -0.346618, 0.196982, },
{0.042676, 0.579957, 0.094030, -0.091618, 0.049848, -0.084312, -0.304427, -0.083355, 0.251781, -0.244065, 0.188410, 0.352421, 0.067097, 0.014055, 0.167518, -0.132858, -0.122115, -0.160451, 0.221141, -0.293920, -0.203506, -0.079046, -0.135081, 0.042158, 0.052783, -0.435686, 0.220985, -0.151194, 0.113233, -0.171753, 0.205694, 0.088527, 0.042164, 0.320457, -0.117814, -0.000201, 0.022893, -0.047984, 0.275518, 0.098962, -0.376429, -0.022322, -0.364557, -0.192235, 0.420883, 0.004494, -0.050891, -0.131384, 0.073124, -0.005868, -0.293842, -0.240441, -0.205288, -0.209330, 0.044337, 0.236610, 0.077510, 0.104024, -0.151362, -0.304496, -0.315387, 0.228839, -0.012295, 0.134034, },
{0.049100, 0.048588, 0.108280, -0.243302, 0.159107, 0.209947, -0.589923, -0.197547, -0.025029, 0.034099, -0.378363, 0.126576, -0.250221, -0.025624, -0.143814, -0.163556, 0.011383, 0.172011, -0.378906, 0.335349, -0.078031, 0.074480, 0.187660, -0.251761, -0.090996, 0.221472, -0.298387, 0.658576, -0.362517, -0.304354, -0.027116, -0.305138, -0.305012, 0.049175, 0.318335, 0.045122, -0.311982, 0.028625, -0.094866, -0.192652, 0.160863, -0.182120, 0.228395, -0.053461, -0.079174, -0.454241, 0.269867, -0.119216, 0.266352, -0.239249, 0.249304, 0.177498, -0.315289, 0.133179, -0.042030, -0.035270, -0.383106, -0.012371, 0.135630, -0.535021, -0.230661, -0.154459, -0.177415, -0.287401, },
{0.283743, -0.032053, -0.095006, -0.164594, -0.182758, -0.219480, -0.027350, -0.101907, -0.084792, -0.385273, 0.082911, 0.135551, -0.065870, 0.114759, 0.154025, -0.304116, -0.055321, -0.185869, 0.128196, -0.035167, -0.182157, 0.136723, -0.328832, -0.120984, -0.028582, -0.284094, 0.265732, -0.175182, 0.196179, -0.335423, -0.021994, 0.202056, -0.423328, -0.128844, -0.059385, 0.037960, -0.097275, -0.383217, 0.404639, -0.166432, 0.088818, 0.460162, 0.003683, 0.032412, 0.301787, 0.044760, 0.014840, -0.460784, 0.019613, 0.139009, 0.427106, -0.324807, -0.239486, -0.350441, 0.081054, -0.032632, 0.063938, -0.127943, -0.008852, 0.057203, -0.173152, -0.132485, 0.172987, 0.130256, },
{0.043889, 0.113726, 0.258614, 0.291698, -0.194666, 0.050809, -0.011045, -0.179823, -0.106408, -0.168682, -0.134539, -0.140076, 0.035482, -0.324995, 0.202778, 0.014898, -0.196461, -0.306463, 0.055766, -0.048938, -0.008455, -0.153024, -0.211518, 0.030382, 0.196225, 0.041594, 0.203722, 0.021839, 0.277103, 0.272995, -0.116132, -0.170607, 0.172453, 0.242007, 0.137805, -0.087764, 0.148460, -0.268455, -0.413780, -0.318017, -0.031214, -0.323616, 0.020117, 0.023029, -0.099388, 0.164040, -0.116692, 0.014581, -0.165529, -0.338805, 0.171817, 0.360162, -0.095267, -0.112557, -0.048676, -0.162678, 0.031756, -0.113821, 0.083342, 0.002688, 0.050545, 0.024337, -0.108036, -0.103952, },
{-0.331097, 0.047223, 0.165695, -0.029325, -0.173903, -0.008805, 0.195145, -0.089075, -0.027466, 0.066408, -0.054737, -0.203598, -0.335438, -0.328330, -0.207259, 0.423021, 0.057403, 0.635956, -0.276358, -0.224678, -0.295161, -0.308533, 0.089494, 0.218236, 0.047451, 0.166168, 0.114180, 0.272499, -0.029911, 0.507528, 0.055874, -0.438568, -0.418908, 0.219581, 0.210541, -0.155453, -0.307367, 0.073356, -0.521900, 0.151521, -0.193649, -0.090185, -0.252246, 0.015557, -0.277342, 0.152342, -0.086944, -0.030924, -0.048673, 0.022379, -0.167334, -0.055131, 0.266661, -0.090053, -0.125806, -0.240876, -0.115908, 0.058852, 0.175315, -0.147366, 0.006225, -0.032002, 0.127791, -0.258330, },
{-0.044894, 0.176426, -0.283076, 0.028759, 0.079198, 0.002236, -0.022930, 0.292598, 0.127630, -0.021158, -0.088042, -0.002212, 0.043490, -0.338521, 0.000181, 0.249258, -0.101928, -0.328240, 0.335194, -0.075195, 0.365498, -0.346225, 0.004311, 0.433986, -0.064417, 0.108539, -0.262392, -0.067964, 0.084594, 0.053922, -0.121987, 0.163476, 0.111553, 0.043777, 0.088414, 0.095984, 0.752378, 0.073957, -0.152290, -0.395735, -0.248365, 0.070892, -0.108888, 0.064787, 0.217512, -0.161157, 0.239573, 0.267000, -0.049066, -0.161130, 0.502289, -0.285293, 0.155756, 0.148425, -0.007476, -0.135240, 0.140761, 0.122313, -0.313429, 0.085644, 0.533301, -0.047272, -0.206888, 0.367057, },
{-0.180630, -0.227370, -0.100349, 0.176793, -0.010029, -0.138984, 0.300481, 0.030067, 0.273297, -0.053241, 0.131438, 0.072769, -0.012045, 0.292364, -0.048854, 0.416272, -0.006647, -0.001940, 0.025832, -0.328939, -0.082414, -0.315684, -0.066432, -0.092590, 0.074184, -0.188497, 0.293627, -0.403501, 0.043450, -0.369543, 0.106974, 0.110678, -0.115814, 0.016080, -0.377424, -0.081660, -0.057080, 0.148535, -0.085513, 0.005409, -0.172213, 0.275694, 0.031291, -0.097292, 0.172263, 0.192932, 0.128495, 0.312588, -0.157648, 0.146873, -0.340266, -0.017519, -0.076629, -0.178798, 0.258310, -0.225330, 0.250336, 0.239777, -0.167381, 0.247690, 0.079225, 0.043085, 0.105964, 0.138565, },
{-0.090935, 0.109764, 0.049596, 0.103776, -0.030150, 0.411037, -0.313778, 0.082380, -0.146478, 0.058689, 0.058265, -0.256972, 0.299615, -0.400735, -0.325427, 0.040797, -0.034490, -0.273852, -0.011299, -0.346925, 0.192973, 0.105429, -0.061247, 0.424928, 0.094305, 0.107209, 0.224233, -0.214532, 0.150224, -0.125503, 0.096132, 0.494996, 0.259501, 0.197510, 0.203275, 0.180717, -0.174944, 0.233788, -0.105844, 0.072324, 0.033641, -0.082921, 0.111189, -0.363299, -0.261601, 0.058966, -0.405368, 0.047621, -0.197510, 0.190661, 0.212883, 0.390692, 0.012512, 0.178239, -0.175134, 0.070697, -0.118154, 0.167848, 0.203457, 0.121147, -0.106652, 0.158931, -0.087537, -0.281900, },
{0.342557, 0.045458, -0.044603, 0.205854, -0.145120, -0.076310, -0.196551, 0.085805, 0.483334, 0.177454, 0.259526, -0.386205, 0.087137, 0.145153, -0.218057, -0.447391, 0.156438, -0.442874, 0.202939, 0.047606, 0.071962, -0.283880, 0.106470, 0.204354, 0.008793, 0.098583, -0.035084, -0.351322, -0.187129, -0.285041, -0.062430, 0.077977, 0.025395, 0.330222, 0.124303, 0.079486, 0.050155, -0.125237, -0.073419, 0.273195, -0.150219, 0.071822, 0.003143, -0.053417, -0.012135, 0.110091, 0.055852, 0.007214, -0.091074, 0.322228, -0.189322, -0.181533, -0.040427, -0.106216, -0.232095, 0.091639, -0.225458, 0.326218, 0.136957, -0.053733, 0.153093, -0.110581, -0.062182, 0.009717, },
{-0.193957, 0.322107, 0.564731, 0.223702, -0.071924, 0.273567, -0.113010, -0.194687, 0.348273, -0.064463, 0.239298, -0.189749, -0.139249, -0.063036, 0.059071, -0.192281, -0.109844, -0.182046, 0.004148, -0.244308, -0.060606, -0.111555, -0.381157, -0.051095, 0.119387, -0.445624, -0.040382, -0.177925, 0.077838, -0.097855, -0.080642, 0.028276, 0.109444, 0.306254, 0.095376, -0.193099, 0.059349, 0.055320, -0.043638, 0.150666, 0.078945, -0.392943, 0.113529, -0.085617, -0.232430, 0.149306, 0.027128, 0.042807, -0.018166, -0.090142, -0.282408, 0.088042, -0.010009, -0.375239, -0.051455, -0.115400, 0.115577, 0.243158, 0.142962, -0.425521, -0.001314, 0.150370, -0.020302, -0.028145, },
{-0.389322, 0.168480, 0.113520, 0.224130, -0.046618, 0.088701, -0.049174, 0.148322, 0.013087, -0.000961, 0.163433, -0.096719, 0.239723, 0.251211, 0.072405, -0.039352, -0.231571, -0.542035, 0.389680, -0.180405, 0.188302, 0.401711, -0.242410, 0.190191, 0.080468, -0.140479, 0.073086, -0.075579, -0.026819, 0.353176, 0.245756, -0.041836, 0.133465, -0.087317, 0.184747, 0.327546, -0.072823, -0.102782, 0.236295, -0.390470, -0.379085, -0.021369, 0.110468, -0.163565, -0.017861, 0.027207, -0.025186, 0.043756, -0.330459, -0.082021, -0.737144, -0.305248, -0.138238, 0.140656, 0.212625, -0.188294, 0.004039, -0.052312, -0.281528, -0.014855, -0.075379, 0.015599, -0.234157, 0.071844, },
{-0.338065, 0.131244, -0.561783, -0.224956, 0.263593, -0.164800, 0.202039, -0.114586, -0.082605, 0.415894, -0.218030, 0.010648, -0.090844, 0.039505, 0.191371, -0.054575, -0.010639, -0.150290, -0.089986, -0.263321, 0.185355, -0.151354, 0.182769, 0.102148, 0.319684, 0.210209, -0.461565, -0.322782, 0.493550, -0.229469, -0.138013, -0.011161, 0.082830, 0.079819, 0.310188, 0.069499, -0.177394, 0.135220, -0.266198, -0.480058, 0.219432, 0.314194, 0.199198, -0.166737, 0.430113, 0.175518, -0.262241, 0.322283, 0.221301, 0.108489, 0.233117, -0.189833, -0.409989, 0.278346, 0.228581, -0.187687, -0.165000, -0.320611, 0.205451, 0.128193, 0.013344, -0.190290, -0.256036, 0.295486, },
{0.122091, 0.213115, 0.411002, 0.154445, -0.157110, 0.195460, -0.353002, -0.025048, 0.257363, -0.402799, -0.229923, -0.348185, 0.053824, 0.148850, -0.033037, -0.149062, 0.061548, 0.326394, -0.107766, 0.189946, -0.274455, 0.171704, 0.217927, 0.067345, -0.090304, 0.046070, -0.098518, 0.543669, -0.151609, -0.039436, 0.324226, -0.095701, -0.356396, 0.419056, -0.240957, -0.058843, -0.166061, -0.290621, 0.067747, -0.093165, 0.132561, -0.022304, 0.289775, 0.064981, -0.272936, -0.256921, 0.267581, 0.222461, 0.219804, 0.389790, -0.253704, -0.159872, -0.101916, 0.255392, -0.053021, -0.230418, -0.156656, 0.023748, 0.403777, -0.276166, -0.005586, -0.129997, 0.171237, -0.149618, },
{-0.133386, -0.066019, -0.267184, 0.281886, 0.046916, -0.129520, 0.121057, -0.083025, -0.000098, 0.283110, -0.436923, 0.414815, 0.017684, -0.153403, 0.367399, -0.339160, -0.557120, -0.516375, 0.470797, 0.003287, -0.207628, 0.087226, 0.125391, 0.192494, 0.223277, 0.265087, 0.171950, 0.050892, 0.111233, 0.067448, -0.196636, -0.096331, -0.136076, 0.149174, 0.419079, 0.058824, 0.382052, -0.148489, 0.220194, -0.480096, 0.148468, 0.145165, -0.237347, 0.384280, 0.223849, -0.298472, -0.040132, 0.156606, 0.150860, -0.093882, 0.094835, -0.303259, -0.010213, 0.004691, 0.134776, -0.257416, -0.157773, -0.129216, -0.367906, -0.109681, 0.084396, -0.041026, -0.099638, 0.302298, },
{0.087952, 0.248369, -0.268708, 0.287107, 0.423831, -0.219987, 0.133581, 0.164224, 0.083755, -0.037867, 0.437539, -0.033855, 0.169087, 0.364745, 0.073992, -0.025373, -0.357051, -0.333487, 0.392752, 0.036408, 0.092666, -0.202159, -0.191958, 0.032878, 0.128794, -0.092094, -0.089760, -0.062111, 0.000370, -0.167751, 0.208967, -0.135876, 0.232011, 0.007435, 0.267926, 0.109151, 0.020081, 0.055785, -0.021097, -0.162241, -0.193006, -0.148220, -0.036925, 0.149320, 0.163888, -0.158868, -0.255524, -0.030614, -0.069010, -0.194357, -0.016362, -0.512530, 0.246719, -0.131427, 0.066575, 0.028211, 0.243643, 0.034007, -0.335610, 0.192349, 0.465943, 0.133606, -0.052189, 0.546240, },
{0.147044, -0.003519, 0.167858, -0.582586, -0.379255, -0.199339, 0.192975, -0.035877, -0.047838, -0.031494, -0.080078, -0.069961, 0.255581, -0.059619, 0.321755, -0.028531, 0.237221, 0.265917, 0.018615, -0.195472, 0.152235, 0.372547, -0.116373, 0.105127, -0.357424, -0.188928, 0.315360, -0.103021, 0.213451, -0.148075, -0.113921, 0.020975, -0.235030, 0.420773, -0.065043, -0.413843, -0.161105, -0.351822, -0.080985, 0.100966, 0.020926, 0.149107, -0.222705, -0.144463, 0.011727, 0.340163, 0.100434, 0.085514, -0.544144, 0.215108, -0.241127, 0.421799, 0.148456, -0.287500, -0.026621, -0.034150, 0.106020, -0.081451, 0.334939, 0.226098, 0.040603, -0.265180, -0.076970, -0.075162, },
{0.180140, 0.464757, -0.088033, 0.181519, -0.019072, 0.135792, -0.190886, 0.171281, -0.397757, -0.013448, -0.415697, 0.404366, -0.099146, -0.168376, 0.321449, 0.100485, -0.138030, -0.272929, -0.033916, -0.275935, 0.125635, 0.108576, 0.064544, 0.091511, -0.091253, 0.051098, -0.403385, 0.402087, -0.015390, -0.219134, -0.174774, 0.156876, -0.085315, 0.383602, 0.433018, 0.288501, 0.064895, -0.203867, 0.189053, -0.648858, 0.081292, -0.062292, 0.128289, 0.076876, 0.052259, -0.163237, 0.070410, 0.228204, 0.065922, -0.483611, 0.027737, 0.006708, -0.344301, -0.019151, 0.220881, -0.254772, 0.121831, -0.103104, 0.056549, 0.132659, 0.089525, -0.177234, -0.071597, -0.244211, },
},
};

const float W1[HIDDEN_LAYER_SIZE][AC_SPACE_SIZE] = {
{-0.047998, -0.063021, 0.028595, -0.101104, },
{0.070165, 0.103022, -0.085215, -0.109201, },
{0.057944, 0.051550, -0.108325, -0.119092, },
{-0.025078, -0.013363, -0.112481, -0.065496, },
{0.036463, 0.154955, -0.031665, 0.044316, },
{0.046266, 0.044130, 0.013553, -0.059494, },
{-0.126579, -0.007281, -0.080926, -0.122637, },
{-0.027483, -0.009378, -0.112200, -0.089736, },
{0.001476, 0.010038, -0.150701, -0.116412, },
{0.061863, 0.012637, 0.061462, 0.080028, },
{-0.128901, -0.030022, 0.130456, 0.161840, },
{-0.117539, -0.116496, -0.065871, -0.015505, },
{-0.021483, -0.036666, 0.077064, 0.012294, },
{0.022406, 0.126621, -0.088754, 0.035312, },
{0.096626, -0.010727, -0.051818, 0.005685, },
{0.002353, 0.012957, 0.038567, -0.017702, },
{0.054524, 0.035995, -0.024458, -0.037517, },
{0.048464, 0.116378, 0.098588, 0.171240, },
{0.092735, 0.056819, -0.048830, -0.077334, },
{-0.025339, -0.044038, -0.117829, -0.075695, },
{-0.003709, 0.104037, -0.022351, -0.008875, },
{-0.019217, -0.035790, -0.108776, -0.044102, },
{0.120644, 0.088964, 0.107373, 0.049767, },
{0.094201, 0.137244, -0.034855, -0.010486, },
{0.097783, 0.076635, 0.091778, 0.101309, },
{0.167953, 0.206219, 0.076010, 0.078862, },
{-0.032127, -0.087016, -0.071281, -0.105066, },
{0.126992, 0.103085, 0.069348, 0.108615, },
{-0.060104, 0.000284, 0.073195, 0.101035, },
{-0.048390, -0.083368, -0.077898, -0.146278, },
{0.004867, 0.017702, -0.078768, -0.100342, },
{-0.130757, 0.064337, 0.089559, -0.074135, },
{-0.109071, -0.049795, 0.062227, 0.119864, },
{0.008405, -0.009481, -0.046548, -0.020621, },
{0.097881, 0.109115, 0.113138, 0.122400, },
{0.061087, 0.096637, 0.050306, 0.049389, },
{0.099661, 0.074068, -0.050244, -0.102170, },
{-0.006293, -0.086029, 0.066863, 0.056263, },
{-0.055450, -0.077290, -0.069222, 0.027393, },
{-0.090388, -0.117532, -0.039270, -0.106417, },
{-0.004112, 0.027081, 0.040128, 0.019452, },
{-0.028437, 0.003791, 0.054910, -0.037512, },
{0.114302, 0.103150, 0.071415, 0.014215, },
{-0.040537, -0.026497, 0.018513, 0.012606, },
{0.041657, 0.055847, -0.166430, -0.118924, },
{-0.039938, 0.010827, -0.017997, -0.066662, },
{-0.056770, -0.021130, 0.002472, -0.047679, },
{0.134567, 0.105748, -0.021478, -0.030483, },
{-0.054128, -0.029275, 0.105877, 0.159818, },
{0.165201, 0.133426, 0.024254, 0.072472, },
{0.104979, 0.056652, -0.036441, -0.065599, },
{0.071979, 0.046027, 0.068111, 0.092527, },
{0.004728, -0.074530, 0.043066, 0.024084, },
{0.066294, 0.070943, 0.047195, 0.044765, },
{-0.039068, -0.054687, -0.051766, 0.081325, },
{-0.015699, -0.079131, -0.008855, 0.052758, },
{-0.123389, -0.030583, -0.116460, -0.076332, },
{-0.011140, -0.023292, 0.106086, 0.046206, },
{0.124565, 0.002644, -0.004841, -0.047481, },
{-0.070996, -0.015378, 0.059109, -0.059785, },
{0.129837, 0.045712, -0.018694, 0.018049, },
{-0.035218, -0.007408, 0.036208, 0.095373, },
{0.040818, -0.033488, 0.016779, -0.009975, },
{-0.105425, -0.070901, 0.036597, 0.003156, },
};

const float b0[HIDDEN_LAYER_SIZE] = {-0.022215, -0.386925, 0.240547, -0.280112, 0.309930, 0.266824, -0.115219, -0.236727, -0.143701, 0.235984, -0.222232, -0.269115, -0.174349, 0.150443, -0.241885, 0.417810, 0.010805, 0.155421, -0.034882, 0.081477, -0.542583, -0.493558, -0.380439, -0.301817, 0.197233, 0.375381, 0.278923, 0.028047, 0.295455, 0.360349, -0.086518, 0.044096, -0.018041, -0.333457, 0.031198, -0.212487, 0.150216, -0.464561, 0.132663, 0.292696, -0.416710, 0.060666, 0.509037, -0.328781, 0.516232, 0.058961, 0.209300, -0.206078, -0.404105, -0.049154, 0.224664, 0.291178, 0.143115, 0.521624, -0.448368, -0.258473, 0.036635, 0.019960, -0.006487, -0.310333, 0.080387, 0.096956, 0.293382, -0.289134, };

const float b_hidden[NUM_HIDDEN_LAYER - 1][HIDDEN_LAYER_SIZE] = {
{0.134007, -0.233158, 0.075227, 0.045638, -0.321973, -0.533418, 0.726276, -0.073326, 0.186945, -0.290551, 0.084207, 0.341371, -0.427930, 0.032151, 0.335821, 0.041742, 0.078093, 0.006650, 0.053548, 0.105743, -0.289183, -0.073047, -0.532329, -0.124147, -0.306425, -0.493113, 0.453807, -0.323845, -0.031159, 0.302320, 0.141263, -0.274001, 0.045502, -0.076155, -0.534621, -0.542206, 0.053080, 0.034095, -0.241728, 0.112069, -0.387469, 0.365162, -0.514885, -0.016685, 0.122294, 0.250525, 0.200979, 0.005390, -0.349730, -0.101847, -0.040166, -0.248433, 0.376133, -0.372410, 0.350608, 0.170148, 0.544272, -0.144019, -0.222659, 0.337994, -0.005442, 0.098548, -0.089145, 0.517998, },
};

const float b1[AC_SPACE_SIZE] = {-0.260859, -0.260491, -0.201622, -0.248726, };

const float ob_mean[OB_SPACE_SIZE] = {0.003680, -0.002091, 0.114392, 0.014580, -0.019787, 0.099805, 0.010629, -0.001112, 0.028896, -0.003107, 0.018371, };

const float ob_std[OB_SPACE_SIZE] = {0.100000, 0.100000, 0.214343, 0.530945, 0.244303, 0.435110, 0.495955, 0.472820, 0.136794, 0.581761, 0.569570, };

#endif
