#ifndef __AP_MOTORS_POLICY_DEF_H__
#define __AP_MOTORS_POLICY_DEF_H__

const int STATE_SIZE = 9;
const int OB_SPACE_SIZE = 13;
const int AC_SPACE_SIZE = 4;
const int NUM_HIDDEN_LAYER = 2;
const int HIDDEN_LAYER_SIZE = 64;
const float FINAL_BIAS = 3.500000;

const float W0[OB_SPACE_SIZE][HIDDEN_LAYER_SIZE] = {
{0.316493, -0.144206, -0.593151, -0.346991, 0.751901, 0.128705, 0.067695, 0.203210, 0.486597, -0.193237, -0.568962, 0.397453, -0.324902, -0.004074, -0.350659, -0.340071, 0.559722, -0.207619, 0.423653, -0.069975, -0.480210, 0.381333, -0.168802, 0.371207, -0.056343, 0.377537, -0.203958, -0.213292, 0.093245, 0.531994, 0.125065, -0.087903, 0.723329, -0.681194, 0.226510, -0.303423, 0.111605, 0.487727, 0.119734, -0.663143, 0.083373, 0.062007, -0.372547, -0.303277, 0.536577, 0.418214, -0.568636, -0.131440, -0.322574, 0.311530, -0.340675, -0.152684, 0.236012, 0.881944, 0.131064, 0.516334, -0.128083, -0.503142, 0.695728, 0.225271, 0.385088, -0.206615, 0.064574, 0.305973, },
{-0.433603, 0.242793, -0.329583, -0.189940, -0.287127, -0.602205, -0.418547, -0.047626, 0.201261, -0.216761, -0.590198, 0.415114, 0.469903, 0.126112, 0.383268, 0.242718, 0.226924, -0.730633, -0.724085, 0.088420, 0.282944, 0.353894, -0.261917, 0.245750, 0.406529, 0.027726, -0.319916, 0.115257, 0.538309, 0.009641, 0.407440, -0.060640, -0.607359, -0.438658, 0.096874, 0.301413, 0.418718, 0.164024, 0.442652, 0.407845, 0.318382, -0.993106, -0.334767, -0.602268, 0.194499, 0.318344, -0.209795, 0.160666, 0.365471, -0.187141, -0.589777, 0.453929, -0.605138, 0.690844, 0.960413, 0.624214, 0.854708, -0.395444, -0.513125, -0.543542, -0.023774, -0.141397, -0.253092, 0.004333, },
{-0.409511, -0.539204, 0.360028, -0.660408, -0.122473, -0.208250, -0.065673, -0.032332, 0.211516, 0.088029, -0.211559, 0.209512, -0.401785, 0.171499, -0.412948, 0.445040, 0.060682, -0.136961, -0.082263, -0.011896, -0.112437, -0.015174, -0.093163, 0.034132, -0.583118, 0.558153, 0.225704, -0.718717, -0.340907, -0.122121, -0.494601, 0.090302, 0.042436, 0.055435, 0.162624, -0.429744, -0.442267, 0.614242, -0.202669, -0.395605, 0.906364, 0.063790, 0.077989, -0.356243, 0.829409, -0.431703, -0.442804, -0.406713, -0.834107, 0.030698, 0.157474, -0.571233, -0.320563, -0.069726, -0.778032, -0.419621, -0.021251, 0.165200, 0.345395, -0.054751, 0.190550, 0.067819, -0.286529, 0.149243, },
{-0.429612, 0.993792, 0.019220, -1.021319, 0.928412, -0.254183, 0.191061, -1.208630, -0.596864, -0.170654, -0.411412, 0.371155, -0.191363, 0.580105, -0.282243, -0.288889, 0.081667, -0.630999, 0.749995, -0.738326, 0.259739, 0.263028, -0.599096, -0.606468, 0.330841, 0.075174, -0.901495, 0.234419, 0.437874, -0.454707, 0.050499, -0.228184, 0.298975, -0.396626, 0.587142, -0.543231, 1.067286, 0.081634, -1.279615, -0.058613, -0.008840, 0.484969, 0.235361, 0.099460, 0.552195, -0.267202, -0.012757, 0.612344, -0.427531, 0.263911, 0.669508, -0.554742, 0.816219, -0.892616, -0.693508, 0.719397, -0.100303, 0.198149, -0.542179, 0.378186, -0.183384, -0.691516, -0.923121, -0.039868, },
{-0.848840, -0.089227, -0.135693, -0.050965, 0.259231, 0.906288, 0.149193, 0.088735, -0.197450, -0.166487, -0.475089, 0.993821, -1.196658, 0.565445, 0.589191, 1.111658, 0.912808, -0.052342, -0.639450, 0.586688, -0.045853, 0.365913, 0.043299, -0.174461, 0.232554, 0.253584, 0.285002, 0.707862, 0.560032, -0.370117, 0.074338, -0.052685, -0.131981, -0.180962, 0.250647, -0.472225, -0.365570, -0.800216, -0.248958, -0.154181, 0.051674, 0.088243, 0.876374, -0.447901, -0.152162, -0.617643, 0.054048, -0.130821, -0.512162, 0.526590, -0.379802, -0.152277, 0.730467, 0.000874, -0.035814, 0.342206, -0.682876, -0.071413, -0.068381, -0.368646, 0.230659, 0.915481, 0.331758, 0.496956, },
{-0.152914, 0.856118, 0.006477, -0.119741, -0.212576, 0.247308, 0.321687, 0.384024, -0.400427, 0.305549, -0.000517, -0.111022, 0.063160, -0.891707, 0.485665, -0.068930, -0.104726, -0.379677, 0.187469, 0.820732, 0.364843, 0.311309, -0.593702, -1.199111, 0.433282, -0.210236, 0.471666, -0.136724, 1.022542, 0.350667, -0.961228, 0.776704, 0.358263, 0.442482, 0.128992, 0.459726, -0.106247, -0.253025, -0.674383, -0.263636, 0.131530, 0.062579, -0.310712, -0.093715, -0.075284, -1.046234, -0.066687, 0.019018, -0.151797, -0.111541, -0.553253, -0.776105, -0.304297, -0.000336, -0.244073, -0.157123, -0.834353, 0.300726, 0.122413, 0.088533, 0.221827, 0.492847, -1.098818, 0.394636, },
{0.527345, 0.397529, 0.212110, -0.221634, -0.227328, -0.688792, -0.265091, -0.191102, 0.113236, 0.145361, 0.117651, 0.230796, 0.176322, -0.251930, -0.157682, 0.212364, 0.314945, -0.885462, -0.439610, -0.511734, 0.443190, -0.468275, -0.551912, -0.249712, 0.151871, 0.471215, 0.069128, -0.156027, 0.083417, -0.360609, -0.639202, -0.030056, 0.093726, 0.276063, 0.187536, 0.629233, -0.105228, -0.367678, -0.036375, 0.313997, 0.335085, 0.139740, -0.331738, 0.434975, -0.255841, -0.230081, 0.096800, -0.428085, 0.150184, -0.168581, 0.021005, -0.076222, -0.073950, -0.104986, 0.157821, 0.555973, -0.123342, -0.522129, -0.296187, 0.534868, -0.439238, -0.053129, 0.031270, -0.439776, },
{-0.407480, 0.224958, -0.371730, -0.122432, -1.296478, -0.635212, -0.085352, -0.009172, 0.208650, -0.012749, 0.346051, -0.516754, -0.095991, 0.189588, 0.028266, 0.405165, -0.421017, -0.143867, -0.243446, 0.009274, -0.075472, -0.066761, -0.494832, -0.358340, 0.206529, 0.370971, -0.263076, -0.233400, -0.007822, -0.250107, 0.102130, -0.021103, 0.143334, -0.006663, -0.379844, -0.064685, 0.652720, -0.144204, 0.216193, -0.165985, -0.056336, 0.911224, -0.196109, 0.360591, -0.136841, -0.239506, 0.443797, -0.020095, 0.051061, 0.684120, 0.059279, -0.417571, -0.310717, 0.497281, -0.011721, -0.282878, -0.721544, -0.621608, -0.535978, 0.169561, -0.417132, 0.205939, -0.723226, 0.260180, },
{0.173612, 0.196930, -0.725491, 0.270612, 0.020461, -0.782037, 0.474723, -0.413146, -0.127599, 0.746035, -1.000539, 0.707760, -0.264629, -0.214842, -0.414196, -0.254418, -0.727684, 0.034121, -0.327499, -0.285771, -0.263716, -0.068387, 0.099798, -0.033022, -0.021471, 0.587197, 0.065310, 0.462327, -0.372423, 0.752770, 0.333738, 0.156519, -0.966126, 0.339340, -0.007870, -0.494983, -0.129379, 0.907244, 0.481489, -0.421866, -1.106473, 0.684510, 0.251712, 0.902647, 0.370286, 0.301040, 0.311172, 0.210849, -0.545700, -0.860937, 0.264542, -0.069872, 0.362319, 0.145398, 0.524128, -0.661906, 0.220860, 0.172116, -0.580808, 0.436009, 0.628601, -0.243194, -0.350786, -0.886284, },
{0.136636, 0.235583, 0.312451, -0.031924, -0.102017, 0.096878, 0.520875, -0.327511, -0.241152, -0.432067, 0.315056, -0.161746, 0.134286, -0.012643, -0.835718, -0.027150, 0.347138, -0.154008, -0.160922, 0.000490, -0.332655, -0.266262, -0.035501, 0.355627, 0.397265, -0.782820, -0.102157, -0.680303, 0.163769, -0.580531, -0.606486, 0.162023, -0.495642, 0.793108, -0.294572, -0.101108, -0.265774, 0.064848, 0.085285, -0.117963, 0.225773, -0.007889, 0.161525, 0.474135, 0.507933, 0.271299, 0.721916, -0.305649, 0.071010, -0.545188, 0.076574, 0.257946, -0.352994, 0.193711, 0.091655, -0.462093, 0.041966, -0.171999, 0.306316, 0.043794, 0.193400, -0.225147, 0.084008, 0.498681, },
{0.585018, -0.433728, 0.405820, -0.271377, -0.298357, 0.324500, 0.470227, 0.228024, 0.285357, -0.385878, 0.397211, -0.332725, -0.264005, -0.421639, 0.089131, 0.311197, -0.156671, -0.056108, 0.226187, 0.447948, -0.298716, 0.017273, 0.150415, 0.361236, 0.270933, 0.126474, 0.351110, 0.634182, 0.573239, -0.241847, 0.470438, -0.306457, 0.511038, -0.410211, 0.289968, 0.398317, -0.123106, -0.362177, -0.115750, -0.408198, -0.190465, -0.376732, 0.022348, -0.193340, -0.181726, 0.052265, -0.112893, 0.289754, -0.058419, -0.103346, -0.416991, 0.145967, 0.582861, 0.537907, 0.129279, -0.137894, 0.210073, -0.163605, -0.272589, -0.511423, 0.203958, 0.008438, 0.389559, 0.115168, },
{-0.437494, -0.127747, 0.089105, -0.079677, 0.157119, -0.230152, 0.559915, 0.192285, 0.139395, -0.328007, -0.158821, 0.155370, -0.043929, -0.319876, -0.166150, -0.078185, -0.049687, -0.086100, 0.170740, 0.204710, -0.672542, 0.190727, -0.572888, 0.129236, -0.333538, -0.501824, 0.241747, 0.016472, -0.384135, 0.039480, 0.170030, -0.467507, -0.380689, 0.068190, 0.121438, 0.424889, -0.205787, -0.170547, 0.474075, 0.456602, -0.536728, 0.374240, 0.150055, 0.697942, 0.188985, -0.273030, -0.042367, 0.643522, -0.559466, -0.252668, -0.093920, -0.131860, -0.116789, 0.266188, 0.230264, -0.431780, 0.138834, -0.446605, 0.091542, 0.272094, 0.640659, -0.249393, -0.062755, 0.184657, },
{-0.175272, -0.182179, 0.751686, -0.101360, 0.095988, -0.108471, 0.301015, 0.063740, 0.235218, -0.502060, 0.197097, 0.032742, -0.402635, -0.170839, 0.416273, -0.100394, 0.029156, 0.306172, -0.149432, 0.307302, -0.017725, -0.605553, 0.218068, -0.201259, -0.476141, 0.333317, 0.714403, 0.107148, 0.430116, -0.279233, -0.222208, 0.556619, 0.094068, -0.091770, 1.036626, -0.019165, -0.053424, 0.277731, -0.307309, -0.642380, 0.168821, 0.181321, 0.475393, 0.006817, -0.072762, -0.372347, 0.755662, -0.144928, 0.150504, -0.127898, -0.731670, -0.484169, -0.059320, 0.119532, -0.086837, -0.236139, -0.136828, 0.342552, -0.278736, 0.081714, 0.100531, 0.086756, 0.371487, 0.310960, },
};

const float W_hidden[NUM_HIDDEN_LAYER - 1][HIDDEN_LAYER_SIZE][HIDDEN_LAYER_SIZE] = {
{
{0.577026, 0.033855, 0.042879, 0.179631, -0.012628, -0.009340, 0.111139, 0.275733, 0.056238, -0.093939, -0.237106, -0.093057, -0.208822, -0.394116, -0.326127, -0.058828, 0.181714, -0.213529, -0.262732, -0.039824, 0.069208, 0.011271, -0.103920, 0.012202, -0.193755, -0.331625, 0.389964, 0.243251, -0.113043, -0.017898, -0.058037, -0.108493, -0.042004, -0.351725, 0.366040, -0.373535, -0.055000, 0.276749, 0.332772, -0.169043, 0.237448, 0.131838, 0.114147, -0.087022, 0.564799, -0.116921, -0.122000, -0.346874, 0.004570, 0.132157, -0.305622, -0.181837, 0.204899, 0.375283, 0.040888, 0.562734, 0.165283, -0.431460, -0.208066, -0.268010, -0.366739, -0.091496, 0.013150, -0.118723, },
{-0.080361, -0.131364, 0.272933, 0.275490, 0.913356, 0.590253, -0.192999, 0.234877, -0.086423, -0.173038, 0.392978, 0.328456, 0.039031, 0.202920, 0.081092, -0.523851, 0.279759, -0.011471, -0.110011, 0.269206, 0.157174, 0.192641, -0.108097, 0.157690, -0.089397, 0.055459, -0.050350, -0.281147, 0.123925, 0.003476, -0.100076, -0.162958, 0.314845, -0.261916, -0.048967, -0.076201, 0.308604, -0.361895, -0.325014, 0.599883, 0.153627, -0.261387, 0.441290, -0.121947, 0.302141, -0.749378, -0.133165, 0.297789, -0.064814, -0.410484, 0.097930, -0.270683, -0.200354, -0.125857, 0.520924, 0.022661, 0.019684, -0.194691, -0.366441, -0.197620, 0.244172, -0.504448, -0.065469, 0.389804, },
{0.211235, -0.102435, -0.289953, 0.274777, 0.079978, -0.028182, -0.044395, 0.200687, -0.270451, 0.335329, -0.264661, -0.087837, -0.707787, 0.305385, 0.399829, -0.249421, 0.223766, 0.000168, -0.088918, -0.076956, -0.021814, -0.131727, -0.158257, -0.257527, 0.048502, -0.494128, -0.112938, 0.057578, 0.231195, 0.349459, 0.063496, 0.153532, 0.069333, -0.113673, 0.085804, 0.615276, 0.382209, -0.200407, -0.137756, 0.103673, 0.565617, 0.436170, -0.137484, -0.142045, 0.288797, 0.201604, -0.365349, 0.611066, 0.182445, 0.018700, 0.028304, -0.188837, -0.192670, 0.280102, -0.421209, 0.266092, 0.364505, -0.484865, -0.111474, -0.391108, -0.074371, 0.129228, 0.024029, -0.055339, },
{-0.281299, 0.297770, -0.150701, -0.270905, -0.350417, -0.044349, 0.020465, 0.072554, 0.132105, 0.034397, 0.010803, 0.123231, -0.279720, 0.094890, 0.254220, 0.067841, 0.267724, 0.208160, 0.132254, 0.198666, -0.193127, 0.041418, 0.026221, 0.585068, 0.500655, 0.303512, -0.163197, 0.035475, 0.118827, -0.074326, -0.334323, 0.187356, -0.549947, -0.298261, 0.029704, 0.106468, 0.207788, -0.166966, 0.202731, 0.054029, 0.067917, -0.185143, 0.246157, -0.313881, -0.355228, -0.024936, 0.197872, -0.130296, 0.000869, 0.724974, 0.379383, -0.019085, 0.039476, -0.167428, -0.377205, -0.044143, -0.029089, -0.262419, -0.112011, -0.260708, -0.131581, -0.132319, 0.109410, 0.321711, },
{0.370800, 0.076486, -0.099115, 0.189193, -0.131549, -0.821291, -0.631846, -0.078730, 0.424573, -0.153796, 0.243088, 0.853256, -0.077398, 0.669326, 0.034366, 0.079028, -0.628818, 0.767281, 0.206357, -0.302431, -0.872943, -0.549485, 0.230864, -0.634339, -0.570048, 0.417391, 0.163152, -0.094048, 0.884516, -0.068254, -0.027364, -0.815934, -0.253222, 0.659635, 0.546494, 0.020576, -0.138964, -0.612292, 0.564305, 0.576134, -0.057270, -0.507067, 0.089583, -0.189757, -0.180616, 0.622637, 0.229828, -0.238192, 0.357250, 0.005990, 0.303532, 0.131222, 0.330743, 0.046673, -0.345974, 0.649376, 0.337458, -0.105285, 0.453907, 0.690369, 0.334572, 0.340812, -0.739261, -0.138564, },
{0.436885, 0.959533, -0.203114, 0.230527, 0.166321, -0.114834, 0.236293, -0.041295, 0.443759, -0.307285, 0.144540, 0.096647, 0.290755, 0.317868, 0.259744, -0.137341, -0.563812, 0.176881, -0.446197, 0.323990, 0.357363, 0.269414, -0.183013, -0.090376, -0.631527, -0.168505, 0.093882, 0.078384, -0.168681, -0.148731, 0.089984, -0.104102, -0.264946, 0.403609, 0.037940, 0.143038, 0.216167, 0.533691, -0.482669, -0.158523, -0.275542, 0.286189, -0.050111, -0.130452, -0.677869, 0.585991, 0.017689, 0.334855, 0.300307, 0.628368, 0.145294, -0.074369, -0.292396, 0.217309, -0.312206, -0.104227, 0.141431, -0.129065, 0.137482, -0.114890, -0.333117, 0.159471, 0.214939, -0.021424, },
{-0.234367, 0.014565, -0.277044, 0.120475, -0.117988, -0.081772, 0.269555, 0.028084, 0.250698, -0.209814, -0.049272, -0.173307, 0.470101, 0.225714, 0.225929, 0.109969, 0.148278, 0.064273, -0.017931, -0.055907, 0.036680, 0.051817, -0.079508, -0.421173, -0.437789, -0.003477, 0.577363, -0.593492, 0.390346, 0.158954, 0.278492, -0.043718, -0.270147, 0.082936, 0.102119, -0.161954, 0.227331, 0.063983, -0.033234, -0.236243, -0.048748, 0.289237, -0.222649, -0.275329, -0.122147, 0.569121, -0.131849, 0.101259, 0.034794, -0.090054, 0.025279, -0.060582, -0.039656, 0.031571, -0.126947, 0.030612, -0.021838, 0.017009, -0.104232, 0.262858, 0.141568, -0.107354, -0.186396, 0.070022, },
{-0.018604, 0.219544, -0.516456, -0.070913, -0.531742, -0.381258, 0.228569, -0.059991, -0.147325, 0.165879, -0.291348, 0.153773, 0.178808, -0.211398, 0.013518, 0.278784, -0.244561, -0.080685, -0.033533, -0.152761, 0.146894, 0.092255, -0.206666, -0.145061, -0.157370, 0.019088, 0.010741, -0.004943, 0.019657, -0.041668, -0.706487, 0.094257, -0.454481, -0.464015, -0.324291, 0.204175, -0.207706, 0.248067, -0.015680, -0.503153, -0.015672, 0.017407, -0.535437, -0.316760, -0.209341, 0.381560, 0.116061, -0.265857, 0.073512, 0.297858, -0.138884, 0.124210, 0.234018, 0.258416, -0.498688, 0.003911, 0.214499, 0.385777, -0.089757, -0.033355, -0.241557, 0.560917, -0.081747, -0.237291, },
{0.150514, 0.003342, -0.249412, -0.226609, -0.483216, -0.068277, -0.270697, -0.101085, 0.074775, 0.080346, -0.317068, -0.244410, 0.135124, -0.565211, 0.030487, 0.237599, 0.031951, -0.141333, 0.252436, -0.265466, -0.017461, -0.145063, 0.049568, -0.265563, 0.020811, -0.260146, 0.052512, 0.059125, 0.352699, 0.118358, -0.162406, -0.096814, -0.209561, -0.333300, -0.073060, -0.029301, -0.252419, -0.002786, 0.223846, -0.793472, 0.320378, 0.264366, -0.485545, -0.136983, 0.187492, -0.032587, -0.357447, -0.279400, 0.035103, 0.068509, -0.449601, 0.391161, 0.176481, 0.442841, -0.319751, -0.060201, 0.196706, -0.026050, -0.067533, 0.158306, -0.236160, 0.160106, -0.343685, -0.166870, },
{-0.220415, 0.054702, -0.002713, -0.285550, 0.167936, 0.169451, -0.028269, -0.178544, 0.006802, -0.033050, 0.303901, 0.088741, 0.117588, 0.022810, -0.429864, 0.068856, 0.251814, 0.121055, 0.097863, 0.185775, 0.377851, 0.037999, -0.465986, 0.439681, 0.002290, 0.039602, 0.121603, 0.277651, -0.502533, 0.041292, 0.155617, 0.173423, 0.078429, 0.042107, -0.377071, -0.063206, -0.009594, -0.303919, -0.094929, 0.143945, -0.457262, -0.354191, 0.477353, -0.148501, -0.137915, -0.045335, 0.321025, -0.499784, 0.075759, -0.055595, 0.115554, 0.213394, 0.510541, 0.101127, 0.394347, -0.201555, 0.140697, -0.271656, 0.152708, -0.151215, 0.209888, 0.121569, -0.491983, 0.151033, },
{0.418006, 0.249051, -0.026960, 0.320752, -0.140123, 0.077075, -0.215116, 0.227592, -0.257050, -0.129379, 0.224939, -0.126399, -0.578249, -0.198614, 0.029630, -0.139524, 0.254169, -0.489219, 0.027214, -0.014634, -0.262083, 0.098276, -0.045360, 0.252365, 0.352870, -0.668528, 0.268143, 0.280728, -0.309333, -0.127476, -0.130271, -0.246697, -0.128765, -0.049145, -0.205200, 0.416897, 0.423252, 0.265881, -0.274390, 0.014026, 0.266067, 0.565943, -0.215684, 0.018393, 0.167575, -0.165769, -0.782805, -0.068637, -0.081327, 0.296571, -0.120826, 0.012382, 0.021784, 0.169063, -0.161463, 0.094343, 0.222857, -0.556840, -0.056972, -0.886293, -0.201095, 0.000394, 0.175155, -0.291531, },
{-0.292705, 0.010894, -0.023493, 0.108827, 0.109091, -0.087618, -0.122921, -0.617139, 0.163673, 0.268535, -0.303290, 0.090485, 0.306904, 0.296736, 0.063688, 0.044477, 0.020157, 0.371783, -0.243584, 0.137278, -0.203898, -0.557375, 0.282450, -0.375183, -0.826825, 0.524015, -0.412127, -0.596375, 0.279344, 0.212778, 0.106308, -0.061123, 0.425707, 0.006138, 0.127256, -0.454328, -0.491574, -0.624263, 0.098727, 0.208962, -0.018187, -0.641670, 0.101405, -0.135788, -0.064130, 0.452291, 0.541710, 0.071517, -0.076986, -0.091133, -0.094157, 0.171046, -0.165787, 0.040093, 0.125026, -0.382080, -0.145585, 0.481822, 0.066566, 0.769791, -0.475115, -0.081493, 0.268628, 0.116423, },
{-0.039675, 0.098448, 0.515499, -0.107269, -0.524270, -0.080885, -0.015034, 0.267036, -0.409139, 0.213301, 0.118483, 0.007080, -0.287022, -0.111656, 0.067194, 0.228879, 0.374682, -0.019334, -0.220281, -0.377109, 0.203527, 0.001900, -0.581560, 0.046541, 0.471261, -0.396283, -0.171168, 0.589869, 0.441813, 0.034141, -0.333901, -0.098336, -0.033702, -0.416314, 0.130241, 0.297220, -0.055010, 0.030615, -0.078403, 0.582102, 0.162478, -0.371742, 0.100144, 0.079861, 0.364914, -0.838880, 0.114523, -0.472901, -0.391936, -0.087587, 0.110873, 0.139459, 0.056937, 0.148560, 0.015236, 0.199081, 0.236435, -0.390101, 0.022746, -0.047964, 0.511028, -0.216144, -0.165047, 0.015486, },
{0.015866, 0.476492, 0.590763, -0.193162, 0.399631, -0.092717, 0.137794, -0.227135, 0.164262, 0.037336, 0.320123, -0.009789, 0.284222, 0.205039, 0.127494, 0.045864, -0.354766, 0.096495, -0.054608, 0.080069, -0.227964, -0.173090, 0.173006, 0.211599, 0.353432, 0.316398, -0.286962, 0.233042, -0.148304, -0.314177, -0.000553, -0.046860, 0.238091, 0.750555, 0.383838, -0.098591, -0.369886, -0.436424, -0.111536, 0.078144, 0.140869, -0.329721, 0.105411, 0.599231, -0.728227, -0.311087, 0.154475, 0.333397, -0.163028, -0.057665, 0.239864, -0.021078, -0.449913, 0.071627, 0.053002, 0.041723, -0.434122, -0.089677, 0.396403, -0.118192, -0.196803, 0.240986, 0.418162, -0.283361, },
{0.118536, 0.045541, -0.283424, -0.207509, -0.118431, -0.336178, 0.201565, 0.116002, -0.256809, 0.067936, -0.402728, 0.134002, 0.202216, -0.288663, -0.099156, 0.030365, -0.231304, 0.161955, -0.039782, -0.241145, -0.175535, -0.242874, 0.245267, 0.126282, 0.216241, 0.197722, -0.782631, -0.066496, -0.232844, -0.179378, 0.112252, 0.082034, 0.021836, -0.153057, -0.504711, 0.281486, -0.367732, -0.021853, -0.237137, 0.023144, 0.338715, 0.188042, -0.173568, 0.430301, 0.022133, 0.165863, -0.084416, -0.087052, -0.267603, 0.212939, -0.067510, -0.100378, -0.070453, -0.338730, 0.123700, -0.337027, 0.211588, -0.153676, -0.019862, -0.011279, -0.674636, 0.519719, 0.051513, 0.512649, },
{0.042012, 0.223833, -0.157681, -0.194819, 0.317332, -0.014985, 0.523900, -0.576832, 0.447113, 0.336106, -0.212741, 0.062125, 0.336393, 0.092202, 0.326562, -0.436377, -0.643200, -0.218481, -0.050283, 0.205913, 0.029901, -0.183283, -0.174484, -0.124606, -0.504664, -0.191989, -0.307462, -0.270909, -0.279210, 0.031972, -0.113525, 0.352940, -0.177536, 0.333243, -0.151528, -0.499905, -0.352740, -0.026215, -0.459936, -0.278573, -0.207278, 0.098537, 0.039001, 0.058870, -0.176059, 0.358910, 0.226487, 0.160258, 0.170225, -0.321843, -0.141205, 0.414671, -0.172024, 0.195992, -0.222354, -0.486246, 0.365871, 0.428605, 0.027256, -0.131161, -0.468618, 0.092565, 0.583818, 0.143064, },
{0.390797, 0.223241, 0.172046, 0.399624, -0.035538, -0.458243, -0.310498, -0.581554, 0.513248, -0.306180, -0.295255, 0.481278, -0.078921, -0.053829, 0.750540, -0.316553, -0.693372, 0.358053, 0.047272, 0.689427, -0.154623, -0.431249, -0.001693, 0.066948, -0.540088, 0.119830, 0.010551, -0.064043, -0.106271, 0.321674, -0.322869, -0.245005, -0.551405, 0.498834, 0.397754, 0.018774, -0.046699, -0.010297, 0.188315, 0.241477, 0.175462, -0.203586, 0.487727, 0.199894, 0.150618, 0.123566, 0.122606, 0.282703, 0.163770, 0.048024, -0.176778, -0.141362, -0.261212, 0.234774, -0.499655, 0.012611, -0.038989, 0.490757, 0.009096, 0.016263, 0.016723, -0.329843, 0.465576, -0.086727, },
{-0.127892, -0.046542, -0.300128, -0.347301, -0.135221, 0.040138, -0.104084, -0.220219, 0.018318, -0.205130, 0.331989, -0.172699, -0.308838, -0.053971, -0.323344, 0.503679, 0.076409, 0.469718, -0.073532, 0.038628, 0.175963, 0.162685, -0.091560, 0.655802, -0.116481, -0.152565, 0.193829, 0.121978, -0.061117, 0.366978, 0.114565, 0.216318, -0.248505, -0.212688, 0.108731, 0.180677, 0.411346, -0.028305, -0.239400, -0.401986, -0.193226, 0.167725, -0.427686, -0.216242, -0.309568, 0.487672, -0.204463, -0.287465, 0.151783, 0.861616, -0.017702, -0.348460, -0.004262, -0.012795, -0.379579, -0.003220, -0.196187, -0.706373, 0.387357, -0.429929, -0.035492, 0.192107, -0.107850, 0.279897, },
{0.261366, -0.371687, 0.048516, 0.178770, 0.096010, -0.053306, 0.040504, 0.513025, -0.296160, -0.175200, 0.119264, 0.312561, 0.224677, 0.222367, -0.420577, -0.072434, 0.007484, 0.442203, 0.247781, 0.057873, -0.046809, 0.480626, -0.142425, -0.174925, -0.119978, 0.323694, 0.481390, 0.148314, -0.297714, -0.196036, 0.029435, -0.136543, 0.459203, -0.085785, -0.247366, 0.449322, 0.290235, 0.013277, -0.369059, 0.332802, -0.316029, 0.255153, -0.275035, 0.002147, 0.225623, 0.099188, 0.117520, -0.334934, 0.013869, -0.067579, -0.349106, -0.373105, 0.039556, -0.001323, 0.144271, 0.513711, -0.111060, 0.239759, 0.193121, -0.044688, 0.364333, 0.121869, -0.615829, -0.245754, },
{-0.325498, -0.082009, -0.558508, 0.000420, -0.165191, -0.424029, 0.298535, -0.079822, -0.033982, 0.174475, -0.086006, 0.066302, 0.156394, 0.096208, 0.145442, -0.015330, 0.332272, 0.033170, -0.103634, 0.212481, 0.355271, 0.091924, -0.355178, -0.077909, -0.500317, -0.168376, 0.229744, -0.679538, -0.151197, 0.098871, -0.410007, 0.359568, -0.433414, -0.273554, -0.801818, 0.013530, -0.043710, 0.553768, -0.168117, -0.139478, 0.042980, 0.623022, -0.518014, -0.217214, -0.047241, 0.732878, 0.024435, 0.627934, 0.105645, 0.081388, -0.243471, 0.315579, -0.293190, -0.013664, -0.162508, -0.219982, 0.374347, 0.107803, 0.067443, -0.231712, -0.226832, 0.381281, 0.213295, 0.351924, },
{-0.014393, 0.184166, -0.073317, -0.169179, -0.190508, 0.400740, -0.201360, 0.236718, -0.009289, 0.046901, 0.293014, 0.260960, -0.433341, -0.136766, -0.360123, -0.537088, 0.064763, -0.091671, 0.002444, 0.039246, -0.081903, -0.100578, -0.120120, 0.191471, 0.251325, 0.119109, -0.841953, 0.459182, 0.056726, 0.058165, 0.053329, -0.149899, 0.131739, 0.056993, -0.139602, 0.279854, -0.163758, -0.211324, -0.223133, 0.211495, 0.060036, -0.076579, 0.378369, 0.081311, 0.257855, -0.214771, -0.231713, -0.365651, 0.257424, -0.232972, 0.052334, -0.193697, -0.110062, -0.044374, 0.179357, -0.051450, 0.385099, -0.208419, -0.055366, 0.053662, -0.080904, -0.145482, 0.041471, 0.405137, },
{-0.217614, 0.174964, 0.272756, 0.213460, 0.081589, 0.039447, 0.250215, 0.081062, -0.026836, 0.225221, 0.329605, -0.079564, 0.416225, 0.010646, -0.030715, -0.240995, -0.148348, -0.103874, 0.017013, -0.123729, 0.099837, 0.361313, -0.100847, -0.081154, -0.330298, 0.094098, 0.084125, -0.298698, 0.026964, -0.692869, -0.236297, -0.138603, 0.218342, 0.154554, -0.174600, -0.108403, -0.356682, 0.208104, -0.100546, 0.230649, -0.227676, -0.062702, -0.311111, -0.033527, -0.124149, 0.420275, 0.285158, -0.080170, -0.060003, 0.027233, -0.009635, 0.032983, 0.167504, 0.018644, 0.084014, -0.248034, 0.350936, 0.517478, -0.177931, 0.345913, 0.078218, 0.376105, -0.254150, -0.067620, },
{-0.074647, 0.551368, 0.005863, -0.224346, -0.464396, -0.611136, 0.314333, 0.046147, 0.127654, 0.235513, -0.217249, 0.014658, -0.348316, -0.140071, 0.047133, 0.110053, -0.076755, 0.123383, 0.126132, 0.005627, 0.053710, 0.160795, -0.091217, 0.342390, 0.099310, -0.134747, -0.346230, 0.417601, 0.043932, -0.097436, -0.118649, -0.068961, -0.330243, -0.084665, 0.047015, -0.041184, 0.040329, 0.281264, 0.283456, -0.577107, 0.009192, 0.093921, -0.056354, -0.306561, -0.489835, 0.281484, -0.048377, -0.315003, 0.315879, 0.373669, 0.327936, -0.205421, -0.367243, 0.205160, -0.558107, 0.249161, -0.250473, -0.399814, 0.039534, -0.060417, -0.383911, 0.250720, 0.097144, 0.318773, },
{0.200980, 0.609546, 0.113313, 0.306126, -0.347709, -0.114570, 0.027707, -0.247755, -0.042713, -0.012242, -0.316400, -0.292256, 0.174272, -0.437513, -0.026887, 0.099948, -0.346750, -0.338349, -0.123208, -0.181148, -0.038480, 0.299334, -0.107854, 0.056545, -0.263435, -0.573448, 0.065974, -0.278191, 0.064868, -0.351682, -0.474929, 0.097769, -0.295909, 0.053273, 0.552811, -0.586271, -0.105279, 0.469339, 0.084644, -0.128044, -0.166659, 0.296820, 0.233985, -0.167411, -0.000014, -0.124435, 0.007680, -0.180561, -0.362104, -0.165445, 0.068966, 0.044199, 0.270191, 0.594697, -0.206375, 0.210616, -0.375093, -0.266506, -0.057008, 0.330287, -0.062840, -0.146198, 0.558002, -0.693003, },
{-0.278716, -0.024587, 0.127931, 0.060372, 0.371361, -0.115439, -0.152717, 0.301934, 0.089366, -0.145799, 0.133340, 0.299549, 0.262008, 0.374963, 0.078026, -0.441163, -0.060898, -0.296256, 0.167241, -0.048386, 0.006730, 0.142103, -0.469021, -0.431979, 0.001638, -0.310078, 0.072471, -0.062856, 0.275305, -0.159462, -0.431952, -0.391890, 0.036471, 0.588845, 0.054860, -0.178562, -0.068333, 0.076177, -0.225583, 0.295752, -0.199912, 0.044923, 0.387463, -0.055032, 0.300926, -0.089919, 0.108400, -0.175985, -0.050839, -0.787022, -0.293888, 0.059967, 0.440835, 0.247836, 0.281282, -0.415940, 0.230376, 0.112219, -0.159522, -0.035123, 0.003085, 0.109694, -0.170576, 0.292311, },
{0.058368, -0.187177, -0.211546, -0.381925, 0.159611, 0.155746, -0.057818, -0.397556, 0.218537, -0.103595, -0.188966, 0.134582, -0.034509, 0.026553, -0.041344, 0.013244, 0.050994, -0.142484, -0.064764, -0.084420, 0.328387, 0.031229, 0.468501, -0.012079, 0.074028, 0.214458, -0.037068, 0.080374, -0.244470, -0.072519, 0.729067, 0.080273, 0.529907, 0.239150, 0.013113, 0.073141, -0.245406, -0.156462, 0.375361, -0.525329, -0.209490, -0.205586, 0.235018, 0.397932, -0.202005, -0.080154, 0.011949, 0.224225, 0.526969, -0.244818, -0.058529, 0.031230, 0.101009, -0.259150, -0.179466, 0.084671, -0.159827, 0.087452, 0.033395, 0.025611, -0.410245, 0.353838, -0.148165, 0.397083, },
{-0.065958, 0.066781, -0.961685, -0.032318, -0.366270, -0.057311, -0.205841, -0.140133, 0.136615, 0.086230, -0.410419, 0.063263, -0.168285, 0.032837, 0.020305, 0.218504, -0.196712, 0.071243, -0.008543, -0.160337, -0.207427, -0.118576, -0.115962, -0.150627, -0.266898, 0.048879, -0.346686, -0.384654, 0.087891, 0.372834, 0.114014, -0.000592, -0.231601, 0.009397, -0.482500, 0.102205, 0.516730, -0.099926, 0.388499, -0.555542, 0.304564, 0.376116, 0.060937, -0.310642, 0.214477, 0.074448, -0.073529, 0.190773, 0.265943, 0.082239, -0.000880, 0.032195, -0.047989, -0.216892, -0.515930, 0.515921, 0.074181, -0.197523, 0.125457, -0.051297, -0.207691, 0.002423, -0.002319, 0.143459, },
{0.155184, 0.103396, 0.217728, 0.048521, 0.032807, -0.057115, -0.261656, 0.044542, -0.314297, -0.124917, -0.278178, 0.037659, 0.238174, 0.191878, -0.245989, 0.017705, -0.129616, 0.335701, 0.023877, -0.454088, -0.063789, -0.226121, 0.256056, 0.089425, -0.420570, 0.199454, -0.220534, -0.392410, 0.223561, -0.290930, 0.185282, 0.087859, 0.396219, -0.234432, -0.189293, 0.045843, 0.055712, 0.053102, -0.227474, -0.148861, 0.338163, 0.086007, -0.019512, -0.258549, -0.177386, 0.331723, -0.192636, -0.024860, -0.183944, -0.064582, -0.016450, 0.493776, 0.425222, -0.140994, -0.263798, -0.235294, 0.181850, -0.160748, -0.144427, 0.241263, -0.629394, 0.737958, 0.035204, 0.185134, },
{-0.060637, 0.110512, -0.354833, 0.111891, 0.093811, -0.399502, -0.102512, 0.332691, -0.113767, -0.556750, -0.309246, 0.054857, 0.380624, 0.032778, 0.303869, -0.432141, 0.179048, -0.141764, 0.170345, -0.079286, 0.117748, -0.221073, 0.102891, -0.402229, -0.241092, 0.069300, -0.224722, -0.140804, 0.208766, 0.210266, 0.325079, -0.100848, -0.108088, 0.258300, 0.225067, -0.082232, 0.258168, 0.279609, 0.067268, -0.066365, -0.019984, 0.248813, 0.291562, -0.082767, 0.387112, -0.176996, -0.008166, 0.700913, 0.370934, -0.315804, 0.022356, -0.392063, -0.172000, -0.436337, 0.454309, -0.062788, 0.348073, 0.148017, -0.220082, -0.014543, -0.324640, 0.300799, 0.156995, 0.533159, },
{0.030198, 0.095163, -0.156246, -0.164654, -0.204487, 0.006255, 0.134912, -0.243030, -0.469798, 0.032035, -0.064496, -0.468378, 0.470406, -0.502385, -0.185698, 0.285843, 0.172875, 0.229427, -0.188992, 0.123519, 0.354039, 0.477035, -0.152247, 0.384273, -0.088339, 0.216069, 0.214180, 0.027307, -0.411131, -0.140434, -0.325833, 0.183558, -0.291103, -0.736975, 0.002423, 0.113929, -0.101990, 0.260982, -0.079716, -0.134046, -0.206236, -0.178311, -0.063879, -0.020471, 0.014086, -0.038619, 0.226267, 0.036892, -0.488656, 0.206892, 0.054762, -0.074262, 0.403837, 0.047991, 0.051146, -0.147758, -0.200892, -0.034959, -0.156900, -0.029744, 0.035914, -0.034938, -0.327119, 0.177734, },
{0.102739, 0.108153, 0.241645, -0.064195, -0.281496, -0.095604, -0.042428, -0.218960, -0.074897, 0.218148, 0.034856, -0.206765, 0.170984, -0.055440, -0.294132, 0.395404, -0.367958, -0.398489, -0.133162, -0.357040, 0.182298, 0.436238, 0.303592, 0.213685, -0.183735, 0.030148, -0.445031, -0.016642, 0.326394, -0.518551, 0.310587, -0.008472, 0.244731, 0.022621, 0.096449, -0.277652, -0.453623, 0.342855, 0.179353, -0.183497, 0.255234, -0.106623, -0.017551, -0.014906, 0.016502, -0.104418, -0.117050, -0.261112, 0.037056, 0.081196, 0.179517, 0.097880, 0.283016, -0.451189, 0.061825, -0.111963, -0.128364, 0.151337, 0.139466, 0.184816, -0.225531, 0.352036, 0.299196, -0.161886, },
{-0.383198, -0.486447, -0.222289, -0.335936, 0.027971, -0.183908, -0.061032, 0.226300, 0.043299, -0.161761, -0.303562, 0.005701, 0.027863, -0.068402, 0.128684, -0.289150, 0.254642, 0.114083, -0.038111, 0.417999, 0.223599, -0.115747, -0.088112, 0.091212, -0.005235, 0.297271, -0.076078, 0.023735, -0.096043, 0.695645, 0.180906, -0.236673, 0.032395, 0.288766, -0.632740, 0.106412, 0.510555, 0.161091, 0.177746, -0.364038, 0.083988, 0.300181, -0.110488, 0.001333, -0.087047, 0.046345, 0.132667, 0.034001, 0.180765, -0.103451, 0.231869, -0.353464, -0.065116, -0.367758, -0.227529, 0.301268, -0.037893, -0.098522, 0.223119, -0.021374, 0.029059, -0.184324, -0.009945, 0.722992, },
{0.349315, 0.050341, -0.080750, 0.343712, -0.043092, -0.003432, -0.406436, 0.158172, 0.057963, -0.379399, -0.258739, 0.078314, 0.176924, -0.077604, -0.175673, -0.598554, 0.010167, 0.075665, -0.000883, 0.227814, 0.334668, 0.023624, -0.253521, 0.085357, -0.245549, -0.153602, 0.491964, -0.150647, -0.124610, -0.041181, 0.313002, -0.086004, 0.189413, 0.345139, 0.360084, 0.517856, -0.246056, 0.192522, -0.099236, -0.363206, 0.207196, 0.178833, -0.154805, 0.471975, 0.416525, 0.204481, -0.317343, -0.073456, 0.176643, 0.089417, -0.307661, -0.535727, -0.090417, -0.010499, -0.213495, 0.154860, 0.234454, 0.126009, 0.225963, -0.402913, -0.496344, 0.562776, -0.498408, -0.209312, },
{-0.479449, -0.172007, -0.283054, 0.155932, -0.038169, 0.148311, 0.331697, 0.186404, 0.225323, -0.261723, 0.193632, 0.179796, -0.259505, 0.113489, -0.163959, 0.063051, 0.114130, 0.314154, 0.115193, -0.038147, -0.236198, -0.010124, -0.409371, 0.164755, 0.118094, -0.236302, 0.367050, 0.062676, -0.180766, 0.191194, -0.116397, 0.100805, -0.222032, 0.126227, 0.155226, -0.059804, 0.682317, -0.081079, 0.055940, 0.207240, -0.457083, 0.209042, 0.371635, -0.202164, -0.630857, -0.259548, 0.027379, 0.263982, 0.127034, 0.074182, 0.227092, 0.218180, -0.027563, 0.155670, -0.150003, 0.088144, -0.266790, -0.142263, -0.176776, 0.087058, 0.298583, -0.587968, -0.057708, 0.216051, },
{-0.000087, -0.030818, -0.089237, 0.223817, 0.210268, -0.138154, -0.363657, -0.041416, 0.062083, -0.252147, -0.624888, 0.100589, -0.452547, 0.127796, 0.133942, -0.049371, -0.098486, 0.211967, 0.051465, 0.232517, 0.002719, -0.408612, 0.509636, -0.352999, -0.217192, -0.190923, -0.225667, -0.368659, 0.336042, 0.139228, 0.595598, 0.002785, 0.094045, 0.032270, 0.207734, 0.176634, -0.132974, -0.095380, 0.103071, -0.109611, 0.469984, -0.035991, -0.001249, -0.141200, 0.113339, 0.328741, 0.035990, 0.387138, -0.129028, 0.203937, -0.360686, -0.176171, -0.282795, -0.348515, 0.097868, 0.075376, -0.005297, -0.020506, -0.011525, 0.263659, -0.011236, 0.401701, 0.091366, -0.167604, },
{0.183658, -0.281516, -0.245776, 0.386094, -0.567249, 0.091816, 0.013808, 0.052527, -0.572231, -0.020666, -0.471646, 0.305634, -0.044832, -0.174873, -0.131413, 0.024636, 0.218809, -0.341764, -0.249721, -0.634961, 0.217786, 0.102898, -0.372106, -0.072640, 0.031421, -0.292336, 0.279700, 0.032292, 0.314039, 0.044941, -0.415943, 0.076771, -0.243973, -0.475699, -0.131118, 0.161374, 0.179158, 0.428421, 0.026692, -0.111963, 0.264669, 0.369295, 0.129353, -0.333464, 0.205931, -0.322369, -0.005512, -0.060950, 0.143978, 0.180396, -0.474723, 0.173125, 0.538570, 0.345990, -0.056521, 0.317561, 0.516995, 0.213301, -0.810293, -0.046923, -0.023709, -0.124099, -0.177456, -0.088233, },
{0.398737, -0.344567, 0.154728, 0.045262, 0.093599, 0.137322, -0.137813, -0.112580, -0.324406, -0.115155, 0.192941, -0.019341, 0.086626, -0.146583, -0.576418, 0.126477, 0.140481, -0.023474, -0.152391, -0.049810, 0.337116, 0.374249, 0.560516, 0.093654, 0.376432, 0.582274, -0.079157, -0.011642, 0.361781, -0.169985, -0.067241, -0.218077, 0.475571, 0.177785, 0.210960, 0.418971, -0.368906, 0.102431, -0.139427, 0.220417, 0.150751, -0.111730, -0.211197, 0.192030, 0.483564, -0.379090, -0.197745, 0.130051, -0.227245, 0.165746, -0.292235, -0.504492, -0.379920, -0.238877, 0.499238, 0.056030, -0.289326, 0.142645, -0.110690, -0.062776, -0.085942, 0.512235, -0.186288, 0.007203, },
{-0.374559, -0.297726, 0.461844, -0.259755, 0.034513, 0.436341, 0.067664, 0.599951, 0.248696, 0.447199, -0.154002, -0.739434, 0.068930, -0.420740, -0.253526, 0.587539, 0.070317, 0.098780, -0.020405, 0.485775, 0.359252, 0.618670, 0.730240, -0.048929, 0.693835, 0.112399, 0.022713, 0.494954, -0.059049, -0.197614, 0.282413, -0.229392, 0.129486, -0.260423, 0.119064, -0.180714, -0.072323, -0.218950, 0.552915, -0.442774, -0.353971, 0.085403, 0.032751, -0.141294, -0.070382, 0.036027, 0.285771, -0.488603, 0.136980, -0.525818, 0.409282, -0.338656, -0.302857, 0.116529, 0.605223, 0.486483, -0.802554, -0.022017, 0.374278, 0.368184, 0.580883, -0.099276, -0.198829, 0.355821, },
{-0.074011, 0.009978, 0.186023, -0.024938, -0.195024, -0.065060, -0.060207, -0.360265, 0.202792, 0.469253, -0.075958, 0.051652, -0.182694, -0.351653, -0.068873, 0.604536, -0.183404, -0.448922, 0.321668, -0.664566, -0.284433, 0.187388, -0.319194, 0.265158, -0.093923, -0.251576, 0.082593, -0.033738, 0.535534, -0.089159, -0.729717, 0.012090, -0.019303, -0.385230, 0.146265, -0.337526, 0.194864, 0.030403, 0.203897, -0.128883, -0.188628, -0.065323, 0.171727, -0.859550, -0.138144, -0.130837, 0.088503, -0.658525, -0.617676, 0.243056, 0.126969, 0.576133, 0.549000, 0.420119, 0.014283, -0.298838, 0.054873, 0.042026, -0.341360, 0.404300, 0.142799, -0.378616, 0.246795, -0.265411, },
{-0.005560, 0.018831, 0.366231, -0.028345, -0.555349, 0.026427, 0.201024, -0.233658, -0.513770, 0.142672, 0.447023, 0.023452, -0.057926, -0.088950, 0.204837, 0.049762, 0.050527, -0.038171, 0.066722, -0.293816, -0.049468, -0.007457, -0.367230, 0.106036, 0.434192, -0.243854, -0.421100, 0.014402, 0.316485, -0.211090, -0.445639, -0.226825, 0.161381, -0.127039, -0.149604, 0.003198, -0.345336, -0.285336, -0.074766, 0.562043, 0.060348, 0.061745, 0.415255, -0.313791, -0.034828, -0.255596, 0.013820, -0.328897, -0.224863, -0.086110, -0.202582, 0.506808, 0.524565, 0.160704, 0.262486, -0.178984, 0.244234, 0.144629, -0.243713, -0.186736, 0.252249, -0.305181, 0.092985, -0.478545, },
{0.210109, 0.159695, 0.362801, -0.264167, 0.152700, 0.198280, -0.247149, -0.218680, -0.009766, -0.341972, -0.081323, 0.155876, -0.519715, -0.379140, 0.582545, -0.532044, -0.571724, -0.382734, -0.267739, 0.425147, 0.274071, -0.257661, -0.196809, -0.180590, 0.211387, 0.067158, -0.332159, 0.443877, -0.357374, -0.258834, -0.243257, -0.129983, -0.146170, 0.106878, 0.047104, 0.262075, -0.299245, -0.011417, 0.296117, -0.045496, 0.226733, 0.261102, -0.130853, 0.739954, 0.120202, -0.045765, -0.313450, -0.089656, 0.150731, -0.377259, -0.270238, -0.238019, -0.173570, 0.344284, 0.183862, 0.174864, 0.169598, 0.122752, -0.055428, -0.444957, -0.081351, -0.379961, -0.050085, -0.054175, },
{-0.068696, -0.594468, 0.096664, -0.351031, 0.560549, 0.641434, -0.095652, -0.333934, 0.187671, 0.105395, 0.583297, 0.249724, 0.273668, 0.363032, -0.549361, 0.463020, 0.127778, 0.111190, 0.040065, 0.235625, -0.090714, -0.027189, 0.351010, -0.154720, -0.166851, 0.225154, 0.508470, -0.212903, 0.159323, 0.408909, 0.464503, 0.124146, 0.451671, 0.300609, 0.269589, -0.068581, 0.014104, -0.506221, 0.014048, -0.200793, -0.488219, -0.082871, 0.015064, 0.287170, -0.020668, 0.295871, 0.192294, 0.253952, 0.249794, -0.033252, -0.188378, -0.180429, -0.017832, 0.054960, 0.008926, 0.089946, -0.359229, 0.088989, 0.714460, 0.202989, 0.087049, -0.001629, 0.000185, 0.056357, },
{-0.110340, 0.410313, -0.336664, 0.134856, 0.344991, 0.168858, 0.507797, -0.220215, 0.023755, -0.176758, -0.113634, -0.308274, 0.068857, 0.323156, 0.194023, 0.036315, -0.002638, 0.208474, -0.300498, 0.416207, -0.298314, -0.024667, 0.338548, 0.116940, -0.209780, 0.108677, 0.089171, -0.324649, 0.105232, -0.097765, -0.000802, 0.231070, -0.248296, 0.301033, -0.255994, 0.041059, 0.162978, 0.030006, -0.129581, 0.057579, -0.254371, -0.044582, -0.164230, -0.040510, -0.642714, 0.328534, 0.131062, 0.809284, 0.066868, 0.337653, 0.567366, 0.006108, -0.888536, -0.546337, -0.016089, -0.175737, -0.196489, -0.339741, 0.428360, -0.143228, -0.265521, 0.029049, 0.620986, 0.070757, },
{-0.212463, -0.308847, -0.104112, -0.136317, 0.230746, 0.700706, 0.045343, 0.453432, -0.251598, -0.075383, 0.475575, 0.265440, -0.157646, 0.112605, -0.317404, 0.374367, 0.222685, 0.305960, -0.020550, -0.104101, -0.143401, -0.289377, -0.118066, -0.224711, 0.201603, -0.155259, 0.401482, -0.013929, 0.230119, 0.068751, 0.178785, -0.161754, 0.096856, -0.382456, 0.258993, 0.025883, 0.376350, -0.486073, -0.373547, 0.009282, -0.003191, 0.009644, -0.080811, -0.728354, 0.006593, -0.230791, 0.255120, -0.187147, -0.191026, -0.039732, -0.259382, 0.178239, 0.486852, 0.284334, 0.406070, -0.148741, -0.181938, 0.063945, 0.001192, -0.190638, 0.666197, -0.122630, -0.198449, -0.367201, },
{-0.172552, -0.075583, 0.534253, 0.069492, 0.298098, -0.267288, -0.005848, -0.048605, 0.306300, 0.069686, 0.056544, 0.348805, 0.102556, 0.100394, 0.175331, 0.031925, -0.150148, 0.107072, 0.131653, 0.162161, -0.123131, 0.328246, 0.221180, -0.501280, -0.006057, -0.187370, 0.382507, 0.033031, 0.076459, -0.415589, -0.058294, -0.273521, -0.170213, 0.034947, -0.196080, -0.057525, -0.093292, -0.047178, 0.016626, 0.140260, -0.437682, -0.036146, -0.054535, 0.390563, -0.317814, 0.058040, -0.024477, 0.523032, -0.175154, -0.420198, -0.080179, -0.123531, -0.457071, 0.109062, 0.336066, -0.045020, -0.399380, 0.464773, 0.284963, 0.357410, 0.476644, -0.001581, -0.130052, -0.468204, },
{-0.014773, 0.124686, 0.212771, -0.049034, -0.457374, 0.351461, 0.025963, -0.256200, -0.379136, 0.154488, 0.009210, -0.250644, -0.057432, -0.604739, -0.420675, 0.209587, -0.019200, 0.030250, -0.087014, -0.085654, -0.029944, 0.524943, 0.085387, 0.322400, 0.353511, -0.110368, -0.019180, 0.423357, 0.214102, -0.534086, -0.251826, -0.058834, 0.208539, -0.142566, 0.625544, -0.578573, -0.166303, 0.367038, 0.230397, 0.182642, 0.057510, 0.276736, 0.045878, -0.226600, 0.227300, -0.094949, 0.392272, -0.247092, 0.024214, 0.318685, 0.293462, -0.219896, -0.065089, 0.329197, 0.147326, 0.301815, -0.504281, -0.206540, -0.259347, 0.266834, 0.022295, -0.277236, 0.054516, -0.395862, },
{-0.160577, -0.007629, -0.309079, -0.116421, 0.287465, 0.326881, 0.194298, 0.367069, -0.218715, 0.180989, -0.024245, 0.194209, -0.291210, 0.441779, 0.223868, 0.162706, 0.062537, -0.176073, 0.133729, 0.194356, -0.245156, -0.126960, 0.299561, 0.085180, 0.036762, -0.009643, -0.041878, -0.029767, -0.029736, 0.252209, -0.099581, -0.137225, 0.072081, -0.253007, 0.149946, -0.079015, 0.659696, -0.483887, 0.201593, -0.227398, 0.133169, 0.075896, 0.097988, -0.265115, 0.002391, -0.243355, -0.041829, 0.575266, 0.363907, 0.068341, 0.595521, -0.018968, -0.289112, 0.221481, -0.060839, 0.074261, -0.279071, -0.276318, -0.277438, -0.078690, 0.021846, -0.310912, 0.268373, 0.333735, },
{-0.400534, 0.125906, 0.223999, 0.208564, -0.115045, 0.035113, 0.501087, 0.226458, -0.211815, -0.160479, 0.159960, -0.096461, 0.196817, 0.253029, -0.037806, 0.191096, 0.165256, -0.381716, -0.073064, -0.303941, -0.052942, 0.159670, 0.217107, -0.119276, -0.130447, 0.007771, -0.038329, -0.467174, 0.126767, -0.256213, -0.099073, 0.297251, 0.034418, -0.261829, -0.176859, -0.101638, -0.274190, -0.163211, -0.410119, 0.375197, -0.135154, 0.015190, -0.334526, -0.232418, 0.294008, -0.208568, 0.008901, 0.046617, -0.046347, 0.109957, 0.068304, 0.005449, -0.054610, -0.235745, 0.475254, -0.000498, -0.272063, 0.173334, -0.255264, 0.369963, 0.012691, 0.627421, 0.083067, -0.380165, },
{0.258443, 0.471686, 0.336747, 0.319080, -0.173108, 0.048930, -0.184975, 0.093745, -0.293753, 0.031938, -0.117341, -0.000029, -0.328673, -0.014293, 0.140903, -0.254506, 0.369695, 0.313575, -0.020332, -0.017523, -0.029610, -0.278735, 0.033534, 0.311884, 0.019585, -0.060272, -0.572053, 0.104102, 0.308728, 0.103173, -0.164999, -0.100340, 0.250194, -0.233211, 0.127916, -0.061853, 0.176751, 0.125776, 0.232762, -0.047912, 0.635686, 0.204427, 0.458852, -0.188878, 0.352091, -0.444421, -0.116877, -0.263906, 0.218664, 0.030814, 0.130517, -0.016440, 0.071661, 0.145612, -0.187600, 0.187644, 0.136955, -0.619089, -0.407350, -0.135711, -0.060304, 0.135329, 0.037944, 0.328292, },
{0.194542, 0.120858, 0.249714, 0.116410, 0.393154, 0.175214, -0.070931, 0.047735, 0.039307, 0.047888, 0.297511, 0.100400, 0.442587, 0.270885, 0.039520, -0.260698, -0.334221, -0.236815, 0.042243, 0.033242, -0.040219, 0.205928, 0.118939, 0.431869, -0.111050, 0.338586, 0.055660, 0.126096, -0.156585, -0.004477, 0.536022, -0.140479, 0.169288, 0.309731, 0.155761, 0.147553, -0.357337, 0.094155, -0.368483, -0.032932, 0.137193, -0.268082, -0.364704, 0.607290, -0.133927, 0.148696, -0.042203, 0.168092, 0.443227, 0.255995, -0.288515, -0.053614, -0.121499, 0.020856, -0.095465, -0.263566, 0.147377, 0.326609, 0.472131, -0.193108, 0.029040, 0.432958, 0.344559, 0.007157, },
{0.012323, -0.303113, 0.644685, 0.155477, 0.268723, 0.387037, 0.100059, 0.180536, 0.283924, 0.113795, 1.025686, 0.079625, -0.117189, 0.091539, -0.207419, -0.000557, 0.255290, -0.317247, -0.074453, -0.155219, 0.122421, -0.016136, -0.180523, -0.007170, 0.313589, 0.127465, 0.275617, 0.038859, -0.197065, -0.104520, 0.134177, 0.178691, 0.583588, 0.127993, 0.383599, 0.030799, -0.132614, -0.063022, -0.232681, 0.476003, -0.254371, -0.275243, 0.309138, 0.403416, 0.524231, -0.200050, 0.172088, -0.271118, 0.018175, -0.359218, 0.039749, 0.112327, 0.259679, 0.370539, 0.548160, 0.013668, -0.092509, -0.313227, 0.050111, 0.065326, 0.333206, -0.271566, -0.061404, -0.345962, },
{0.067319, 0.387867, 0.245727, 0.016180, -0.303231, -0.135573, 0.232114, -0.129279, -0.247050, 0.074392, 0.286502, 0.048358, -0.191761, 0.180545, 0.315449, -0.043152, -0.024429, -0.009861, 0.260905, -0.110388, -0.088421, 0.143914, -0.201727, -0.011539, 0.073378, -0.163371, 0.083997, 0.537142, -0.066161, -0.576749, -0.709376, 0.088642, 0.099625, 0.139253, -0.186778, -0.017357, -0.059437, 0.445261, 0.104907, -0.166656, -0.067287, -0.028074, 0.105447, -0.361133, -0.168727, -0.271445, 0.231882, -0.633913, -0.102277, 0.336403, 0.405526, 0.164313, 0.571518, 0.556435, 0.048815, 0.136183, 0.029412, -0.385459, -0.596545, 0.045592, 0.081101, -0.221347, -0.006453, -0.205000, },
{0.067996, 0.275071, 0.126989, -0.123909, 0.078037, -0.038249, 0.221001, 0.395348, 0.209270, -0.708633, 0.137374, -0.029894, 0.164036, 0.293862, -0.452063, -0.252401, 0.240489, -0.075201, -0.118384, 0.122579, 0.218568, 0.181395, 0.071204, 0.093694, -0.398419, 0.153985, 0.067275, -0.516117, 0.063459, 0.182748, 0.198755, 0.356106, 0.011742, 0.386753, 0.074139, 0.025777, -0.242822, 0.116356, -0.170253, 0.060476, 0.105030, -0.094218, -0.007866, 0.178072, 0.363765, 0.679726, 0.098045, 0.155156, 0.096899, 0.269480, 0.081211, -0.346086, 0.335644, -0.053890, -0.130310, 0.043639, -0.148006, -0.109847, 0.007294, 0.441683, -0.501293, 0.327590, 0.212449, -0.230692, },
{-0.235445, -0.107767, -0.387592, 0.033538, -0.477786, -0.165341, -0.223294, -0.158717, 0.037851, 0.110456, -0.228212, 0.009370, 0.446710, -0.464500, 0.120810, 0.203905, -0.154075, -0.459007, 0.017468, -0.079625, -0.247533, 0.347436, -0.146296, -0.251647, 0.006413, 0.007179, 0.249193, -0.400688, 0.155445, -0.069790, -0.679484, -0.285668, -0.179617, -0.344474, 0.104806, -0.580530, 0.077580, 0.655171, 0.384747, -0.531203, 0.584404, 0.648811, -0.410424, -0.440283, -0.106409, -0.307435, 0.247445, -0.098753, -0.389727, -0.123399, -0.193678, 0.094085, 0.034468, 0.159338, -0.036538, -0.360537, -0.337300, 0.471061, -0.138833, 0.243072, -0.143505, 0.148359, 0.097790, 0.213463, },
{-0.096929, 0.219526, -0.163878, -0.118602, -0.433172, 0.041856, -0.107214, -0.431240, -0.035307, 0.144808, -0.633091, 0.235463, 0.210598, -0.449642, 0.083853, 0.011893, 0.285777, -0.014337, -0.189566, -0.166286, -0.035747, 0.006089, 0.176438, -0.086866, 0.232419, -0.018742, -0.224337, -0.152217, 0.502125, -0.139084, -0.747113, -0.175311, -0.068516, -0.156047, -0.057324, -0.477089, 0.191071, 0.329294, 0.875449, -0.025438, 0.213943, -0.044097, 0.170050, -0.589543, 0.313472, -0.176751, 0.139241, -0.319310, -0.065604, 0.264065, 0.142625, 0.440478, 0.427375, -0.219686, -0.070237, -0.165334, 0.045529, -0.141308, -0.776609, 0.171218, -0.053677, -0.093971, 0.319168, 0.230002, },
{0.006980, 0.052411, 0.005882, 0.187917, 0.065356, -0.090860, -0.227517, -0.087976, 0.049045, 0.013229, -0.077716, 0.500756, 0.011952, 0.230285, -0.035767, -0.555397, -0.001328, -0.051888, 0.247383, 0.185984, -0.169148, -0.014615, 0.346960, 0.133543, -0.143037, 0.631552, -0.510969, 0.529707, 0.340533, -0.358196, -0.259422, -0.496385, -0.009887, 0.467329, 0.247915, -0.340115, -0.578103, -0.196999, -0.129125, 0.093653, 0.319977, -0.458745, 0.195523, 0.181193, 0.671566, -0.114906, 0.412858, 0.097456, 0.228478, -0.322084, 0.031424, -0.308851, -0.086689, -0.161186, -0.105352, 0.392713, 0.288334, 0.052875, -0.171496, 0.147096, -0.161018, 0.286617, 0.025812, 0.306492, },
{-0.435936, 0.115803, 0.364749, -0.230198, -0.832404, -0.167379, -0.097235, 0.020306, -0.083824, 0.179036, -0.241507, -0.314681, -0.175604, -0.356136, 0.217156, 0.128858, -0.332804, -0.283979, -0.231990, -0.205772, -0.286141, 0.262358, 0.001317, -0.382548, 0.266288, -0.407623, -0.411003, 0.185864, 0.144318, -0.540186, -0.342737, -0.317240, 0.228294, -0.263572, 0.504595, -0.086712, -0.645177, 0.347007, 0.213507, 0.497890, -0.215187, 0.224481, 0.147655, -0.223544, 0.309048, -0.516488, 0.287095, -0.343716, -0.002065, -0.032453, 0.257623, 0.114001, 0.077162, 0.152997, 0.186260, 0.178957, -0.009749, 0.041163, -0.527456, -0.003259, 0.245996, -0.471192, -0.109008, -0.411176, },
{0.014700, -0.021335, -0.150181, -0.281890, -0.108615, -0.214878, 0.008450, 0.074270, -0.232383, -0.168336, 0.090410, 0.059693, -0.437908, 0.077910, -0.285161, 0.037969, 0.630327, 0.578368, 0.231429, 0.210232, 0.199244, 0.017374, 0.198413, 0.077195, -0.011012, 0.290843, -0.295575, 0.218429, -0.016173, 0.092266, 0.397951, -0.203722, -0.051578, 0.319607, -0.273895, 0.410819, 0.200690, -0.029382, 0.031831, 0.033764, -0.166732, 0.163186, 0.113170, 0.397372, -0.515323, 0.450628, -0.096507, 0.081857, 0.350253, 0.054620, 0.317243, -0.256270, -0.515899, -0.717707, 0.024181, 0.087133, -0.249617, -0.469408, 0.432843, -0.332343, 0.231387, 0.014856, 0.037514, 0.413298, },
{-0.137081, 0.293550, -0.142892, 0.167622, -0.249979, 0.100719, 0.273072, 0.231821, 0.531424, 0.198262, 0.289107, -0.054336, 0.168702, -0.283173, 0.282655, 0.020901, -0.052742, -0.078471, 0.046501, 0.589451, 0.140604, 0.476073, -0.135905, 0.022169, -0.153309, -0.297273, 0.232213, 0.210776, -0.570262, 0.103565, -0.426063, 0.150059, -0.303341, 0.000124, 0.107588, 0.014045, 0.026749, 0.341295, 0.001343, 0.142142, -0.250416, -0.068896, -0.008685, 0.027597, -0.183528, 0.189466, 0.276875, -0.280412, -0.114116, 0.100886, 0.173713, -0.034516, -0.138256, -0.042200, -0.637649, 0.293852, -0.069158, 0.171767, -0.093637, -0.181050, -0.012855, -0.503565, -0.044943, -0.447692, },
{0.001714, -0.344779, 0.241300, 0.179214, 0.394918, 0.301311, -0.141533, 0.157452, -0.077963, 0.064929, 0.036404, -0.338712, 0.010495, -0.258255, -0.219615, 0.522815, 0.396138, 0.266794, -0.390375, 0.535714, -0.102138, -0.095177, -0.108499, 0.122496, -0.145130, 0.391018, 0.180606, -0.279302, 0.037451, 0.282832, 0.389821, 0.033136, -0.143034, -0.158443, 0.254807, 0.307144, -0.047189, -0.765554, -0.435504, 0.128239, 0.224809, -0.458374, -0.200066, 0.308405, 0.069964, -0.107441, 0.208219, 0.130635, -0.540542, 0.185711, -0.508219, -0.298799, 0.228723, -0.066163, 0.224509, 0.052163, -0.135003, 0.048755, 0.139006, 0.159595, 0.054137, -0.121338, 0.206771, 0.069794, },
{-0.178415, 0.000073, -0.083436, -0.083016, 0.037280, -0.247372, -0.199555, -0.285902, 0.316138, -0.008169, -0.044565, -0.026396, 0.284169, -0.312241, 0.228490, 0.202037, 0.025293, 0.386834, 0.192509, 0.201524, 0.025426, 0.305167, -0.077561, -0.235470, -0.231008, 0.015576, 0.687438, -0.187372, 0.001728, 0.094570, -0.145116, 0.014399, -0.215455, 0.022630, -0.039005, -0.177581, 0.115277, 0.172602, 0.152845, -0.132715, -0.258457, 0.122644, -0.153122, -0.411690, -0.275038, 0.546720, 0.059669, 0.346769, -0.154358, -0.101580, 0.154613, 0.298597, 0.190522, -0.063745, -0.218131, -0.009637, -0.215752, 0.284948, -0.072810, 0.140059, 0.168711, -0.078873, 0.136879, -0.200107, },
{-0.060639, 0.267514, -0.738910, -0.306597, 0.213040, -0.056224, 0.170737, -0.321803, 0.281282, -0.099007, -0.060266, 0.087794, -0.198197, 0.257062, 0.083978, -0.212716, 0.113808, -0.014909, 0.011909, 0.354060, 0.260049, -0.040292, -0.231119, 0.221316, -0.143044, -0.182322, 0.229110, -0.044835, -0.256980, 0.245056, 0.492243, -0.106400, -0.132802, 0.078705, -0.673434, -0.108205, 0.277995, 0.280139, -0.039168, 0.026400, -0.189797, 0.317631, -0.095882, -0.253186, -0.336327, 0.269978, 0.160496, 0.634734, 0.405993, 0.492947, 0.321320, -0.102933, 0.048330, 0.034925, -0.158706, -0.459358, 0.403789, 0.170230, 0.306572, -0.420396, -0.252911, -0.056769, 0.396451, 0.574258, },
{0.253998, 0.727617, -0.453778, 0.149295, -0.330455, -0.261729, -0.367332, -0.206505, -0.075478, -0.286090, -0.317914, -0.237985, -0.377433, 0.048618, 0.030589, 0.213573, 0.100562, 0.411017, -0.109480, -0.119608, -0.484799, 0.101563, 0.088078, 0.173983, 0.069083, -0.647727, -0.507216, 0.244106, 0.074008, 0.216785, -0.170721, -0.189957, -0.335220, -0.067796, 0.082966, -0.076642, -0.160161, 0.379086, 0.819619, -0.484621, 0.151169, 0.139269, 0.348320, -0.260442, -0.100522, 0.225651, 0.280311, -0.132485, 0.249861, 0.811261, 0.017640, -0.138730, 0.160276, 0.005358, -0.515622, 0.064799, -0.165143, -0.392081, -0.087334, -0.272112, -0.581786, -0.375518, 0.518120, -0.072766, },
{0.458650, 0.254482, -0.220861, 0.366845, 0.002568, -0.105161, -0.099853, -0.389262, 0.225841, 0.034767, 0.029119, 0.056237, 0.173612, -0.195029, 0.586784, 0.007245, -0.293859, 0.124571, 0.015893, 0.288645, 0.358317, -0.280026, -0.385901, -0.027975, -0.560322, -0.175553, 0.114851, -0.144520, -0.101224, 0.163211, -0.070199, -0.046578, -0.309789, -0.080023, 0.061747, 0.023353, 0.351684, 0.191975, -0.228051, -0.185319, 0.476038, 0.167620, -0.389995, -0.186841, -0.130275, 0.276233, -0.483685, 0.497464, -0.360160, 0.407872, -0.132195, -0.063480, -0.410684, -0.112315, 0.017326, -0.076379, -0.094441, 0.121770, -0.007907, 0.011008, 0.157760, 0.024374, 0.165451, 0.228840, },
},
};

const float W1[HIDDEN_LAYER_SIZE][AC_SPACE_SIZE] = {
{0.187409, 0.162589, 0.146826, 0.179111, },
{-0.001285, 0.038061, 0.193455, 0.151608, },
{-0.103930, -0.097853, 0.137853, 0.207026, },
{-0.019741, -0.015188, -0.043966, 0.093367, },
{-0.098252, 0.091243, -0.052483, -0.078696, },
{-0.079324, 0.009953, 0.051789, 0.058589, },
{-0.151854, -0.002358, -0.065591, -0.121830, },
{-0.017713, 0.026397, -0.016595, -0.094032, },
{0.000301, -0.086900, -0.124395, 0.047943, },
{-0.020000, 0.029552, 0.030328, -0.027832, },
{0.177347, 0.090522, -0.051588, 0.002610, },
{0.055314, -0.096250, 0.010421, 0.064539, },
{-0.063679, -0.034356, 0.070884, -0.042776, },
{0.127500, -0.039348, -0.063140, 0.018268, },
{0.073751, 0.061651, -0.007134, 0.076363, },
{0.105357, -0.009560, -0.124090, -0.132025, },
{0.038689, 0.094738, -0.003001, 0.005002, },
{-0.139896, -0.180515, -0.009205, 0.073647, },
{-0.009230, 0.000450, 0.004921, 0.015094, },
{-0.072259, -0.035041, -0.045591, 0.024966, },
{-0.067987, -0.042616, 0.062368, -0.074962, },
{0.017989, 0.001814, 0.052357, -0.076214, },
{0.009876, 0.050859, 0.010871, -0.102615, },
{0.061883, 0.048341, 0.006835, -0.088146, },
{0.023513, -0.016807, 0.159722, 0.032138, },
{-0.024574, -0.114467, -0.163227, -0.018556, },
{-0.066042, -0.116384, -0.005569, -0.022618, },
{0.029810, -0.049109, 0.140108, 0.143198, },
{0.081585, 0.050330, -0.075455, -0.075109, },
{-0.030619, 0.020182, -0.086892, -0.036108, },
{0.056025, 0.193413, 0.177144, 0.077738, },
{-0.073591, -0.034953, 0.036948, -0.079763, },
{-0.044908, -0.070292, 0.050359, 0.037717, },
{0.056632, 0.076144, -0.119520, 0.015296, },
{0.120354, 0.158460, 0.022828, -0.066814, },
{0.083232, 0.009373, 0.161160, 0.121787, },
{0.121712, 0.070550, -0.110157, -0.141943, },
{0.029525, 0.073989, 0.203934, 0.085365, },
{-0.056748, -0.004504, -0.028869, 0.032523, },
{0.198580, 0.087974, 0.050697, 0.098803, },
{0.132122, 0.244619, 0.198995, 0.148428, },
{-0.053604, -0.071442, 0.119094, 0.073874, },
{-0.013515, 0.060649, -0.048461, -0.025837, },
{-0.041398, -0.120690, 0.112993, 0.077160, },
{-0.011746, 0.122095, -0.013910, -0.008745, },
{-0.016544, 0.066805, 0.167941, 0.044943, },
{-0.064231, -0.060484, -0.213343, -0.060567, },
{-0.103706, -0.025651, 0.147021, -0.028032, },
{-0.035187, 0.020967, -0.074637, -0.079232, },
{0.145360, 0.125083, 0.097908, 0.071567, },
{-0.105393, 0.047213, -0.096819, -0.154212, },
{-0.051831, 0.122116, -0.029783, -0.084137, },
{0.125366, 0.161528, -0.069727, -0.053977, },
{-0.018827, 0.012863, -0.019709, -0.030868, },
{-0.073850, -0.002811, 0.157804, 0.028479, },
{0.049868, -0.078690, 0.063753, 0.031484, },
{0.027155, 0.075306, 0.127776, 0.119629, },
{-0.108150, -0.118340, 0.015688, 0.099652, },
{0.014057, 0.009560, 0.055959, -0.111288, },
{0.003357, -0.068266, -0.204519, -0.106125, },
{-0.111609, -0.103132, 0.041802, 0.094895, },
{0.185129, 0.120268, 0.018241, 0.054361, },
{-0.078289, 0.051166, 0.007789, 0.033841, },
{-0.173379, -0.183509, -0.065971, -0.039266, },
};

const float b0[HIDDEN_LAYER_SIZE] = {-0.039786, 0.184718, -0.251014, 0.336732, 0.095824, 0.013342, 0.263472, -0.300062, -0.444957, 0.116084, -0.243879, -0.010228, -0.280023, -0.200096, -0.411122, 0.125555, -0.140897, -0.120896, -0.109686, -0.051090, 0.103286, -0.023998, 0.230789, -0.193159, 0.064853, 0.296756, 0.128923, -0.533280, 0.375561, -0.147707, -0.018441, 0.601541, -0.245638, 0.393203, -0.383912, -0.206067, -0.102951, 0.332226, -0.114941, -0.374860, -0.089314, 0.167070, 0.479678, -0.132904, -0.161756, 0.190117, 0.345757, 0.044931, -0.232721, -0.307435, -0.036825, -0.033065, 0.021276, 0.098391, 0.133427, 0.246910, 0.146117, 0.351193, 0.428070, -0.181156, 0.105285, 0.365312, 0.009603, -0.563593, };

const float b_hidden[NUM_HIDDEN_LAYER - 1][HIDDEN_LAYER_SIZE] = {
{-0.823578, -0.371125, -0.522623, -0.453333, -0.159314, 0.233326, 0.487708, 0.247879, 0.222092, 0.179835, 0.145653, 0.054088, 0.405063, 0.211242, -0.161194, 0.265221, -0.089709, -0.309324, -0.127492, 0.104848, -0.004573, 0.132204, 0.160429, 0.041505, 0.104342, 0.176419, 0.098481, 0.007881, -0.006438, -0.032402, -0.343915, -0.037822, 0.337557, -0.007681, -0.178028, -0.451454, -0.114047, 0.102721, 0.221511, -0.040970, -0.768944, -0.053580, 0.321963, 0.014599, -0.035410, -0.292905, 0.774231, 0.224575, 0.676375, -0.314894, 0.627239, -0.103623, -0.211880, 0.068440, 0.023133, -0.020320, -0.418010, 0.309620, 0.018594, 0.278821, 0.069499, -0.361235, 0.030120, 0.060822, },
};

const float b1[AC_SPACE_SIZE] = {-0.281844, -0.316157, -0.405890, -0.385899, };

const float ob_mean[OB_SPACE_SIZE] = {-0.001466, 0.002953, 0.124889, 0.003667, -0.000470, 0.012730, 0.017834, 0.008670, 0.108753, 0.131226, -0.035328, 1.144493, -1.077658, };

const float ob_std[OB_SPACE_SIZE] = {0.100000, 0.100000, 0.161769, 0.480605, 0.445699, 0.100000, 0.314207, 0.323864, 0.258626, 0.891567, 0.726894, 0.945841, 1.396320, };

#endif
